function [y1] = sub_64_all(x1)
%MYNEURALNETWORKFUNCTION neural network simulation function.
%
% Auto-generated by MATLAB, 29-Nov-2022 00:07:12.
%
% [y1] = myNeuralNetworkFunction(x1) takes these arguments:
%   x = Qx64 matrix, input #1
% and returns:
%   y = Qx6 matrix, output #1
% where Q is the number of samples.

%#ok<*RPMT0>

% ===== NEURAL NETWORK CONSTANTS =====

% Input 1
x1_step1.keep = [1 6 7 8 9 10 11 12 13 14 19 20 21 22 23 24 25 26 27 32 33 34 35 36 37 38 39 40 45 46 47 48 49 50 51 52 53 58 59 60 61 62 63 64];
x1_step2.xoffset = [40.81522;0.000167541640345407;0.000303443301592142;0.336539518708952;0.15113985524058;6.852976752643;0.0594470234113712;1.669410139188;0.0747215598224569;11.5194988184854;0.0014315174094236;0.00634488983273371;0.275788752734548;0.0447120745297914;0.599750882627286;0.0591603595398381;1.51317316627083;0.071139158136035;5.12618085704467;0.00785256847470791;0.0119944033948882;0.338853466406293;0.0217425516057411;0.141821565098494;0.0135035368960157;0.0865635610116481;0.0170150003672392;2.62768917384526;0.0107199141767003;0.00336578946505888;0.283961035347258;0.0109159967573585;0.0357476955619983;0.00285284258755504;0.00393233455568656;0.00362651631563688;37.029492;0.00208234866739316;0.00165895886745304;0.37263551819582;0.150179770319996;6.76618902401;0.0628736287625419;1.923958755825];
x1_step2.gain = [0.0044094881487543;0.780002825553375;0.516058809066108;1.0564396280199;0.816072879861856;0.00098808652651324;0.806239604244751;0.000522624568620038;0.570841642309706;0.00385952176575694;0.741730682219291;0.481144470238229;1.45753304435516;0.905595131529075;0.00131364665508013;0.789114892305509;0.000576120142875867;0.599340464205609;0.00601448707122083;0.603108891902869;0.477042878477366;1.84050020617754;1.42401597080534;0.00327820358569213;2.26048457104539;0.00499445618868099;1.75379876941407;0.00769275351276339;0.511245140068204;0.442456167360296;2.20829363775559;1.73580850620259;0.0049283361100058;7.90362431683766;0.0586664842700307;5.98700839396318;0.00463299144404622;0.832712156180267;0.577995763551187;1.15331972595649;1.01384293072605;0.0014867574002577;0.929537224965071;0.000754059296566449];
x1_step2.ymin = -1;

% Layer 1
b1 = [1.6164048656875029675;1.5702878225425669356;1.3881395825244795539;1.4176245128789297656;-1.5125320337827488082;1.3438387728284677536;-1.3455912701732732906;1.420178130512888881;-1.3923945718213615041;1.4688790920937897511;-1.3840066054359745351;-1.3548638571203925896;-1.1007477030640149263;-1.3195008244663108954;-1.2575122462074415086;1.2226882876526417032;-1.0834144841610662269;1.1855254392183041112;-1.1406568122432974022;-1.052027374711180796;-1.2690005785004605521;-1.0969391482166221952;-1.0914034921325888039;-0.99674752681147027467;0.92452408853741319117;-0.9054482742054372757;-0.80959540387390882543;-0.90749716253106793573;1.1417150926570853731;0.83182120285174809826;0.78518984259257218472;-0.86881430877603260665;0.72272154567428137373;0.58580467005607195219;0.78096238239940740655;0.78797266200136606429;0.76775439839136983;0.79065167539265623908;0.51242441565365848266;-0.57287910071501779719;0.65288957392756263864;-0.41582335962613242719;-0.62602011408366131651;-0.4021739251563769546;-0.44479080629419814885;0.41164827402936748912;0.49858532108630448931;0.53405467301430198379;-0.45162236895967639017;0.4236695051000504697;0.52591900001868852055;0.23262294530221905298;0.17809362373323375794;-0.37189075223927681169;0.23116562307254351349;-0.16501628044345822977;-0.21756532536221481755;0.10749615099892849412;0.18991192899791681237;0.11458092380770883156;0.082937794542377277218;0.080820910756322320023;0.061019402290475928397;0.10332466993126900034;0.079140231923281068038;0.20218731959478200566;0.13009007175158851521;-0.12992706352407093484;-0.2610442936403511438;-0.084823590800010784108;-0.12368622083884400764;0.25457388131850844371;0.17543514286646341716;0.3483535146293067486;0.17226799739839021575;-0.13296696021034151713;0.21787197554096987551;0.51221625143358473498;0.34609873219299525093;-0.33501932129227007806;-0.37105589787593146189;0.57768996443692721687;-0.54320533443048879541;0.39570926757168267685;0.2957718702730394722;-0.51590639022462969621;-0.63821787865720536193;0.67550055287237942281;-0.78587228006038822858;-0.71782985717290948013;0.7459515923061454945;-0.58214727828408185939;0.63288728972579211263;-0.76946331192331440807;0.82627593391867704131;1.0023874350617392182;0.80767398551152758124;-1.0358812815864517631;-0.87399090420077529817;0.92178881573172322117;-1.0069795445777129927;-1.0284129032838580375;0.88094010113454723765;-1.0927407403540603248;0.98423052131873367543;-1.0742979467570372698;-1.0428880268588769376;-1.0926352555906000408;1.0873851632321338556;1.1551702741981590972;1.0662564576348769751;-1.1674104718593725227;-1.3185981583406265472;-1.0765139219006145677;-1.4086962609926216849;1.3551222253000483331;1.2117515887880256908;1.3043285857839139741;-1.456979866613632435;1.3601394914387177071;-1.3586969218145565907;1.4295266861460971253;1.6586364018235240092;-1.4175529329696545666;-1.5248166583366995486;1.5178814590435905085;1.5756293829201624135;-1.5771121090522783881];
IW1_1 = [-0.45105222472139039347 -0.26156011639687559711 0.3013409943052390294 0.0034051226670468032198 -0.40801270571844078239 -0.3154129471000072793 0.2666712967377338761 0.060123689555408144081 -0.18555987220165601204 0.0043272015343416240368 -0.064119148155812058509 -0.20500032701936057866 -0.2318701376592230412 0.039321162414389057571 -0.38685584084446467124 -0.024728279255477821769 0.18840911782673155916 -0.49710302346283252728 0.010469991944193561551 -0.27320566908356591629 0.25104522248535854345 -0.32431355525436866838 -0.00041803820845249438582 -0.045027360457500741064 -0.28784715164143859223 0.058075545257356295248 -0.32587586709880500546 -0.095901211746367759359 0.33416837837394264277 0.15858818154974527181 0.26384452138239095076 0.017543425345385152414 0.050101308101664722428 0.32239068651842411883 -0.034058661066856288357 -0.096789214740808926507 0.14051023406137172489 -0.055825974430989792896 -0.42818382238815649865 0.18711458701387381764 0.28294426588213389406 0.17080203153508738412 -0.27735949952811750352 0.010036530219582900578;-0.40420641091440212556 -0.24250830001208625863 -0.17924945046118359593 -0.58897064638754403898 -0.1954791003307731756 0.21577082989420398595 0.18445369945794540256 0.18679781893917621338 -0.074688751727444130379 -0.20212427675527944171 -0.4913169254523960805 -0.20620039753028721052 -0.67826125770553080674 0.10313956516976952038 -0.058850330323060071058 -0.42990632369659853573 0.3511826724419109258 0.23534586863311315885 0.18629220243237307186 -0.38968864485831816724 -0.10472271186912457397 0.2059004548869736162 0.059834823537729335541 0.19948093356049664826 -0.54633228056504201664 0.26800804175596293355 -0.50065024968804805461 0.15492845806027968902 -0.24526441170956825299 -0.25636111056461263757 -0.013102229758833579265 -0.087637946911623729185 -0.14348286793892942037 -0.06687418893144114751 -0.040447254160426208969 0.25627726143860413144 0.35277216728307192462 -1.3961405958173531694 0.55090463474700779312 -0.0035847503778233627027 0.064454673749299973284 0.086942880524388907459 0.32611813060248101559 0.23166088998988282333;0.32949297667438737225 0.42613438877508341696 -0.37164807274871325404 0.68055812510925250969 -0.24027577651288170579 -0.014836360032580427765 0.40171405431981482836 -0.30687328564712729184 0.06695532072112034272 0.14916935876177753184 0.3311445317796846699 -0.11383356243416020703 0.23460251380935076559 -0.1748373471487633668 0.089834288651124222236 0.40653709638968749118 0.37107667511285497008 0.16359900888519030016 -0.27149013092381685253 0.19743506787442896555 0.24867090222166204905 0.034843185866259014649 -0.41264576084593262983 -0.21572325639861356095 0.39719105626171374857 0.25442166059495691099 -0.23793814792756773357 0.37855277172534668173 0.089324048454148832765 0.29025500627072348125 -0.67381224350405921619 0.095092461607146946956 -0.075473186184340956828 0.18874321482744046974 -0.078638414217769167514 0.0024120377426492785669 0.15153116964136550959 0.98233711999958683858 0.72161791887983961491 -0.46333321374921221381 -0.78950001218089704835 -0.24578818113799685841 -0.17719525285449380658 -0.087815937248657313652;-0.33500656430221520399 0.481510308538065257 0.16775359739928538683 -0.3437047208771650264 -0.02365566122501597951 0.10008251704744405841 0.19376159064992293235 0.18197267987920226484 0.083763922661079431853 0.29000187239531238781 -0.17755963031137708685 0.49505014663889285176 0.015349967100702322301 -0.4024496194363382795 -0.26400540394957572321 0.27009008960423219747 0.45556615184962107046 -0.021750937097346875054 -0.086314968211090553618 0.33878904282302751971 -0.40857044545868187457 -0.32172147261920502892 0.23646008435010909543 0.30609274618877979623 0.26066627923952723211 0.09930715828482815366 -0.22736373256896019734 -0.14094777772960540019 0.3901591221669573617 -0.16274053514627181971 0.15992174966330108266 0.20769620721808249031 -0.29997147201018486973 -0.2929509336755496407 0.15728679365426950776 -0.263836599834016583 0.10428623637129891266 0.7029568720827882311 0.22612403652023055356 0.18057623203297981651 0.069619048273420428008 -0.26784761817800806227 0.25786933035912701362 0.22257362378111070211;0.43794655914123659102 -0.21151539774329533583 -0.043916202534079983033 -0.18870541110063329682 -0.20353914878430862112 0.23271367522330985156 -0.18232095037850123975 0.39537796763130494959 0.23696296775142711155 -0.090950498711701327492 0.29065812777494504093 -0.20263015037140974517 -0.10957713443870377434 0.029532427521940161214 -0.26049967933514617258 -0.17193809222828623784 -0.32220984479184783256 -0.14426522094502083893 0.10731672280366863492 -0.1768560585992517975 0.30466443289294631303 0.38904508282339267389 -0.36549859889567620774 -0.22481869548696514771 -0.041650888801984885246 -0.024219849222347530904 -0.057915570383750718253 0.3041349816985412513 -0.083154204074584195383 -0.022109840453199025578 0.4537178596496450611 0.26826378714154464067 0.10115311430781175062 0.36444000074685661827 0.015389532622388507957 0.082236371854848680507 -0.083539135208252623954 0.20622487421837876198 0.26136696116232521758 0.26063463836067635171 -0.32232887540334781429 0.16777531944074633441 0.28929935687124358479 -0.21214168217146811557;0.065670902576024620112 0.1523973796575152917 0.62440055609383071644 -0.26277521860524477582 0.17110392342797642318 -0.077373264482579584556 0.11076065074861482507 -0.24307730994093468269 0.015273346404228125076 0.088642244018437690856 0.2465180751453964203 -0.062307667395008606293 -0.14311285291619726956 -0.47614217722935636701 0.00088314067998373482413 0.063252978750169219779 0.1920067773011620571 -0.51726624229888995554 0.22503048574313219699 0.5852942965845138179 0.1191631261788068108 -0.037200451496422121123 0.16069417020964427145 0.22130206904539095891 -0.20982549184064239189 -0.37843535876188610922 -0.040803274325058411232 -0.11665582179432644472 0.0040279196045613909968 0.098461005349825908572 0.010948396295004495654 0.31540126186525541119 -0.22371117492992317888 -0.13409909773277831069 0.063693763180111134803 0.043300590514419895483 0.28579716691420592456 0.67123021645137714852 -0.42956387974303456012 -1.3243805352767310524 0.34875287918451697289 0.64953183239951906014 0.23471981564705365897 0.64839718083267994242;-0.20649904392059217906 -0.31920709539433450574 -0.046141445375409463614 -0.0075503759890425126144 0.098158226735227033233 0.29310391241718414257 -0.39666229400929076121 -0.25173897224363811498 -0.0043462149190273040647 -0.41068011274930149579 0.02065893834639461954 0.27530395794837764223 -0.22416326052710874861 -0.20919852335627925344 -0.40525933520747081662 0.27427658075465854992 -0.11256019358094225546 -0.2245510244019503221 -0.030073104467265916739 0.2933267906379015133 0.33575202285684735415 -0.0027259102003187214713 -0.024386372624400944054 0.058640095570444111805 0.13508188602907095222 -0.051771638334998246189 0.28407643276354038742 -0.34866068721170972999 -0.36760861653482984623 0.2233894184960197038 0.22802110501982719715 -0.16684502787029326099 0.24243366094922799703 -0.085882635359448358803 -0.26533384019438860379 0.13969569427224140523 -0.34202044757841171263 -0.81572094687488683196 -0.21284491612770867208 0.28101347052666997284 0.16973233342035265458 0.34406061022736111887 -0.37734449067878544914 0.35004824500116371588;-0.39934851365344703478 -0.212185054100947873 -0.049996737914289025861 0.90868810142536771135 -0.35036348550071522157 -0.43955368091332802649 -0.030713403637377168637 0.36554665186533774612 -0.33073765969932611419 -0.17945304083901866821 0.025378304380082958996 0.44588187895006237138 0.5632645998784376884 0.30526141528016459414 0.20693629022967557907 -0.091022221483297707789 -0.061031844284329242467 0.19674026891425852592 -0.20559019951520837721 0.42953762426012198627 0.1756304172750944026 0.11749356431705106074 0.016561157679354957667 0.21245638547151385334 0.28275506615243206632 0.12521945722373206689 0.37140308030624991087 0.089032472867627401869 -0.25179889373166786104 0.16321656541772500137 0.15635237931655132648 0.16682399239519729583 -0.086172886152296235274 0.22490887448578189556 -0.18437713860606386174 0.13545219761287877192 -0.076218214311846416154 -0.1724339795608083592 0.17051603388200817224 -0.85428752132876639713 0.24864954921475035388 0.24310401286201277493 0.71098912873756248132 0.44608670152277485332;0.38973886009824770804 0.26715723177354872009 0.36799177220956347245 -0.28425827222340244171 0.41598781354075620165 -0.34547753017945442844 0.25008959530760488388 0.35922820210339473368 -0.062769737968694352959 0.097455746064919218652 -0.013758699477998648578 0.29415801130881785719 0.1157020077909981931 -0.22064930607227617454 0.2557965755082866055 0.022324309283453535463 -0.14285292163725751835 0.07054397383966666546 -0.18844917446907299974 0.26478474524331968576 -0.039779944872552736035 0.14855583611924289 0.39471062006212492834 -0.014375128007545420056 -0.23893837857670846558 -0.24778233257522974675 -0.1184207433375728119 0.29159662535521135851 0.36056525831843450058 -0.24303056469955866548 0.32780920889700998488 -0.21891272151764468168 0.19603564839962092647 0.37312204600361470463 0.031289441065325676594 -0.0098195665551593890041 0.10747537573662341304 -0.015464607201656269814 0.10852085378266584925 0.10248188939117841567 -0.042177825486821966805 0.41058994821655575569 -0.040347567847027067389 -0.156476986313794586;-0.29837394839987008144 0.2465221660964573569 -0.1150082265637918516 -0.2331398661056287569 -0.2955822978269613821 -0.39495915556742866581 0.37954959309791169719 -0.052457771259399578467 0.41188059337355659162 -0.04373243453267214309 0.052163889980548154568 -0.44371519401098280522 0.17116130711025082101 0.15785531302422270428 0.074635835979475928514 0.10986888296937200038 -0.22095538542825254869 -0.30159864740931058291 -0.025249453117175042066 -0.11699439963729939274 0.11826013722882733337 0.065433276496328199312 -0.25917954497513967516 0.080703977773324248046 -0.37269554559029621776 0.34520462366761650586 -0.24114246377916359609 0.2050296338961063447 -0.33174466163491472814 -0.11859238275441406907 -0.16784634216539642826 0.10115511727881790205 0.05600195253508342963 0.10655838972673788156 -0.15737015750278318671 0.16879409601734979285 -0.10452128746792850589 -0.21887583881807487485 0.24514610467574815544 0.22279526592675624741 -0.042968748340148188447 -0.1975066679937132752 -0.30287993153463083074 -0.077278606673307451147;0.1772163480760634291 -0.0015834317162244145732 -0.11512084264081301477 -0.16696926061716804712 0.35539994079821446427 -0.31437636659825879404 -0.076361082890504999865 0.43287505431258543886 -0.200153503132918964 0.056298301556164630222 -0.10284622450244830516 -0.031086116404066589658 -0.050624491699912524401 0.17164387120377150309 0.099490366687748382768 0.40178937429686145677 -0.26233662628917286952 0.29959580774496596955 0.25169974273536538378 0.18573944810931586336 -0.29826644804598378968 -0.11227516319984254256 -0.044243408327457753315 0.42640202188544112927 -0.15776528478821763568 0.10837277297448619229 -0.23348944985589956125 -0.093644259562797607654 0.041039060562898535545 0.27188980547893543127 0.32802945162981866911 0.2104553779368036337 0.37254380994193353471 -0.28295735445510816763 -0.32746688505488608101 0.31230854565441751314 0.13699233731022064653 -0.077444799468004782428 -0.35535880460458801888 -0.26404132888447018335 -0.18396582504479327969 -0.17622727180327846241 0.13427584435148490205 0.10620810750948685153;0.19311529469291391359 0.15369387282104138293 0.20951894210464827584 -0.67288531003501406147 -0.27572561194013189834 -0.35920041465651147972 -0.039472749422683368892 -0.20813015216459426759 -0.30396504409895369614 0.21923409037296659463 -0.072670504267269175891 0.2470696406238138132 -0.30507859838679773912 0.049248122614663485119 -0.034018802460012036171 0.089265405088872457062 -0.16802008881031391119 0.2833649207933459091 -0.42762394904211492586 0.35748694830962296498 0.29392203035601405237 -0.19291982210841449041 -0.3892772478987845397 -0.27987839902015032578 -0.22201741211517078689 0.2451280825418303555 0.23394433576594220181 0.36703203199916673016 -0.40246997205375567574 0.42099645210279873497 0.26334593321841182068 0.33871493344653130775 -0.24957208294476754262 0.23022715413759942127 -0.0043427121683813074693 0.19622750850096115638 -0.53164996478999260177 -0.24552328923431876451 -0.56370693234147173367 -0.082536663560770259784 -0.19135080945127175278 0.17884910564587577775 -0.12755730185101735175 -0.36219109485942047044;0.089057015009126522243 -0.048909028392958964204 0.5126619805564042176 0.1522199613623784753 0.36230699968933699484 -0.17371798427718174174 -0.056525502070744602923 0.29206315639118946015 0.066433948157422539893 -0.33975948310640158301 -0.30185077345553784633 -0.12714322020035756511 0.22855314782956392961 -0.25541617275421857336 0.19291878561913652912 0.24806812611946926772 -0.16945303873254383142 -0.28114945525885243205 0.41222364505733577467 -0.46981295575356951666 -0.012569039921999907577 0.05350299615986231494 0.33705066927999122184 -0.35809727931064483375 0.10980460125677812822 0.17819903718076157695 0.38757154745325750334 0.35362293982542153392 -0.42576313827220729769 0.3126612286664811613 -0.41788343033081665201 -0.33918488968689991525 0.053578067624108292877 0.14845401252397869007 0.1317617042952117512 0.0083369489316370646442 -0.26042481003457329525 0.24359173703881553674 -0.37667070983226114134 0.19878431481154326677 -0.51857050496281997809 -0.5212356768699158982 -0.20165995838162614762 0.013250360000048361578;0.087754284342782221118 -0.26934250379549140586 0.28545753271605861512 0.30880526925489354406 -0.054158437133899742233 0.2338912895125404845 -0.135803661776257939 -0.3928884623149018207 0.16649172416358434812 -0.31589517010037976297 0.15850216090688007409 0.33366969394473872113 -0.053718389792322532306 -0.069286816617321861367 -0.23265562705982076319 0.1798821834084405602 0.14266660911506753862 0.21037845663313592404 -0.43433035451335982868 -0.079240574750074579957 0.57225449431050090521 -0.057796112136785642022 0.033462313667721677035 -0.35882329518888306241 0.080048575065264387929 0.19988653747009380024 0.24421969250093422676 0.26928774954011114318 -0.19061396149568829439 0.31726325032475544141 -0.12365393434815773188 -0.21734192070036778555 0.23959069907149799228 -0.25968604932700900534 0.049190085980167025381 -0.24305372918583362241 -0.119733631205520899 -0.43630539949476310202 -0.38246922569094010669 -0.11697282327367938826 0.29327877086918513472 -0.22550128798695284749 -0.26504849010134334808 -0.27942048018559551004;0.18408795551752840658 0.6159057655882176352 -0.33769285375332153132 -0.87694556439508120071 0.29183621518350233437 -0.13235405085043172591 -0.13859236386927939466 -0.25098734487656398917 0.26933107991687182947 -0.19150867307624822033 0.64058247037901416832 0.23495394550953707657 0.020790986954993130598 0.28326959874033075248 0.097419055725716477423 0.30522631325087784537 0.28547156278892793502 0.33878767882927351973 0.269167806611493865 0.58738843665185791476 -0.39137873292913133438 -0.20819757840541125438 -0.37721409496249208582 0.19346120646479206262 0.050825929029081971799 -0.061094723287584945526 -0.19323482439177613879 0.017281789204486756178 0.26981709200286357886 -0.30934504933454748388 -0.053689677916043912487 -0.061024281886772419048 -0.34067485950284759344 -0.21739640188269038212 0.32371414297506939661 0.19958582961509704901 -0.31975836859928274958 0.51422036289062167391 -0.017214220109299384343 0.96484323385964620989 -0.22459439528757246807 -0.40254199938804663406 -1.1239667892844376063 -0.2689165609579525773;-0.35142082237858002225 -0.054361728057108330003 0.21091855532809214435 0.18995990568049955782 -0.12119263749585572343 -0.13596733181450795791 -0.18907487910000361775 0.34341770622752326725 -0.23846124924828068781 0.041418887107555313332 -0.086634934718037154289 -0.15564938853967882904 0.25401187163234090205 -0.39742003102295919703 -0.12928709660764003964 -0.089247510744743865918 -0.35151375803745055215 -0.23299641801611373215 0.35396601987328346617 -0.28297045876285298327 0.22757891985737987994 0.088610596307621566914 -0.39767568964635746642 -0.40123642350629329378 -0.053690894567392538628 0.20791430304412758523 -0.11615899452911974954 0.079776627161484953143 -0.068545178350647315013 0.16970534576837018048 0.1948609819902002438 -0.42656897918163388939 -0.16887914206452891985 0.2315779968135315281 -0.48631838651268582963 -0.11096899341753861667 0.33450863408063724602 -0.24837946134109215035 -0.10489374216623151281 -0.089125854221101349917 -0.43651728720007337836 -0.086625280098834495091 0.021242565734889917728 -0.032922757554401431423;0.15311992345936847881 -0.53776760519031396868 0.29133212899770660753 0.34755714527291636795 -0.069777688317314207067 -0.0093054911733886584019 0.10249908952630874814 -0.29181191025100267078 0.22189040537487531024 -0.1606760471752688435 -0.30909712485901058576 -0.36722697564656681113 0.28927243717853673433 -0.074564677287583869258 -0.10184227308025504966 0.12321965499608068806 -0.09918441481743515975 0.27483607695389683512 -0.40364144341456714704 -0.17140836904589398793 -0.33173362139075968091 0.53258232575600039649 -0.16571710554720561759 0.029066612961672160659 -0.15845738145201759828 -0.29395511413852581928 -0.34476647693279760531 0.036607137378654619475 -0.30175578832803562346 0.17472955233233605776 0.030273390941404510618 0.32666031513391358132 -0.1223625815225490715 0.094326632672376370392 0.20558358163206982838 -0.2954176249860122061 0.22417667161701640421 -0.6896954874932988977 -0.18535577857328833229 0.049655284799293042397 0.55480374893311001916 0.27692428183666162322 0.53061168622795584771 0.17377342310350779586;0.016563756734140906712 -0.094067354376918321801 -0.1442115969087650329 -0.45890484474977494278 -0.015071059939306775954 -0.071410717421276401207 -0.42495946310839061155 -0.4291502573761770134 -0.092577495163787784649 0.26881331777183126164 0.046985892277215210444 0.735991496254308597 -0.10432063615306340354 0.12288483940398355065 0.095938856549772300042 0.14633933381242605898 -0.06953163500960518606 0.047046658196405646835 0.2209392718135521072 -0.22202095980522204566 -0.41653528688221069798 0.044798358411500087406 0.39675162794724144755 0.24497565619879643761 -0.079801472868982634146 -0.43020374509364583959 -0.34699141844817876779 -0.18043941902100393837 -0.2833273736108022911 -0.37941553386838217099 0.10469719268811565616 0.22235716985701453607 -0.084550008669339232759 0.059189527998450515434 0.057474214674410675774 0.3408109859091776328 0.017762529176344403481 0.09061103574214235401 -0.39969332204210045179 1.2793228275487122936 0.23194903337451419634 0.19772315843740220775 -0.49586943923238829823 0.052223009929689465092;0.0020988025889199335254 0.14343684083101415627 -0.24722526966971372642 -0.35073370678156634561 0.23442312940526144338 -0.14630529354813404108 0.24194640018885574251 0.37947525601730930367 0.29616203881896852046 0.22614834997865387867 -0.33057860784919712582 -0.20551791224522611423 0.21667790047822838018 0.12249381270940297439 0.081120527316142207463 0.21826882901675792592 0.21241141087499673668 0.23935276319797535449 -0.25458420608007348296 0.16417388597808110773 0.35889437982148730821 0.3345547197713948373 0.29401011643581703714 -0.26544406118623087298 -0.14991016251072325494 0.32822890891112010969 -0.071394412419122255109 -0.022231688007566360182 0.06895057415320866856 0.32955597886969173471 0.28237921902910684269 0.1395882639802141223 -0.13997129709952246812 -0.046534992402692675062 0.37637701531226136487 -0.35813926811898749714 0.10697242358340572355 0.07554224750442654901 -0.14102875089989624913 0.17208023789915879997 0.24881775165782057946 -0.30792154725217035782 0.052241999014736001383 0.33834432395173869024;0.26262288644400605397 -0.71019867516326373735 -0.26629886091329535436 0.080724865400127562842 0.058947566700136545814 0.30674993652185472692 -0.19742051822240958003 0.058680054133438908082 -0.2966880303827975629 0.15706092876732818953 -0.84589987257250121022 0.058487799356524719507 0.49014866055474598516 0.21672790785933088165 0.31853828678030354782 -0.37741341265201366895 0.29724971982461140252 -0.1144638401966268787 0.18677930677657617053 -0.033874945541612633271 -0.090804694837237437399 0.82293826000561931533 0.30148057264649197329 0.23086578060049742223 0.08344569239872473565 -0.23769178879849581221 -0.33622670509113894433 0.043420424200032163575 -0.049032805503221407739 -0.11399204139357370369 0.18898835193053431514 -0.15710273686901582435 -0.1384243192262737121 -0.45499354058420976576 0.32673597270698884198 -0.081054406320827651622 0.072646913940246984898 -0.53815897385384381391 0.29136810899285542353 -0.33004429150631070522 -0.43511511276665565395 -0.61107575643556444334 -0.08696421038478158172 -0.21600184036618985672;0.14753462014153623238 0.39229702443031244652 -0.40250183536735517631 -0.10762398439825375529 -0.23841375871733519465 0.086063596914737139354 -0.24052772950190887125 0.18080967754489021826 -0.11720893076592252269 0.34601041964447620813 -0.19351168498924042893 -0.096454009001160467829 -0.62572365536130414299 0.33235809335759070038 0.36589517091500262103 -0.31632843174519165164 0.12415386208171591553 -0.34631746176787020497 -0.2312464298471649804 0.32998812645979341829 -0.066014085064095867628 0.3516621717791656998 -0.25445748428959424903 0.31673037944788468012 -0.14016980912065835074 -0.066602262544309689951 -0.3614395055367616294 -0.27534678708704601879 -0.1485325179917998395 -0.085961659166178830405 -0.25704695054034748525 -0.42105862550050698889 0.24868864288859873768 -0.613834165798579523 -0.01430483221130518165 -0.55798240842128632444 0.7747024430663926875 -0.60608465345119200141 0.15614255136002144764 0.6043588627874565411 0.12491272468844580312 0.49895990894492836532 0.41680658660210750943 0.044464840750192066721;0.38815006253195022401 -0.21989653114454577043 -0.19854765843462846009 -0.14640868535833065356 0.062605903058339795741 0.0029081651157983781468 0.27472162569157893008 0.04228518382684174487 -0.2202855530832592279 0.05760158763607444582 0.14959826711883883466 0.059152922057802967415 -0.52735062536584109694 -0.14699123181439305297 0.35874828839446248896 -0.39727698160319585563 -0.22000427040571715609 0.03137508470056483284 -0.11366727562220364789 0.46778829141532074498 0.030784204236268392779 -0.22485987081012437372 -0.48751056534296666189 -0.11351449045401840188 -0.20974777337757877227 -0.3767420640020438527 0.22934595666303908557 -0.24255110383729244772 0.04407346275517419476 -0.037567683677641822149 -0.041194775744803784068 0.030001009095346590355 -0.25150340614781335757 -0.20679388884297983386 0.15172356939794065522 0.17444462373258329269 -0.29515335895475219852 0.22237599843422098389 -0.25192962564124105063 0.41638305333556541177 0.20765031393885863276 0.066891859717888621506 0.44462275429269476623 0.24695436050359231839;0.12875636564837966702 -0.12023662798593434675 -0.40046343176028187383 -0.44021304634414498702 -0.010969356006617319091 0.11682192301489090214 -0.24928519330674245302 -0.2221351193691711301 0.34862402121500302155 0.47546975402626268092 0.41106275717216328447 -0.48790491871541458169 -0.18655290167556679015 0.22916007428506404708 0.11445533342332581128 0.048406986641354607381 0.37822391904031271714 -0.026894600452071083102 0.098747297236900552497 -0.43068886881372087094 -0.43296204804482685269 0.67984895772302400552 0.43598084608173548471 0.37148179193054048364 -0.15653842324684189014 -0.20140442300879246584 -0.047165563883281642898 0.30039401526273556975 -0.10342378607279277547 0.33346660558887125658 0.43578919296131829464 -0.22842785648070815241 -0.33165176818384350943 0.057805740612286903024 -0.082570543340861043968 0.41269591153788576232 -0.74993003554833992386 0.8836808717763434684 -0.085497124297394019865 -0.65248796539131048711 -0.40821001819727781301 0.025501008592304526962 -0.26079518073011215273 -0.1189679472921783554;0.14587897614160341697 0.27309709102113249868 0.37153350106698695976 0.51440922942350886249 -0.35756986648074973179 -0.27545338775324196279 0.31144719950634436323 -0.1389993737653271999 -0.26097808793635662861 -0.086320567451266219661 0.5392759240943451049 0.12766379693161034048 0.011089607538615755752 0.046807224192654990624 -0.19772895337048096431 -0.20339229022557489546 0.36332684594925873656 0.04222452278446698487 0.1354732248649676285 -0.13330110305489625833 -0.026539362358056702712 0.24386374954215619959 0.19049691890666139993 0.10119399471941868673 0.0033614479031538547008 -0.13329280249782862744 -0.26102900829262071225 -0.0099897865689980436255 -0.21504247362535761079 -0.18364789977051967917 -0.32610587170445531902 -0.46951770561311356733 -0.53753276437871333471 -0.12805635350821034657 -0.53953068329227360511 0.062569908631535761656 -0.50348032409719511993 0.54118964762194488038 -0.43934024167984592202 -0.73264802939337048127 -0.098288707960154916843 -0.33309446442463441773 0.03372337079945437327 -0.079506782759074079436;0.087060113622043230897 0.29425191485256330104 -0.18603778171607912584 0.13603031113417438092 0.020642325028115811325 -0.042503795865392587916 0.30882384942584117926 0.31258519902211540087 0.014936598410757435593 0.14790702106020478523 -0.030175735768464578834 -0.26134311471095211798 -0.45487580970378543865 0.26062198097571748212 0.060228089525085987121 0.064124274107388815058 0.34396963902086874487 -0.18033541869992730788 0.24659625094543707879 0.25352379072063974119 0.0095719265434169344131 -0.12539684224500793897 0.19913003303049608972 0.29541674215130442338 -0.24827466638819101208 0.0097726416353181300156 -0.32325364079714957732 -0.14723544860036158477 0.12594610969347483365 -0.2732561622203114049 -0.070038563159231084776 -0.41640838093951770826 0.078355413169375290328 -0.32504244376232738212 0.21099013193948584766 -0.39929012052071866101 0.36879431869792256293 -0.19254187816179921255 -0.25446392763693842509 -0.47793224462356520554 0.15980915985824703518 0.1873990793192527593 0.236834900609832949 0.39409133642682586673;0.46312231108743390218 0.1358210096914618803 -0.10308382284413783458 -0.21227017339771525606 0.027569111439272757369 0.44131222638674905134 0.13563375004435626603 0.36991881634597650885 0.24723483819987548959 -0.081747368523223437609 -0.14753417002739852015 -0.36710338556551747047 0.15533813366149173962 0.15627354963778858354 -0.032908077268222507561 0.18715569131610540476 -0.20253143803292855685 0.3341958680654166236 0.087206766597868093371 -0.29444293850666553025 0.35070390453796801422 0.084832463188628026707 -0.21758935953166508304 0.016637328453958974417 0.40574981998177145348 -0.29403784990175169112 0.25260738408093486029 0.14709065331720708181 0.33479193316750965881 -0.031619022087142574506 0.27018828760448543314 0.41442580756283803334 -0.10187089933215255633 0.39899210122399314526 0.12835435732615466109 -0.040148316448002638324 -0.12825181028025586794 -0.014802859100830479192 0.28579870388990041841 -0.089072258504354989705 -0.3682249743474196868 -0.41686536551593339484 -0.39401806207751344235 0.19365129995095439752;0.078923128785728505208 -0.090305434420576424781 -0.010434435900508709852 0.033529349875008808424 0.25202537150239773256 0.36035093157670361474 0.11217908190493536269 0.17290125949644805092 0.44401285332429074604 0.26037501774438059909 0.090625225866234393468 -0.39056068985595898679 -0.32359442822648060156 -0.31694769976861270067 -0.19989861604130765294 -0.18786713300240356905 0.33051464866170587875 0.38223229046254003638 -0.35117165002155326103 -0.24538970801751341932 0.36542712851083786196 -0.0045324286920390378583 0.34324249309608328984 -0.30852895900114879479 -0.20061312309809217758 0.22513542452396292926 -0.096076743678294662665 0.014479268167383398808 0.056831339074467170092 -0.46069712404688384355 0.26120180105868884279 -0.059693567596539431896 -0.22854912173639752027 0.30125639584060037723 -0.16356839998056332819 -0.24625374288767731823 -0.026126247404387025614 0.036841619847796588938 0.22870309295661747639 -0.03788325400439333801 0.0087142237399559369093 -0.088503701402341053428 0.3090748612676146867 0.39995760769428440051;0.36077809740578642428 -0.21318852238139418542 0.12232704222075761746 -0.30529812495854985466 0.11620183890021217044 0.27947994996971303738 0.50551008767297933577 -0.20963517861693845012 -0.29720354333473614217 0.50625327627312566303 -0.57756209430812277539 0.41671492571720758491 0.0036238171601597575153 0.11850403486515566354 0.14594407622620009235 0.43893623061576653166 -0.27778698336265128521 -0.21145509740466808535 0.35855532991834054846 -0.43274027013637622607 0.061585787532397469335 -0.46123234607672702889 0.28004174921975305557 0.063131441651832070905 -0.19887240897620822588 0.20420305596117646618 0.21098139006761032488 0.15176303878556735016 0.012504846809600662569 0.39339610090935483999 0.14378662430745431378 0.060276440173969263181 -0.20971280512329026902 -0.28921001250605843369 -0.26543528725572823612 0.16629509915039181189 0.15445085570663871777 0.64201117817220099138 -0.25554412219392613759 -0.45643932782924429015 -0.026247562078752274123 -0.21829179615019783656 -0.33364106158106882072 -0.31476695350715649946;-0.40024198425081142227 -0.15617449809948963368 0.6201301092349638111 -0.051456245861367669314 0.08167932797366624087 0.30644908404746723507 0.01676710138468930425 -0.39096237987348309018 -0.022268732607391081291 0.095104226759875273856 -0.16527726019320623796 0.22714397698593219443 -0.32274733645108028002 0.10861703833931912744 0.076426942054170943219 0.46384800003514031763 0.36807872613992415056 -0.21738323866368294834 0.011621012484123283137 -0.85210308594712291796 0.039388608098375611777 -0.0049637823163526878859 0.02477258980314469422 -0.40008791006149158065 0.13332591788360281804 0.32337106296564172014 -0.22388186511690688629 -0.29113706565515590219 0.081815059775047799251 -0.38803539529056402246 -0.4021151086540284969 0.076366038715691808569 -0.12512709385925047112 0.28835326062839922168 -0.045087497943116866539 0.14011179121916145229 0.48374811910580955976 -0.97882882976438889688 -0.30661596522341011406 1.1051395333584872471 0.89486031568054347218 -0.025655823860959044852 -0.053157386518380249363 0.3621326421650620242;0.017978336856510346298 -0.39118463825630495068 0.43422747660126731484 0.53502909116848429427 0.35460592887910602489 0.24817045803619486311 -0.33144107788415028137 -0.29559046985100956295 -0.31001594427134276932 0.081254552438210850274 -0.063452992967648183531 0.21313478789894990673 0.27112890953455665022 0.094523245473874126232 -0.1540140723884639018 -0.061431117357830175574 -0.33655261077701326133 -0.12572619331696935352 -0.16747771056192339856 -0.2998210602901967281 0.074585774481684796733 0.031163019440806596222 0.25386394955729085776 0.13221390881028047271 -0.24221911148470942621 -0.33883409503172112753 -0.27731065949445715679 0.062588508384882043933 -0.034759109207152430465 0.11214041147016436117 -0.29557596533410868123 0.31885809415869176275 0.23188964148555635258 0.12731077937666759881 -0.17111315219111208896 0.39742751646859508785 0.34430913796161000118 -0.014379760786455871024 -0.39754852241686977621 -0.52160922596385483896 0.05854970975647386805 -0.240750216749551188 -0.12602868849444145982 -0.27441993058312491582;-0.17799537270358153918 -0.20119958876944799009 -0.43291620353020099365 0.11541869027526711899 -0.35000623617530346454 -0.12025498521412619768 -0.18486563544038084328 0.1152436912939495961 0.40257455152174764779 0.22456845839794609132 0.23532214209232071855 0.11239059590662461852 -0.19608753589887464863 0.26040028826233446724 0.25110980931041460007 0.34871918288323250357 0.22084531190068695805 0.3727471903341207371 -0.22612476348024163064 -0.13240877611377199763 -0.40695090921584348154 -0.19060061064332103897 -0.099403868251949759061 0.092249674641055962043 0.36743211160810690386 -0.16777483061168968481 0.18914530543689445086 -0.25451985525897541374 0.37424124613636144954 0.49447522979138824883 -0.29667715895545782034 -0.37297062161934041447 -0.34221750974727666028 0.32901606274994843471 -0.056573102204426156669 -0.24994299419791246586 0.40406077768330328492 0.017144931066257057539 -0.28885206876987429281 -0.21750266515154065283 -0.3579389766692760988 0.064966592194567324148 -0.052269093618583450933 0.18153535635044501517;0.40842123559237397679 0.42872098181267409567 -0.64308532336785628747 0.44525294606976778544 -0.068031544750328590276 0.43971220322140652792 -0.00038592843603887802767 -0.0066475743115979989833 -0.24575072693791000233 -0.093827613693687944574 0.26798580793805265587 -0.067103403892692717325 -0.0049819916003713575134 0.32249927412796197679 -0.16681327741717244528 0.11390515325082520293 -0.13301045740769998349 0.25712019755906367902 -0.19553989923438833132 0.41343488387699434128 -0.6954131144584059232 -0.49139324998971772862 -0.13284596821465130545 0.29067472099112307005 -0.30468218155653509216 0.016342801271224116633 0.020321727655902975529 0.057412030141762243618 0.71780920479091236963 -0.43173503084452963252 0.053627483650122563519 -0.22230668660931571234 0.48943061622800937416 -0.081697577030795193176 0.3565109815936823856 0.02815194296708532079 -0.16345503386798529433 -0.22280654853412298899 0.76754926355914721015 0.092206903658942282465 -0.24814768271977236114 0.23815023143097530101 0.061332102904423597967 -0.1982229667475653434;-0.25570324235879204888 -0.11187073555209695042 -0.15965002962685381771 -0.28292296979477882246 0.28556272087600975684 -0.21264173218527210318 -0.063757705465903674602 0.06377458929820802036 0.35079785861781165313 -0.099636204070314995929 -0.48652325973722093666 0.25605316898178831497 0.13252656779557037137 0.010079148786101499446 -0.10622755943729970951 -0.22557605822423268394 -0.05934738920960547226 0.37769209673305748076 -0.22418108163096975294 -0.051659924861681916219 -0.088409278806489022262 -0.098867760282583178055 -0.093140672557707984702 -0.32060065652913327661 -0.28577322347652134304 0.1059090978208940409 -0.38624876164762095287 0.21068762879716959602 -0.19220044435765748503 -0.023095969020733634475 0.34057456858031132096 -0.26464200798637127487 0.17139959086237807617 0.47248464034034071135 -0.28108432476652689402 -0.23450561133267777691 -0.14988506857827127439 -0.48598171027593911608 -0.19437760495440156716 0.01812325485549482959 0.14925501676354777092 0.33106833080641873135 -0.33374603653978440754 0.45048890739875602218;-0.027066515694390540919 0.076272960558063859771 0.023603465627952725098 -0.25288270084483599476 0.25801075394878564273 -0.25580562634726466964 0.25509149777684764215 0.35084069431024322849 0.13859816519780876476 0.21104406517979401592 0.0039749127095188383635 0.21220846375484742063 -0.38786154439451914211 0.14419946131024891089 0.22760207941289500866 -0.095246481963728257814 -0.17199212809300132299 -0.33199521057575520633 -0.38381624093536381714 0.25583507992490855942 0.55018874709305454207 -0.27890717915038032437 -0.31456653003727708118 0.19051070496538544119 -0.13510029299134473924 -0.14595994571122802852 -0.22484400429510850716 -0.0063873439362340835024 0.12290976055713379034 -0.36582710599849138644 -0.10596812849469677831 0.13635641916600257928 0.20885434830904567316 -0.23482694481765722938 0.1995573210313365542 -0.23333918928713626162 -0.54764087706535724553 0.20935197379464184908 0.45993119737059978691 -0.059083270184047249896 -0.58355646466243960013 -0.44134124561669313414 -0.25800144718284773182 -0.51101767320942781403;-0.10003183580145461051 -0.301882343878458137 0.1863074043078473685 -0.057519481043398268394 -0.11831374739108573013 -0.400668500770223035 -0.0060732620680428450743 -0.016041194818185406518 -0.10449722068436738398 -0.24558227777721386431 0.26291654792536484075 -0.35068711530896073958 -0.31894324907574728156 0.033157027149729859095 -0.0015329258195321581511 -0.1353032048778794183 -0.30904514158941565061 -0.40087922717776286463 -0.23209097657098301526 0.018881343370496739276 -0.053033383447278842349 -0.066785217770198523901 0.36798925670856330594 0.32356244251990773364 -0.36570501136684491206 0.065634362605168541926 0.057964277346018923398 -0.41767993153447291466 0.21770811297473779966 0.082340685319058526392 0.090538500820767309207 0.26409393277321702165 0.27153420987592197244 -0.37403709872603985165 -0.2738128237615698457 0.29754799773575296706 0.20572061453588669222 -0.21665388600859902812 -0.022676474546801279886 -0.24821912718358274397 -0.24567901369694633562 -0.20861057154044773676 -0.19491986533777178048 0.033517298832768167849;-0.24788571964261857383 0.28229871179239413026 0.24132591202296532762 0.83921678514659192594 -0.048889944957131413472 0.21482273862829795452 0.019700427594574063117 0.080898271964742959894 -0.31823939701694037296 0.24617949426596441587 -0.32878611955896830388 0.2128361464468170039 0.75717816692325334849 -0.12576740776984982051 -0.023538510183689173583 -0.028304906319422857425 -0.00092465056957720566377 -0.079746395401601805064 0.048679962881061675239 0.04641333360993701862 0.11856954243107156732 -0.3744844165527526636 -0.14704962786581621259 -0.38277403826933847908 0.1608272015142793443 0.16402078383327201028 0.52386084079423078652 -0.012478479176036689352 -0.49913065658482652642 -0.063664780779859722615 -0.29958331427749473885 -0.20503043246281760226 0.32832840254972034399 0.46333791369817745043 -0.20992796043244638104 0.13979311229112073578 -0.19818240869485997946 0.23886587803126024809 0.35180343918588091734 -0.23175396567789724456 0.081799719216785138354 -0.0185722606679074205 0.37465172208259872599 -0.079639690950478431164;-0.51597294185161057811 -0.29190870915900979377 -0.2147744426039464305 -0.041771119663611015749 0.35396793406983567687 0.30535323771188838116 0.14219211666634112845 0.25679782766279907191 0.0090105735320961423407 -0.17656703402395312885 0.42614653786201139862 0.41757499777374335048 0.13395602271820092333 -0.23861131829168019669 -0.35319996418358762247 -0.27176360985524655733 0.30681289007134093794 -0.22056713088175272652 0.3295722338152446973 -0.42170335912347733931 -0.54690341660537611368 0.10655493043393250707 0.23797085787914609711 0.25909845985092561094 0.29811062857892700606 0.17223877342251767142 -0.084460678079916015615 0.10915707839835575577 0.27218672598833137943 -0.38976409777513104649 -0.60881120745919670156 -0.25827283518659016615 -0.028031907082457275387 0.18221700563730766631 0.19223026142322935383 0.068642179418153231873 -0.57951639363933749038 1.0293441958872111552 1.248206933506908145 0.12431119410426588745 -0.33791485770299745095 0.20272472513151990059 -0.86620582225288911271 0.011273506039287239239;-0.2138031404417155279 0.10480871013338811937 0.20849585748218418813 -0.42682301077927936594 0.22448262701572294087 -0.091761125269569782104 -0.10489206811817715359 -0.3022672604631594373 0.24431524304778920453 -0.03547307799869939271 -0.22692707357717720185 -0.19435561559602174131 0.10915428165488544332 0.33157861168119184825 0.23929542182009705398 0.43211593252229524298 0.25722278212674803965 0.42439996863189050069 0.031075635657438524517 -0.2596049325070328706 -0.29286187913702599328 -0.41815661653709917944 0.19414145500112583997 -0.1069491089012194196 0.4265602559997107579 -0.34248402608888900422 0.34637447660829223661 -0.18804597561083410961 0.027817684463645929449 -0.26566446843617769202 -0.59505424831686259957 0.13950197913296233376 0.21821839716486551852 -0.1232434788973478107 0.086620646497137507303 0.35010986866938598183 -0.11504080792152159007 0.24480324506238965165 -0.3788745734721158942 -0.11885354973936886058 0.28555702737399846214 0.19892500795476117381 -0.54051449776555138271 0.09158482618238071582;0.0034764150440317440234 -0.16403225382435854263 -0.95455391088805530142 -0.83990427954514801367 -0.30427086527610153199 -0.021759663478894315097 0.20681030091953903072 -0.13115355517791099649 0.28482522466493781499 0.43386883385810925962 0.23960385129761702094 -0.15850921824241392954 -0.66196019008993201016 -0.20995923730945459385 0.051922222130671262519 -0.10411430874266668078 0.058802867583755233372 -0.1786975523987418546 0.19221375413183178216 0.62821792946708010508 -0.10447998338810521313 -0.38414286401919744973 0.27995151084945257836 0.060163879959949477516 0.22015815281187753327 0.3279161432926042119 -0.021851715540982617064 0.020333061472308077561 -0.34214769922274129721 0.31250934062520369094 -0.045511431348283844234 0.48957886056912952588 0.5390422708772514282 0.077812778450046610201 0.067857639467186953164 -0.42816178994528597546 -0.36192604348236179224 0.86209381860603895298 -0.33576531895671779537 -0.23329882409711449887 -0.90834226094150627429 -0.25257107125211991638 -0.51041105388156882139 -0.11320425862858175814;0.18170959793212190792 0.17021113487041528156 0.022665445331952204649 -0.32512353782457459328 -0.21507471941075703703 0.32421643880798745041 -0.23414511473227070382 -0.21481857268416296169 -0.31360805813119896346 0.24420477182983674203 -0.10005014598900870137 -0.065505502503626883426 -0.11407835303164348684 0.21752228793285940944 -0.14790391583178386092 -0.2121287101597518765 0.21024532917896290862 0.35953865200691387249 -0.24484415035494552781 0.052924525225955032504 0.18429772491159024383 0.33488388489449300023 -0.19577178447469942291 -0.039062359818191207117 0.19458397148294526158 -0.39492901153208165299 -0.083812492071697330953 -0.067563818239357545381 -0.20872120772138583189 -0.31455399368309094887 0.41058814379933716854 0.1660832225853590971 -0.04483698634535390054 0.32154626895477916859 -0.36038500209707197142 0.27328404789022875399 -0.21484432948631296267 -0.34975163502710826524 -0.079791439847851350353 -0.30698669886811602581 0.33492022270555499297 -0.31677495964155605312 -0.1080691702417273109 0.27490788870573723557;-0.24999188746810419026 -0.26857364597905930559 0.14563511622276689716 -0.2573399460935904548 -0.10721962090073527962 -0.26404079947225983505 -0.028825246437908524227 0.21321263251186745036 0.21006155084633298946 0.32186081098265700851 0.16897914383828391283 0.092482239377213198983 -0.18986641868951037448 0.38108725533566278898 -0.26980450134893096958 -0.068091230330138322047 0.046139205761202894962 -0.22102887528302564424 -0.23789200211016683917 -0.41079754891028397168 -0.37504902049631555494 0.13656174000340684516 0.028071460511132691196 -0.11396976881036779972 0.22116850473848881364 -0.10286921646841414024 -0.067469871306741521777 -0.23217682900234848375 0.16559575585946370579 0.16443216138945374039 -0.28533831205351561922 -0.30586274118629480645 -0.32189330418877726281 -0.024509392014135482352 -0.39439966715817226239 -0.33012453722020140834 0.071785288762617083247 0.20756721064582298042 0.05171006540824014952 0.36578807369875349087 -0.42542636955746904182 -0.081582334900823005874 0.090818883645754633349 -0.4036599258781302102;0.10017160985754346159 -0.025717635748921205407 -0.47219993403967397416 -0.11974057997757261984 -0.21851667423353893227 0.16756160823414831262 -0.29109044617191587312 -0.33236174518258693178 0.040575814806668046575 -0.21562194374219853521 -0.70746427010306156546 -0.078466566949746879844 0.17400690013186001504 0.25392012557664489503 0.39523680851914611001 0.11388171408854846911 0.17956242609930886389 0.021802089269336903665 0.25330560830196191535 -0.58782485762610026114 -0.20179439590121531212 0.33784747163545614246 -0.3233319124475855233 0.37991931171399562217 -0.12239649974833265167 -0.16281599639611432639 0.26414452813975514145 -0.22704416790858700237 0.060145996831308001784 0.40859450512151579415 -0.51216651633770315932 -0.17571244934287233441 0.36902617500245987747 -0.47503814010761347131 0.08575793818984321637 -0.23584583177533377518 0.59601523780076814951 -0.95171200263336375169 -0.13158462396168824071 0.24726988962856014109 -0.04995234731405308326 -0.27881191333208088512 0.57895984172480885466 0.099267273756084836722;0.38175141634591008843 0.18474631607867481042 0.38356425969391921837 0.33250955720948810468 -0.25388529515209090626 -0.20934274275114561625 0.061158888607361891476 -0.21202793048086090999 -0.01140040642285444078 -0.28364185449321377419 0.20529763494893069065 0.14205233314880558182 0.11210577865771118033 0.090474049299003433955 -0.18551745872073843735 0.30600435342484266776 0.40638208086941324249 -0.16394693023533735143 -0.13120731095797069643 0.36354978811459265353 -0.060232179337481601966 0.31116403158991723377 0.4020724478857053974 0.22255706543852657453 0.19034274594679354009 0.40417301853020243252 0.069278367062211354543 -0.07330196415737157134 -0.1679988058975388221 -0.17647952544076248027 0.38555770490142476925 0.27250115191735901909 -0.17777651290192508782 0.054965172525506957035 0.22780370737323671348 0.18303781178853278933 0.29355964212561530546 0.095176924159965481387 -0.26231399629401053186 0.25499084657086218408 -0.22150488424818517985 0.27865671899490940255 0.20263347669225253989 -0.044076753795562660654;0.14978180861474987839 -0.083354399677517024281 0.24581723958064338742 -0.021725740242429392862 0.34884594056490192404 0.22729933521144829456 0.49217530013478311135 0.28432853751418324384 0.37315425885492820024 0.26058284458923064442 -0.095835668794580178287 0.34387307114260390328 0.19627588413251617627 -0.19456476410984938075 -0.10668804880275037372 -0.062077945999195097149 -0.22709941675928374538 0.26313173520172605802 0.026506568333765523349 -0.26150968245241806853 0.034526996745510248055 -0.030158030511532683132 0.35865526671508046741 0.37102392156687363789 -0.39676263958671670329 -0.14004015390692964305 0.39373730920977284553 0.082428361067724539857 -0.29236239953053533291 0.03835096986088103177 -0.46561061286441574048 -0.16165279020088144102 0.35137477670334849034 0.060053203294300493142 -0.085271563477425274535 -0.06365789175171854275 -0.19613594908820788931 0.20635734614424922073 -0.36200749792196407206 -0.10569475115335544291 0.050264846919706070161 -0.015432996258241250473 0.29094515273943616362 0.023600678242584230415;0.15445189248992458042 0.37622346702880449243 0.26440818100301055615 0.081182092167019284656 -0.0045348764444080235866 0.14976084487807558854 0.07636464118826384595 0.36661573668499713996 0.40054798456267370899 0.37716824432960566194 -0.33697114034675246241 0.41408991623394070247 -0.021169728730029736818 0.30789520193380814916 -0.19975175351680493629 0.092180014420127562302 -0.071127326969220860953 -0.19367520887937780816 -0.24501875799446187765 -0.060583695217421559831 0.37696891534889248598 -0.45255504652829708911 -0.31144501025613130496 0.24299124338477745555 0.12548792197686869931 -0.20231590671812932358 -0.063733868990604874982 -0.13520228402210546226 0.11499450644561068358 0.46907535783247306105 -0.24386894031491185286 0.33800496016866871107 -0.013706344312094711699 -0.12838700304676484154 -0.17922859098997315219 -0.011284998240362349026 0.17600312584561966789 -0.5710819914519347229 -0.049401460018951015574 -0.29540454018837880579 -0.025952269323268051249 0.037901379023054085349 -0.040543736920261128076 -0.34792876852280074651;0.15488131591322959468 -0.4356434840796835628 -1.0710051209543989259 0.46291674441446079014 0.34467419576770486067 0.029645166620036467187 -0.090794868950125368068 0.21633388843268402946 -0.2229013645827336576 0.26863220884226984841 -0.32300602685939511227 0.013088836762704104261 0.12827294074494649534 -0.25686893162028839876 0.19395316052456995637 0.32394647706555712574 0.10104342306554800479 -0.16930688640055574501 -0.14738145651755149568 -0.25906321533847076477 -0.07114485502517765847 0.5391937116956877496 -0.26029829782381097569 -0.12102218695552788286 -0.40484564887960033941 0.0020736791599666173566 -0.025598085301039220918 -0.23960364579488313552 -0.55706978596097522782 -0.37746323187294072987 0.21368329239825481491 0.41643857032967035448 0.43686864727407054287 0.16392479112127317231 0.46189711273927613888 0.1785952714312096512 -0.29313186525456275122 0.74953931741577217718 -0.67694835383690832309 0.056706336846203513058 -0.62496257485430994905 -0.2436262976727837648 -0.41494394481711216471 0.059798523506286088702;-0.050494353705963314349 -0.50634618930556607452 0.15286444629003959061 0.38083773936674697458 -0.16053302821759038443 -0.29795785437751676206 0.44529112114677554812 -0.13096347139507530377 0.10379693976343146167 -0.037605297677647954446 0.18362046141842769398 -0.39212449795519627171 0.082139921428838288953 0.15769593907375586972 -0.19037220785844713444 -0.30830319274176981592 -0.46151421034815454103 0.32021045102213063771 0.3883114986542668956 -0.14385049788774795232 0.029242094490781841976 -0.22027671024628417418 -0.34700404263372214286 0.096983930650115068861 -0.13236054431988886204 -0.27485075645876289041 -0.059974944833789116394 -0.27088068219633276712 0.037353570908706799913 0.23735906795121805568 0.10665321680771336355 -0.31395121948190102268 0.14415614571967533264 0.21747759634060384593 -0.12385694473635673607 -0.06651661127970844023 -0.24516432968646351132 -0.36586015401048349593 0.22285813202980478409 -0.2469719317604959774 0.10802901657374866518 -0.019895403945139729374 -0.11550064760889686144 -0.065780498850002283584;0.02440662008729535884 -0.23966150215974346693 0.28432819107149409632 -0.01664780990696176563 0.029142763771110694743 -0.012132274539578304096 -0.39632700410559323911 0.070265238353660774973 -0.26990465821608716768 0.093621361518236065336 -0.15331813863365523209 0.36126631902903200144 0.30668114181011257857 -0.46697596435320343211 -0.12093844185493617116 0.1786141781715362975 0.11546881322477735299 -0.12043225360955016334 0.036336605607184553624 -0.021643648740554674581 -0.18958325587179830629 -0.33760644834290060023 0.11945122392152206225 -0.12806482971609262078 0.28399545168485479385 0.22232899336114431144 -0.38973622106930677633 -0.40666126046546330342 0.063194669064426195471 -0.35337082960165161483 0.31488903656144917598 -0.12761942088313857346 -0.199398929056052443 0.40333190089227438646 -0.13416559402495331632 0.0058291916566285502041 0.11848428336304966946 0.024302053305814575596 -0.29384040589453053194 -0.4009264778259166162 0.10524224039674448528 0.10970958544287129355 -0.32290009365375865746 -0.10017125475017983616;0.13044730014835956289 -0.26602218686986495166 -0.11252191241393089127 0.12902368682141118761 0.37511980848527748389 -0.23863700111744448606 -0.11401015459071303648 0.15465663390466377614 -0.26678684155703885628 0.16473811708005348109 0.065962003766284277306 0.48545530244940987563 -0.074995256646675736989 0.24285496670297018751 0.079083666826941137473 0.3461693080283548829 0.3237105151462147945 -0.36137671606102556021 0.051449917840407317915 -0.73362854758971118851 0.43643729953300125501 -0.47135909291800881515 -0.12070491200498424667 0.060592413412780730952 0.01480834660243154563 0.25321273492607038191 0.4928616149359613674 0.0031780181922715393036 -0.059822691230904966042 0.14738159102458103789 -0.080827987844820856078 -0.39236600948616523477 -0.32196987111949548765 -0.25478108526460824246 0.30027534844018954896 -0.23012209301982305965 -0.4331298643781287816 1.0992740568987964256 -0.37259055708138028029 0.74573588140227919929 -0.19611094432851255975 -0.27581864064484618027 -0.0079045668014895691805 -0.010987478413991346587;-0.20038258276541870417 -0.98088545594845977238 0.25372725409938517993 -0.036574102314801314184 -0.30941217753479383079 -0.44837868148213666508 -0.15303939806561164816 -0.10381368685929810713 -0.21211942739773012589 0.03043683288170899795 -0.88889175274258902526 0.090707261055772772651 -0.11157582989569751752 0.43855399946619882945 0.10393543472529923055 -0.36149831640041446557 -0.06408181190066715438 0.1763941448425893066 0.4160583166936673849 -0.65572997710611391486 -0.28656159479504694776 -0.57095178056213102824 0.2925412822747753272 -0.26151430607985071131 -0.2072776538086332776 -0.2815758552445435936 -0.10621391508266576909 -0.38163728622003539881 -0.31088762732119612497 0.31095893432198912221 0.22428214813613647771 0.12620763556776309899 -0.063799471280941225104 0.41970116608128676949 0.14397764233881119034 -0.082136459230252201191 0.71131401766895174799 -1.784938383418872343 0.041031995559152295572 -0.24058537517931871674 0.70432602583249537265 -0.19333026822985410753 1.0684493287946397189 -0.30371226266328854582;0.075187111707671200334 -0.25486651882859207019 -0.34601758139220017974 0.47025622303359193577 0.43233952517218032785 -0.23774528395735516906 -0.26658096694673510951 0.041407336541330441726 0.19780580399611680242 0.36561736178629683502 0.30266442965844031487 -0.22030039699853051771 0.19004154199521161583 0.47527307953413511221 -0.2571086906826635099 0.46292632967032282254 -0.18226620757269165751 0.34386839676300268165 0.002180752272469064449 -0.38125121131702605082 -0.95106950537587553463 0.3238204018176280008 -0.16786314759910964112 -0.5149461369105056141 0.16445412893181068914 -0.094934373083418288619 0.15055024714642895045 0.28030277097809119802 0.17295163365739310568 0.27370467115187485652 0.23192184550002670207 -0.19402286266112739321 -0.32850790413921854283 0.45057238671659655127 0.16281509152016587771 0.57730639979602738077 0.26644827563612499821 -0.2430194987628462866 0.17047188020060916047 0.076450714153982718413 -0.079924230533529830312 0.51496773536917406222 -0.33497895378144648681 -0.26197450260788124332;-0.096923987182437165711 0.10459678863309825048 0.14079974613898416091 -0.042127963702895836196 0.17040256106665099822 0.0091199075181873506812 -0.36843110999730477317 -0.30764700353018026302 -0.11074327009337056604 -0.13658322270244285801 0.1727583614198204276 0.51705659685955873694 -0.29191131266874686956 0.23554297906859017475 0.052787405766658981876 -0.28756324073335165492 -0.17333816016852848785 -0.0087157894439113710316 -0.19639081933080029807 0.48763218166832794642 0.25276224017976639535 0.055080400647415331261 0.25305867105051865762 0.18463075082818122818 -0.41339765471109718442 -0.14250721071597657885 0.0531697308747507702 0.25241546369283013318 -0.19077441206246087413 0.63356556076203118799 -0.40510408389891078285 0.46457384812737972934 -0.046921430165468742957 -0.21967623426083010552 -0.22045458922276087166 0.030549958520812502821 0.36033064209650778054 -0.33537044513222208364 0.5738767043706139992 0.21487370228316665655 -0.34094148194099410665 -0.25599693814118834601 0.068862652592707546129 -0.29496104097524061816;-0.27651121689643481938 0.70968583791859618515 -0.74614214742628459653 -0.045516930171407857242 0.14904598455810844082 0.15771672127573577171 0.3135196452947995871 -0.045702458201607704114 -0.23514611545218488953 -0.47064454088579293911 0.53261037534050847952 0.16192587667676308638 0.86661292226132469185 -0.03727359177980877486 0.059736452859519256764 -0.22333827041849591 -0.2610737423476569008 -0.084027757007491460373 0.15558107975227486452 0.61912368690406871519 0.26551693847186386144 0.23250856583966383884 -0.25249749526776799069 0.39688382903541635782 0.058862972471965667454 0.40024124634219704344 0.27241294187378967129 -0.46131847959335281484 0.6578935021139192818 0.066419417784760056978 -0.23317891513045752028 -0.36300059462920181153 0.071099433094325689697 -0.2141458140140196087 -0.24583428373200455486 -0.32338136750706208966 -0.11896688206246854025 0.98444663491873229955 0.071916888507573287215 -0.13363627938466632328 -0.33533947800616076274 0.36907972669187322223 -0.36921542396750833825 -0.080002314992544704131;0.32996883392900716592 -0.13295507363253639133 -0.22390104229119706103 -0.42874708390362198385 0.032014722395054484583 0.35191997936094343569 0.095446634955141301804 0.27045089594540067113 -0.32604197199609491475 -0.17776344324842210942 0.32841490358583763642 -0.12171304575496480482 -0.53258109672232423204 -0.19366736160904202135 -0.26871080835885124971 0.32701468788033871693 0.29520331943228378391 0.28798318733993738539 0.21200940259154132939 -0.53888947778385509757 -0.026131226063044753899 0.66656208865240729189 -0.20536335380447620635 0.33436821866741417431 0.22311840382001049687 -0.23540252671677444618 0.25349484909847963543 -0.10783791188074738632 0.38554782102784479481 0.49275950045825805956 0.10429248163491336432 -0.34096428199270345516 0.37764427440212339215 0.36641160185535592841 -0.3073057967744611263 0.36566883450198262029 -0.7308208761892549532 1.2231743937714876225 0.13307864973502034345 -0.63524090113643538746 -0.27651289512257404279 0.16966990669199777386 -1.0494795984922067333 0.3802067638443576425;-0.69542551522614626247 0.67791857784867526338 0.051303227146289362426 0.10962656449005284132 -0.51691200033243700496 0.087823932407517985022 -0.53652994636414497176 -0.43722084846341019437 -0.28024930455439833743 -0.0048931942563186850426 0.093609747587857075612 -0.0060149454964538873886 0.30312442069458139793 -0.36910809206269218352 -0.010004583148524922448 0.066643603731182526895 0.11566695271917162846 -0.50591801014331672093 -0.4181819736446327207 0.21186718950466004729 -0.19017337197864675469 -0.090173765216833637326 0.16438697753341133256 -0.4446438217531620829 -0.28486136612558432546 -0.1549949544743491614 -0.15723367556199324691 -0.32775351335790220419 -0.0081157540646057159395 -0.51245320508591585273 -0.057641699389789829988 -0.26423663221661974898 -0.34265707348946883304 -0.33739152791492582617 -0.31777210496523516925 -0.42180451965051857233 0.68364696488582443745 -0.95139517200094647631 0.44836483059718390543 0.20773679044726572895 0.63790785873019451024 0.38513716274099496495 0.78924626258363828057 0.52970374411557785699;0.37421422220459515939 0.31745046342491606284 -0.25318458390202241981 0.39162476386129135841 -0.015486122707201895737 0.14196838909471681811 -0.39125273652417036363 -0.31564933580369031185 0.2069299445618771327 -0.242575611017459003 -0.07292525405280957107 -0.39701352315550836325 0.35802409420775693771 -0.2422626317278176733 0.33994024757882268517 -0.037079292944789080111 0.13352878006179974557 0.23109958265934185673 -0.21367386708522659311 0.4699870275193415714 0.34014167133956041411 0.052304270746777466183 0.40557502863882471944 0.014303605252737413081 -0.15641856786517266409 -0.42278715867997951339 -0.18546102953933021884 0.036254798750150099562 0.46251813878050196394 -0.22992904327877047854 0.43258839396431536528 -0.12575926272697016128 0.2344484188648311429 -0.0026694300279339246845 -0.18253409603141157458 0.20463623269504530033 -0.065727330277901355182 -0.86947921303439179574 -0.21291389567578317132 0.39865411690756025198 -0.024215924319954774263 -0.18630864870399016509 -0.28887386942559201142 0.36397256730002547354;0.2984865689350905682 0.21119898000391351678 -0.29228513346650658589 -0.21541929869712819756 0.0067664946449465636705 0.46055672516747331313 0.27768486644004303221 0.13330253394004404344 -0.19280516157923546783 0.43134161812684745918 -0.12459855472876550653 0.4189548360123384052 -0.50365288304403255104 0.46493065464853161606 0.37780167573738454578 -0.22666269707136507683 -0.3006478506151536445 -0.29294976693287116953 -0.25424841088446886728 -0.045667514525280630822 -0.400296827018997603 0.20217642111514488867 -0.36209381281502012184 -0.18063726349468417487 0.20621401816031267873 -0.21941377608496676066 0.063158063581546408649 -0.17270320417830645199 -0.08112423671388035995 -0.11615577980366773025 -0.37079008393850576564 -0.07683436576400520801 -0.23165890655277060484 -0.39952079040136134758 0.13976141689707313742 0.31774827725997684125 0.098309907384413877662 -0.37099437359499654043 -0.14558082211443421072 0.83132822629256308833 -0.42908241747268383026 -0.4662372919943291727 -0.12215212724017887602 -0.3391595666359555894;-0.74467442665581418115 0.75211698594467646384 -1.7643538988046936211 0.86973532131174102755 -0.46986615375103274461 0.1241101756527830946 -0.13186685631679506692 -0.23295275167052664766 -0.43743625627782029008 -0.49704134125675802913 0.96299674813496982662 -0.33792288105341228288 1.1556967279041880925 -0.15220575760583585079 -0.47897433601409999948 -0.34669352090628680063 -0.074761763354932925241 -0.098964899447838483582 -0.34757342558396669974 1.2258361354900046969 0.20682317785036818947 0.64636417348818553386 -0.24025313118898630749 0.40413135067361533048 -0.073338284532634856472 0.26565655643284974419 -0.63624791558911109046 -0.14381329859328742526 0.28802953013434290375 -0.016802549598343891751 0.35090155256889749014 -0.25201176051211343632 -0.14326939440502189926 0.04899468224731930166 -0.12468811973884647015 0.11576176731729466429 0.22328311095839981082 -1.2824018048183143392 -0.34587200636014636679 0.62070552894720165682 0.832804544870311525 -0.029391541186312181155 0.66081126874846596309 0.76079537764096560881;-0.46285747487793438282 -0.086766435079687981302 -0.12448702769521644007 -0.34992317782486687117 0.077315603727280829416 -0.18670196195339014422 0.10187358083589867497 -0.27395574617845108722 0.12125417845025497632 0.14602750257311383764 -0.63907462012581561783 -0.30479619082073883263 -0.023754600716330811355 -0.0024679876858081750517 -0.023429093959055614232 0.024612171898907270196 -0.40160582162485203295 0.44026984167618582466 0.14444649009115106963 0.5249038532554315406 -0.03589186311277906688 0.44651034277962364794 0.20347528457836019933 0.19357170015312796796 0.18898040760163056784 0.36286061013942150222 0.22544269927414420374 -0.050859673681937909995 -0.37611507800489385467 -0.26100196093193145375 -0.30791658603968652397 -0.042486790763903499457 -0.017060998123028175283 -0.27759252562743813586 0.22410391010002467249 -0.0049320925410145065315 0.52706214322385958049 0.5443226994342044156 0.2839551906365427314 0.10133598813104119363 -0.13318960370620233635 0.024335001480188585277 0.19373374427906114859 -0.39072664582195359984;0.16497249939577959821 0.17017693904098796231 -0.2140447621062685768 0.6253160534031385609 -0.43999056609927489347 -0.43369683174675377479 -0.62328968634377046598 0.11692197742009802219 -0.096247091349945843031 0.087389777498379131448 0.096831585877712594845 0.19526372182121462528 0.68021136998978604105 -0.04328852175332981167 -0.5197362153790475725 -0.33255867914109299432 -0.27049851929485269064 -0.56451431062525692095 0.12396055293374816375 -0.19323064132808487336 0.44983921569985158007 0.044310408503320193596 -0.10649818605686278694 -0.27369111569702997411 -0.25090360565099600887 0.20890599246804200662 -0.22506208219232490264 0.29556607381682226121 0.14543949145257881184 -0.097617052769624734765 -0.38564846152730497542 -0.28231306752784357528 -0.31083904134144885179 0.18870657864970399875 -0.06762150194297840422 -0.32207845736151385907 0.52134035602106343354 -1.6024331538840774769 -0.19865065104079870917 1.6752669319803095149 1.3622876573455069416 0.38463396592979970379 0.29453802740406792582 0.82947835119399948578;-0.21133371893588878687 0.35060950926599049327 -0.42874495701605119802 -0.48811027161288444987 -0.29762105142568234806 -0.085123886148628188919 -0.08316911476417446214 -0.17747765333549780919 -0.019195820333707012267 0.33437540094397877333 -0.20234304239132794301 -0.27604494181039229694 0.11388319462951579375 -0.07621891762047255936 0.11331312575196283987 0.35017600270448323574 -0.10040021674563608112 -0.3876113283821128741 0.063342390180333441041 -0.0034435820934005986066 0.093135455628459193345 0.086220491883839456282 -0.01941936423748552229 -0.063164828911062675942 -0.037923791658310043728 -0.32333717880294760016 -0.510094696378822543 0.0066109090321019685355 -0.094986003727084128423 0.095425735886277437969 -0.23723318465604711913 0.26136302565077779159 -0.4501081215685707182 -0.48092662158735782763 -0.41246825431144151786 -0.32008187383571456985 0.37730930474307367017 0.19124647154052232256 0.13511896196817552163 -0.2584861248289966329 -0.12482162030219043358 0.13189680400044498376 0.36292220510084993723 0.0039958756680093347746;-0.072889626667767076773 -0.30660704111322290011 0.10839374955671692013 -0.1655890908948781659 0.3827946855996673392 0.26935249273642986045 -0.2755450822763710339 0.41850780351931154977 0.35138691357134377302 0.19227430524395663913 -0.22524720438662831912 -0.29535343949198739066 0.16276934507957113718 0.034738591234722192291 -0.20293443669981173216 -0.052053674685947022571 0.435679193153633737 -0.14918694618982580868 0.28910536686878585133 0.1852082062586895006 0.22814291462837130164 0.23538988294134366441 -0.17376323617920322318 0.37164613901436094334 0.13917409960103901967 -0.1064292133601349305 0.39828721329022831465 0.41329623899899226025 -0.097328515488878622475 -0.046949608280279928052 0.31448378600868437394 0.010449331423372990382 0.42445104120712073836 -0.022591888408733835913 0.25848673372852160046 0.45048024550008386457 0.075529390388398953693 -0.38137043024647537814 -0.37199943169008542476 -0.11920072133011651305 0.068967125035796245092 0.024614619023689148641 -0.01385358292375815821 -0.060047870695578799138;-0.40166760848416949159 0.30024255025506002559 0.42220463177608835714 -0.00053143361711885091312 -0.026864163303573430214 -0.0050527587490620277585 -0.30639804724141977976 0.034332080906263155728 0.17425528536067771967 -0.012224525709828740899 0.037269652223695180771 0.17533473775300290054 0.21764033897457768507 -0.21358336797151594721 0.31906339532514027546 -0.17812372318649691283 0.080400603124770528285 -0.32971975772555101036 -0.25648531113147859939 -0.21620878481026736817 -0.027421868329894339561 -0.077545274311727557803 0.34968898024489580845 0.14194303609612965444 0.20448591716809333407 0.37223190132783784412 0.14438799797504220379 0.14900065394281036824 -0.26263327058027907679 0.36274446001989985033 0.37615954777498716854 -0.27488343348877392058 -0.23034167169127117702 0.099909132109674433919 0.057231092443200258513 -0.26869430725403153914 -0.52260400100556436698 0.27133071955004356424 -0.3555247953121962734 -0.24195516927355170678 -0.50103528957753917794 0.04681689690202799764 -0.70589095771134546808 -0.42754185807247585549;0.40378810556613697891 -0.22389150810095415078 -0.22238358463873819648 -0.93984745054950624699 0.098952772282384776625 -0.4196468455197616132 0.30947188075502479743 -0.31484555740014896763 -0.10229315028564320289 -0.20132848902550107284 -0.38264761942021607855 -0.12199574986293135193 -0.36071146575975998605 -0.022647193917702021504 -0.21540542761160097474 -0.31437842833403750742 -0.14832525273768684682 -0.079168401108471411765 0.006670204177048768765 -0.16431279196709530632 0.084083096062286380445 -0.3841887775824013862 0.33621373571639856515 0.056221814343589228413 -0.28598118166038261068 0.19771598214848817854 0.16559269028538925461 -0.30898809212388456125 -0.31216319812708481773 -0.051453831507745073637 -0.21204436870378792768 0.27474679887789371646 -0.14607786789019922002 0.082738952136042043239 -0.29478764218054470669 0.19927670630711435962 -0.20617878874356609931 0.7022999132015789181 -0.2890928911434678672 1.1385197160333888622 0.365170934824634974 0.33408520316821288532 -0.055209423317375695694 -0.080175554224246436963;0.44099152259243201701 -0.27427114328202778504 0.80267412607766019939 -0.5475097273985704005 0.58048075910020979773 -0.27649681683740684468 0.72274105343424688286 -0.36528949100954000162 0.32407117323208123327 0.17418442776476758538 -0.59736056359600575583 -0.014345520860175828629 -0.22273336264605303469 0.37317321132783065618 -0.053330775509175622207 0.033999627156534505124 0.27398878860600084373 0.59878923957780605392 0.031658253248330145424 -0.3229965813766719207 -0.018987155119895775951 -0.32713329417678338462 0.19150019042290869487 0.065596057089878173629 0.3880551949410476209 -0.16511911169010959344 0.14403863390795132449 0.31408645673691959477 -0.56038619710995341006 0.17762177565808381918 0.015643822790940328793 0.35314816674890958659 -0.07555081237255160953 0.26995392187668398876 -0.014709130602148309461 0.27234471113668967668 0.41474743225802701563 0.44487551166228056498 -0.1329144682972630831 -0.22530192778320742852 0.01048773500101703865 0.1302436108204600429 0.053684850599719106945 -0.31496576304648404854;0.25383101754646270054 -1.0177102852303685498 -1.482532216665162883 -0.68721471925809529679 0.033469161335886558895 -0.29990176227313708468 -0.02106219929400863361 0.085964535454766510814 0.46467118017811576136 -0.0030679684950745602506 0.18358803205006668513 -0.078118293080596021283 0.027759774951781893831 -0.07662837528623495098 -0.22639075420531692973 0.49548924724722637203 -0.41448196626618571958 -0.046160100201332168735 0.20693767911823246486 -0.37259499956848141089 0.42604849868770849897 -0.24812973158125348205 -0.096767040931447848018 0.30661414859901364727 -0.16621112975519750088 0.18770875513453019745 -0.14790294063137937597 0.3674983454159106433 -0.83127842321001355064 -0.36850169878787730759 0.1546961161805061602 0.25803348038144896526 0.045128255011751203241 0.19523725185426815676 -0.29827137246774887425 -0.25792940258322694103 0.14680803284670812525 -0.60453572037297387265 0.19901165835509224133 0.42809166286632321929 0.45786639182547894666 0.022868473445523625209 -0.047515605328866186707 0.072797884508429708261;0.41915371556473507431 0.15890550382964901965 0.18361635683737165259 0.18718782009767037655 0.22187712669186371306 0.26451190430054083436 0.54007972289985439751 0.089772185074421667617 -0.20768371505018271006 0.28324399211698364498 0.019544982321783494622 0.092429126565987354547 -0.2630236066816540319 -0.051823400933521772405 -0.16746283663705013867 0.39882890475392268614 -0.31315682552636564528 0.37957926974301214873 0.44563501290823243073 -0.065354769331602696747 0.27844786255361358984 -0.10688549574308697787 -0.31179579868492185435 0.33766560506190146373 0.30034965907823135689 0.18707656792515142685 0.43143128076089570788 0.047374625307169133948 0.027362990399735855757 0.25936288291885140067 -0.33644588192165575391 -0.10836188581064404302 -0.0026634127440237262939 -0.20002661000353219589 -0.094105489805372352641 -0.13560032266809168844 0.13006982167685665619 -0.21483391554108746679 0.069922983722184584021 0.32246477021012431852 0.18978730625595022219 0.12764187581987873621 -0.37023572428475359786 -0.12926749104006068913;-0.29919864233037990475 -0.1698050362293211657 0.28742249583606521712 0.41451400147019767939 0.19201861129615593882 0.062587032567277614548 0.16804081377236468331 0.20731922577156086662 0.20516535386720224921 0.40876722109317525922 -0.11155398571929633911 -0.54597541351263745302 0.43558037114445274929 -0.20282460831908810661 0.19828010322548292321 0.36981984529826411601 0.090947417090635376824 0.34039047839758612701 0.071289053415019426607 0.22385955578729960225 0.070064957953682324709 0.2820427096486822216 -0.12653596297131103343 -0.22935858426799760057 0.18264282436641679497 0.33803855396498588837 -0.060586903523576755848 0.043067293143126912647 -0.1307709869238508904 0.46622548482149256399 0.42918006143849707357 -0.0086061466870587868816 -0.36361421679116129324 -0.13758215030986820082 -0.30951692969242650122 0.31998007144687573566 0.078477290207797839594 0.62435825133795697095 -0.51646716792492941561 -0.18995899627556636635 -0.55660772294303939578 0.34637060373153577553 -0.40581375221502757888 -0.24896207545499418612;-0.078235530293724764306 0.7615287170829173613 -0.61212813495051487944 -0.80641291139893800377 0.3085288940044340622 -0.25859370979848950167 0.47373082572035890569 0.0023133444842795046828 0.41351387837308173356 0.1188026548607264421 0.24992779115012012103 0.12361700977172715432 -0.99656430889165414921 0.17060820434260201561 -0.20548311725215639978 -0.14353817339012214793 0.22716680985024573225 0.45819635908667238899 -0.16851954280656858409 1.2561489963711194306 0.025601135914413465644 -0.6836461968117946153 -0.071475935951737720742 0.10593153403883655284 0.084653138718538675778 0.23642324110597831566 0.43644716676373157549 -0.32714279164986237447 -0.066739558826859141094 -0.1949570746595299664 0.18875346342873250416 -0.074238372172903854818 0.42231509241980402791 0.23126863335930475385 0.48639710518029172226 -0.31234775239537221347 0.1329083351292688342 -0.1619095136425657 -0.30195736178227616797 0.13675754044959706479 0.25060245693402510847 -0.241558141610956012 0.64921247051571695508 0.15829526777385971581;-0.18867606150280832877 0.35905195650545113084 -0.68091719056269972565 0.55574182435060692775 -0.2544264614825658688 -0.26569902313564053298 0.027531641732976966375 0.066909861117104452166 -0.32293807612576491683 0.32682818473080632593 -0.23189161950559708525 -0.075756432692972219822 -0.018051925115500064289 -0.028169404618333650225 0.41185504541649964327 0.069154927509593885904 0.17553554605004637046 0.057693000137619486478 0.19347096957986428811 0.42231566112852803041 0.29308826446586144776 -0.025948787535528823611 -0.13440464511510469281 0.47234946604041833096 -0.012207884822641816222 -0.016069092494091507389 0.11128861985630719711 0.22649869163789099202 -0.13487070861689551271 -0.18481135969220605086 -0.38164011801852093519 -0.13865268929419896637 -0.29859253115432599079 0.29659604246932508298 0.015527090747039160035 0.42839031650036019094 -0.35669040078592684218 0.54897791818341790115 0.16565385311904373689 0.39658687531912156787 0.30328000998341797523 -0.29218258302821614736 0.16774467187681846303 -0.048378393482557728589;-0.12033820579192872069 0.28971140159541247661 0.19289551566357243662 0.50825708149736525954 0.19721998723378592056 -0.3672102080643698252 0.17228627864035078732 0.15511640327875880763 0.46853289339796372337 -0.40833670925286136288 0.38403895201124949033 0.1879177908661542884 0.46321202053660487374 0.037174189573674021325 -0.0074822087527990589415 -0.30983663453732385173 -0.10459527995970649417 0.43584685103048476096 -0.27972941412629570568 0.17467682843774559598 0.3671132584203414817 0.095126587874167709002 0.44677218003997132278 0.031881164425918699645 0.38717561064475025656 -0.032626627804140384548 0.36945482287183040171 0.078691650886805242227 0.043378491339178495978 0.43600791884599437997 -0.53697137235739811345 0.18227481159963659918 0.082208920953029382406 0.21911130150567284525 -0.30389985721126089313 0.067321380876099609636 -0.4374237203644924521 1.6879782351661805073 -0.0059024995435315238956 0.65363258888169961658 -0.6019130148480930087 -0.0088511554656842354044 -0.015076990567626834608 0.27389952868536210362;0.013356823593962710919 -0.32937119970278333492 -0.0023980894793215637266 0.24221192568353097641 -0.35298902666471099199 0.13553003782486600093 -0.30292266508315801588 -0.18857801903074059013 -0.35016099754120227905 0.10168433288430321626 -0.25580621554487775748 -0.34912667045900863672 -0.21294255418007046465 -0.056914554705205080976 0.14504985489373861673 -0.37827031942247496543 -0.25683456304119545166 -0.17008713064727179476 -0.2040852288013924043 -0.15186734316320155136 0.0034437981845187471547 0.016036211641239840608 -0.38010649557738795945 -0.49941822532820084879 -0.055522262806735216134 0.13836780630587341978 -0.11405379365989615215 0.14659515601602249313 -0.0343754006997903927 0.40656471939994343057 0.11713405464439892445 0.11847542769440666532 -0.29672823093625499968 0.30216254165146139155 0.25235355973038292587 -0.36501809356633169168 -0.089792748822086529414 0.46391952893841564842 -0.062543559839604717654 -0.0972257976465500523 0.082363328221413262265 -0.28933168016544752454 -0.4578539537343597754 -0.11512111727730850452;0.26887788461409461993 -0.33047260620453494662 -1.0637512466923455534 -0.44993890779213319142 0.14083486031533989924 0.28387446106200991958 0.068084725774744919713 0.099503339313070773842 0.060960685706353323621 0.29482844256015267037 0.13055923024982379888 0.46888329168977815886 -0.30563403804812006026 -0.36020350080206242627 -0.32155756142262625907 0.14301754072906572302 -0.40793010940858820401 -0.38567813454859667388 -0.32281786440361681656 -0.2052904282474636577 0.5069212662452690088 -0.005018386446832023319 -0.28176955734534836484 -0.43872772767863504884 0.0079813222145653003187 0.25003011442492917293 -0.18903344917356107446 0.22377635103998561039 0.19994205621936822492 0.0067682001148956696251 0.050052811417032265495 -0.32036148331824476632 0.062681123147185879851 0.24408307633968714945 -0.034301759557144276269 -0.39645687176170862909 0.35777780567246941779 0.16562573220139267804 0.71251856462272478154 -0.70722451709060885072 0.16306280318435525944 -0.13399031737806976761 0.094381992065495357025 0.44193695899140827965;0.27036631397864113735 -0.14874472864736099087 0.25172527757543217142 -0.52538766623288724045 -0.17782132833990757503 0.033178102045357482641 0.052922366237482844353 0.20375673174290778733 -0.11383585500112726463 -0.26437669990213519267 -0.38595683499753874468 -0.1344363919210058711 -0.36474539859922566754 -0.41440339670243175885 -0.16558488087347963957 0.011662754394544391084 -0.049916645047687696612 -0.084802453562370441742 -0.10698370417786942643 -0.21477399896577287208 0.18395017890216450174 0.14245446404168612964 0.38254714029497471905 0.34079794823412601357 -0.33219953354700254566 0.18635308080194271096 -0.11809909542645630198 -0.15272143257820985918 -0.1873840590406510298 -0.35489053742977150208 0.31936303067666016453 0.33537969892183167042 0.30211360545091126006 0.13252548974281641581 -0.11391959134950481458 -0.33896886495779721127 0.093270432220340759866 -0.44871097431656287169 0.53532730531953398589 -0.20237442232652963492 0.0033333492874322735028 0.21077755048493776457 0.44860675130063448757 0.34519136941872402558;0.33115745248409822477 0.32142561569148359046 -0.26591124654413123007 -0.093980979989116086859 0.042219370395811910146 -0.27046447472885087882 -0.39107918004386188482 -0.34214665189754345231 -0.37231484762423122659 0.22431080937250505447 0.44700004697307044177 0.34363567069188072356 0.0073090239068471004463 0.17003288412340675229 -0.055078980181582172515 0.23476059539273830268 -0.19572590403554832039 -0.28852438419552467463 0.15084880942422959627 0.71526123766032057016 0.26607907769550398491 0.29797083009493385841 -0.3853595372558679677 0.30265700390086108795 -0.39011668874443350408 -0.27796114890242046291 -0.028965474735728431038 -0.011495096193399959028 -0.043797797865224086244 -0.3228874619714278138 0.10458257413472470121 0.23505144657638135652 0.43915445038613776241 -0.30653091964644552103 0.29601596754480946627 -0.24301693762844159274 0.2087138737472581107 -0.04785422263279651145 0.21003200554696432878 0.67447660844686763149 -0.19723354831575221069 -0.26871737777613663445 -0.28462762495691273923 -0.23362703956660110793;-0.33342761449774882543 -0.44761388353428332998 0.34114367645698984166 -0.28267127443156281341 0.091621203874421089375 0.13433330954052047357 -0.060287033540442187818 0.04940035066919311324 0.24657891315537108778 -0.21111711497458013342 -0.03356456260346800391 0.081987457111734676762 0.10259458328614093348 0.40867034494263332345 -0.19022120966715411194 0.35360765032534585695 0.18653639160549592702 0.25305253887834966431 -0.186822246578833423 -0.69229104436785837695 0.48847776009990667712 -0.1381912545088762323 0.031725977001373348307 -0.021921032826524293469 0.010643838289204570965 -0.39025901638167787011 -0.21468468909779772624 -0.22297276306718238903 0.00828727247769680056 -0.15455291148359739939 -0.3737162995928844933 0.15356910513536131679 0.28099866114045168874 -0.58787505748444868203 -0.27114906720871140289 -0.064615812145195725136 0.3467082102986177583 -1.3391223016773101673 -0.33258685409243171627 0.20258834837322095557 0.15844975145037090702 -0.026754955392429970867 0.91595280010243684821 0.27727285102088289337;0.20329898507704180499 -0.045105409293864751064 -0.21915571498575112108 -0.25462113455692719777 -0.31226773549091646487 0.35443414263466815894 0.26712223890810482541 0.19134895188087375217 0.0060967493734674178471 0.35772358518476599087 -0.0029475810688696429604 0.26923154411682387321 -0.057182284334223523747 -0.2473032890554215657 -0.13782384485378254557 0.37503671747753658527 0.25347687143936664667 -0.41468186763440934017 0.0022962562271703029597 0.46142198977659115711 -0.4706720354999314182 -0.016851753949224355933 0.051734745520373631722 -0.23944714546121514953 -0.0807918228334729982 -0.32990758201580533404 0.16852524938359281226 -0.36276535275354382382 0.043745360582900079394 0.38477998350627218294 -0.13323531951653563854 -0.20790591731730070912 0.32655832365483344892 -0.16986831193365978243 -0.43411373393916230512 -0.32840954992358023512 0.42243009709554030229 0.32805173301929968499 -0.20663994863636409027 -1.155407850493218147 -0.010966764782397173464 -0.070055343314871232341 0.5183741960725543052 0.099939589432833791927;0.47550257052522365564 -0.65863574625270038254 1.4726868632044110008 1.0389484379665925307 0.26820375708524490932 0.26612749499756827021 -0.35200747578295266127 0.069434230655721032588 0.37822901203593861652 0.2014035304195147813 -0.24160789485292430423 -0.02217949179304532295 0.32164685226075068192 0.18930032989504147478 0.11170835717562589695 0.0070754758359874705617 0.13984475290135120473 -0.041917490324814642155 0.46249865040517179615 -0.7989983813366114962 -0.020719218476959299496 0.31595714619955667102 0.023434993459571375196 -0.25305035815681792277 0.031992009621580927425 -0.091876624808245696552 0.39829642804592763072 -0.35418241421679297343 -0.27044716520934941606 -0.15364923382742873281 0.24946021905573934063 -0.22304836423358678776 0.28204969739414975649 0.33780050481596374246 -0.24946936325964705339 -0.17726808709492014593 -0.99412014424515593447 1.2635819976793747355 0.74897022869629281683 0.44031156694588258205 -0.63723114458322394071 -0.48595691223661580116 -0.98055885908064344125 -0.16740204070400935277;0.21879754951802024565 0.77024197416137840655 0.15074485983479699036 1.2254665282276462346 -0.15108665215101002577 0.3145715776712338374 -0.23990978834507403761 0.2422668455672074006 -0.44820998565119146706 -0.21880618452660277606 0.45865229570877746879 -0.52258067583398148948 0.60368603575266588379 -0.39295577752490473689 -0.047373350746365727737 -0.0012563971647516381392 0.21227035388787876546 -0.65239402487430919741 -0.1294045857253720011 -0.12499333758163344577 -0.27724836990687828919 -0.069017946740573363207 0.17717734155937370222 -0.15002949177535265801 -0.007407374074257542379 0.30213395641098189648 0.026103052753984411216 0.06379385317990661497 -0.14145396202571364208 -0.26484748768183014045 -0.47202213852647134651 0.077955402954360195067 0.32674438621342283273 0.36437485752285320162 0.22035340596237029676 -0.1747080990346484286 -0.22708367173957019758 -1.4652213638026172493 -0.38139009489011060916 0.49380665453118105512 0.091692891246235724845 0.25506495860753169991 0.19787827864996229699 0.20400660906971651576;-0.23486018774463135461 0.45114219951682366094 0.073995767505556975241 0.38149021305172764462 0.043448275700280356015 -0.071185506601865428111 0.22724876469529264877 0.064326265205759847188 0.14269182925514034554 -0.031968733089543475978 0.45197732990740091541 -0.15645601397755554141 0.10465386535728168904 0.065531603487466283386 -0.35358522021356508791 0.28359903834200467232 0.14433054428027361493 0.16686248827859506694 0.10872711948704452678 0.12206280749388681572 0.20967523267265261722 -0.35709534591441483009 -0.17497170983896073726 -0.01438786974297059755 0.23314130368799643178 -0.26834179904067734235 -0.44073878774864355679 0.22433901381019891175 0.27053491351300329448 -0.29432648403980443685 0.34163827270289509608 -0.14955803876520309958 0.11195567979782861112 0.14219892357785102188 -0.18380092708065834395 -0.46886330632752326597 0.26262807879788357956 0.62812288612392574993 -0.4387073315960254849 0.3716337357801692276 0.38937008139500706161 0.34650203253804534587 -0.013603763486015938919 0.34247460896430176325;-0.090159549187930801417 0.14571474096462855297 -0.38193227980330862747 -0.69641287527786044365 -0.027993911192747484434 -0.1116722249347876228 -0.2071612621600781301 0.16824759339145195502 0.48525718256753969104 -0.042570542748555824375 -0.90930880070074693311 -0.41324614841353690675 -0.41619274162912173187 0.56031688461319606454 -0.21562254283593002002 0.40968623100382633995 -0.28450792166149629914 0.52607510399708423687 0.040421108374692288345 0.66808034194124810146 -0.32645962823119833995 0.059624178234680261235 -0.37254608468400363108 0.07665409029970221555 -0.068025548849197522983 -0.05339311462514074319 0.42946206338526515811 -0.10399767329297654461 0.41553852038101851685 0.081131864358058955466 0.37901276009000678391 0.3795168172500130721 0.0095191091104218066715 -0.32116481361299276109 0.37484453964201214227 -0.098695533995008605244 0.60076253197375173443 -2.2209094203702441916 -0.46077478616886807794 -0.79002422311870923455 -0.053274276555123616095 -0.75391864621275062053 0.56593900472927638479 -0.44529452296005034295;0.38828538351261626671 -0.19550733812664705669 0.080022879099973909245 0.61675357559545151975 0.31501667927731902275 0.021923526127453900336 0.11817593456858291323 0.18808668670246334043 0.21651799542288130418 -0.13217431881117544523 -0.68931615343048990852 -0.62539739088224799435 0.45268511588171300719 0.088429431605827640839 0.26547983978371209046 0.17995741813107499207 0.068214363429689534035 0.063521799623396796308 0.42774916090317355311 -0.56556655303142022717 -0.13340605087358037295 0.11434667048467710149 0.33031162887135218087 0.12919947457415412173 -0.060694367407468606535 -0.50848587682898027662 0.32490892385120684338 0.52193270856215767672 -0.076019869003785087158 0.36951962065141458202 -0.47189472243760932635 0.50688621646287546074 -0.037300780946026519669 0.39151540982188287598 0.26356532981372243762 0.31005084236029167855 -0.14610920808909630408 -1.1228272170440571909 0.30401005285118715138 -1.2345318479558018421 -0.36353436108911757474 -0.20448963794486088585 -0.1234125869063855685 -0.57369142182951415876;-0.45868227307605791143 -0.15804722827951472874 -0.32549450010211994355 -0.33621999569140464947 -0.39139321303681634534 0.19093578743455158486 -0.11553179500673310676 -0.21742028417652706218 -0.43338613273834952766 -0.53579885342965483108 -0.11423219032708227527 0.09855465180234573852 -0.016532411207128915043 -0.56398727844445573076 -0.0040623805753754660061 -0.090562734998507601891 -0.27665284587400812422 0.03513428107147038848 -0.32400291365020222889 0.30642348298991939348 -0.15956436352072533857 0.3120999156584616796 0.088167259526729782615 -0.19249660295635087626 0.05000987125488313978 -0.24992560357434803753 0.038006191649707074531 0.16648844002002127773 -0.065445675475960612966 -0.089355711166892920483 0.065974343628065992839 0.26445849571634033603 0.39284735189392544497 -0.28591561580307417456 -0.075281254247388337819 -0.10593320192160676774 -0.29977693681976752549 0.3472463593122018799 0.073046364426839344164 0.33509962004880516906 0.0045950300628912208248 -0.25918285579135397212 0.086667516782536008213 -0.31849835868114145798;0.27226116064510741399 -0.098752417003283202157 0.20725092380947593429 -0.35610295591241203361 0.0016243631144617130899 0.34801844985036595181 -0.087927874742897940696 -0.046349190881993344859 0.032316499657528349743 0.23114092119961643368 0.42137482968410222561 -0.34784401884112892134 -0.25530700325154803698 -0.25618470616196703515 0.28996959788196913221 -0.31941601587727286304 -0.21144536964421395409 0.078127935226467021268 0.069308340942706325727 0.53326089486673566853 0.046021190952782148331 0.31588140614084658786 0.15125186024335310342 -0.33695209385776209166 0.34962507464395164991 0.12388178981781794441 0.17111516246897873206 -0.33049381257427612457 0.49993703081894330653 0.33223972572851684371 -0.019467265526778201878 0.15800735737877616427 0.21313280455067604158 0.038427206931964413839 0.076184842591943802148 0.26860886348317947192 0.1488081229908700398 -0.048432195978909999001 0.018924619660080778394 -0.17399114331351875351 0.25769811019625660231 -0.18342379803893399393 0.13638135419234126422 0.32399127342908129457;0.12901941256278520731 0.39115769480444001482 0.04812052730338120532 -0.69219203129321626999 0.14184154292897027672 -0.18469469926765486045 -0.10361847520691162827 -0.3147759723448535496 -0.064200946895721214269 0.1397499232837721983 0.39829904773935503881 0.085404323711407742481 -0.15599047017656741954 -0.34267440820682548708 0.01172812990663532097 0.15632045648223302781 -0.37014202552807767832 0.12375825785983740612 -0.54753166490792615217 0.71441915989543669507 -0.35658203980627156682 0.15404016460879607631 -0.58021234213514549793 0.23606474003653885041 0.029425618786981432018 -0.26016397361431681245 0.04814240647991927663 -0.48161986046370358627 0.32641445709210920034 0.56311714996555539692 0.064850199046986842233 0.11218023703494275911 0.30308934990195735004 -0.082292002644820602675 -0.17742657531455455211 -0.35761338015341698204 0.50990231591524948218 0.37109161657888278807 -0.33021362440641605085 -0.14324527291797309325 0.42534744131538931855 -0.058944666354312939827 0.020754855128997221764 -0.0064714323117951990869;-0.036773104469348498469 -0.40856838327149369583 0.43654680487208913364 -0.090419299517081150319 -0.3132328806600536697 0.16338887877180302555 0.26460928415158851967 -0.34699887975737941925 -0.14973923739152281143 0.11754322723863812328 -0.34249834216977220747 0.13695162874582142432 -0.41055962413875135564 0.10505755537567217084 -0.095600584142559411061 -0.12019385757592346287 -0.28819086599488008549 0.26071709051099739574 -0.1498710456534231017 -0.28065913956579724431 0.42356138000151000167 0.17331129393734512334 0.25290203959181101201 -0.2779348384469887967 -0.15020802442551686728 0.0053320477427225843048 -0.33026465804186089237 0.052689288908054014715 -0.26602056552570307879 0.28767285107373913311 0.21371099542186564046 0.14327560068073580402 0.31398633027817207664 0.27542378813713286334 -0.052527481237922300783 0.26030400554839783211 0.0014870847746815735093 0.0823659112887196454 -0.40427562638161973485 0.33453158128203025479 -0.24988360716023791386 -0.26808255097538241651 -0.35482094613549886031 0.30360017256196292212;-0.23823167327032881979 -0.17048253158039089472 0.19819833432293007536 0.17981941557337832727 -0.17893687245548417497 0.27365329429465035105 0.17442082096205710484 0.16839616329452272714 -0.44306155672743502416 -0.26258837092587700157 0.22051156672533014924 -0.20407352430179023783 0.24667957500435083729 -0.21351010380090534868 0.15395528339818098651 -0.050905901021166266585 -0.36447582881433482349 -0.066311611758103169989 -0.35397321895748484755 0.36908451152167820464 -0.33395033613622904234 -0.014741356814465983102 -0.10683203742778546452 -0.082087294086155934703 0.25545139493923157969 -0.00030621370227410557151 -0.12644805156971364313 0.058605798270779864423 0.47040999948221168259 -0.30938026137707203 -0.16837418457552177919 -0.45340947791078445306 0.28549809404998116591 -0.14440824730734100334 -0.40013504227120105794 -0.49462134791917766741 -0.072676163904509261116 0.24104198087919986859 0.60170271968737243373 -0.51285502051169129523 -0.47355682726743258959 -0.38394771892505757949 -0.23938490092235903406 -0.58065891416639558997;0.25924452895329030966 -0.31007589746568187117 0.39263187264744175975 0.16208822329621550007 0.23945965647203876214 0.11896932610052270152 0.32117369596128342302 -0.22600396695736560404 -0.011477716040865178215 0.093061127029936296928 0.20850200348404623885 -0.4345799046577815683 0.0036393749491779540245 -0.083088735238429883845 -0.29488840420985290569 -0.19763644827009202443 0.37226076040056743643 -0.19500409427954232267 -0.038336545370116804909 -0.34109694524568456853 -0.14076647544164661019 -0.22056866518998480275 0.014466718258802800309 -0.36516687853590279467 0.056036743234827067484 0.34289634547803343745 -0.22122550762688431014 0.067150189603326179699 0.21806892619964973745 -0.03243221340845074685 -0.41720167520835588215 0.36776529727723644703 -0.20014330525181955878 0.39984427037896186352 0.20237388955532625845 0.35127844917335965258 -0.42741363280293426241 -0.11511370378848867491 0.26250801056606720696 -0.18773026263334763319 0.20145993995643479701 -0.16777382528581061272 -0.20253282626566429525 -0.19474753258158644664;0.3565135145307976039 0.29029675365117502128 0.39756069373617908269 -0.81089640260357931378 -0.35093948093210747263 0.11807578890690854923 0.0042344105950315952605 -0.41791836745677041209 0.14785708888357027013 0.029349536578281126831 0.23503783034308164956 0.43655234499609391063 -0.5686556417500078231 -0.51143817407115288454 0.26203857009839631731 0.12153717204080491388 0.33063909517958417483 -0.44640570676260665772 0.025962625169322187807 0.6237115789681090261 -0.062020051762631922543 0.47275926814209745519 -0.67238080385968113095 -0.12414134326651005136 -0.56395598155463644297 -0.16387166186774543286 -0.34438573251442883283 -0.45932374312746893086 0.015294007647072742698 -0.091095442296841661056 -0.20626191779515729019 -0.37081434198403384617 -0.0065116942327353667316 -0.59038474316494171656 0.084734289375339694184 -0.26765498399674458874 0.47915931405085221417 0.55101328066030863528 -0.18001414022293082962 -0.57479021031454669011 -0.01556724658229900575 0.48290432485714174238 0.092487566439813304053 -0.11093857417598906867;0.15393179691998265524 -0.069967719105186884643 0.18380384023642787339 0.28353675180994397653 -0.28078633802350011495 0.35833797170798398213 0.31249349028321826705 -0.21943849514806948453 0.22248545992475227129 0.49961170964006706985 0.080760301512756024755 -0.13073569318994071597 -0.18687965274230161628 -0.057500414104001244808 0.27520876808075561692 -0.12254556580019040912 0.41661260455973481154 0.19060311255807399489 -0.20851198838663714819 0.27284753674748057906 0.022340205917552292958 0.41286333945170411441 0.26285903775024638263 -0.20562552953329479855 -0.39036987904557873819 0.2537704756354655089 0.2964946736286181439 0.31547676735916529989 -0.206833521276279797 -0.077544120654662956893 -0.092454976026027063662 0.10969247651292758639 0.10602778044264830892 0.087347418714446289911 -0.044077740311350671609 -0.025006973180397837342 -0.45898293235043480243 0.11719103364527917732 -0.079207057820634224621 -0.31096235471606192835 -0.084190792466564301488 -0.27807482375646153105 -0.27686781832645285251 -0.1949687298518789913;0.082069388527057862692 -0.2859263404896147942 0.068701401016482963047 -0.19601786802796827835 -0.3845285690008315993 0.23960002777081770842 0.15689530020310196723 0.41910887202527785655 0.065341272204536837709 -0.41613123638991073028 -0.25764078394668354921 0.24090025494271349871 0.53693358915497779726 -0.16986270181411719515 0.36590647755786731565 -0.067852423146950571753 -0.089459816691506391373 -0.22289588144783306634 -0.05927476782261301147 -0.41181376421300508461 -0.068665746787646142479 0.25648185354244906753 -0.2249822025320490082 -0.46619119256617669311 -0.22118359601225429101 -0.11184089342633295183 0.22755183769269127225 0.24745571695668197587 -0.096950160731289911076 -0.014476408052800638498 -0.30173896496302393677 -0.26202760277269554479 -0.017298826341885620295 -0.083875804589734398453 -0.15202749825245001625 0.27367850170888485817 0.12137441444076273178 -0.096521439467468286844 0.24605680320878725587 0.064154255369497217854 -0.24150814067371864646 -0.29813797610339543009 -0.12588628617026917378 0.23991916317122144453;-0.28358958750827434336 -0.19091497108440572128 0.64774008038270791676 -0.32831752162348337709 0.097113341539034406247 -0.42416305740696597093 0.12725585853308010731 