function [y1] = sub_all(x1)
%MYNEURALNETWORKFUNCTION neural network simulation function.
%
% Auto-generated by MATLAB, 28-Nov-2022 23:40:25.
%
% [y1] = myNeuralNetworkFunction(x1) takes these arguments:
%   x = Qx104 matrix, input #1
% and returns:
%   y = Qx6 matrix, output #1
% where Q is the number of samples.

%#ok<*RPMT0>

% ===== NEURAL NETWORK CONSTANTS =====

% Input 1
x1_step1.keep = [1 6 7 8 9 10 11 12 13 14 19 20 21 22 23 24 25 26 27 32 33 34 35 36 37 38 39 40 45 46 47 48 49 50 51 52 53 58 59 60 61 62 63 64 65 66 71 72 73 74 75 76 77 78 79 84 85 86 87 88 89 90 91 92 97 98 99 100 101 102 103 104];
x1_step2.xoffset = [40.81522;0.000167541640345407;0.000303443301592142;0.336539518708952;0.15113985524058;6.852976752643;0.0594470234113712;1.669410139188;0.0747215598224569;11.5194988184854;0.0014315174094236;0.00634488983273371;0.275788752734548;0.0447120745297914;0.599750882627286;0.0591603595398381;1.51317316627083;0.071139158136035;5.12618085704467;0.00785256847470791;0.0119944033948882;0.338853466406293;0.0217425516057411;0.141821565098494;0.0135035368960157;0.0865635610116481;0.0170150003672392;2.62768917384526;0.0107199141767003;0.00336578946505888;0.283961035347258;0.0109159967573585;0.0357476955619983;0.00285284258755504;0.00393233455568656;0.00362651631563688;37.029492;0.00208234866739316;0.00165895886745304;0.37263551819582;0.150179770319996;6.76618902401;0.0628736287625419;1.923958755825;0.0802162369368635;12.7161188334452;0.000424480652474551;0.0474430292927407;0.286299500384706;0.0505950266760604;0.76795701730538;0.0625412582810493;1.78223622472812;0.0772052865417498;5.54960834921441;0.000357485847063274;0.00305321722677324;0.33722797821993;0.0233716922454339;0.163870799524583;0.0136951031264465;0.0875465036232844;0.0171113316542251;3.6304094597152;0.10392159184705;0.0177027207277887;0.245170077544445;0.0151936950132749;0.0692545104469242;0.00366280337894334;0.00708095673132048;0.004866428827815];
x1_step2.gain = [0.0044094881487543;0.780002825553375;0.516058809066108;1.0564396280199;0.816072879861856;0.00098808652651324;0.806239604244751;0.000522624568620038;0.570841642309706;0.00385952176575694;0.741730682219291;0.481144470238229;1.45753304435516;0.905595131529075;0.00131364665508013;0.789114892305509;0.000576120142875867;0.599340464205609;0.00601448707122083;0.603108891902869;0.477042878477366;1.84050020617754;1.42401597080534;0.00327820358569213;2.26048457104539;0.00499445618868099;1.75379876941407;0.00769275351276339;0.511245140068204;0.442456167360296;2.20829363775559;1.73580850620259;0.0049283361100058;7.90362431683766;0.0586664842700307;5.98700839396318;0.00463299144404622;0.832712156180267;0.577995763551187;1.15331972595649;1.01384293072605;0.0014867574002577;0.929537224965071;0.000754059296566449;0.689840686247078;0.00454409410320887;0.771846791731876;0.424509756835236;1.59627466063242;1.06687036242902;0.00179986680470467;0.924861846237792;0.000813088917400596;0.716322141379724;0.00776548053684683;0.613176913652205;0.362420269058284;2.03589352862176;1.77818590535656;0.00505963410803054;3.29531532050218;0.0105053881881035;2.56076096812367;0.0101190877689116;0.5659715055525;0.349388224002934;2.91694166946253;2.29697992631316;0.00849698643617677;10.5747819682131;0.113214221587064;8.39451148038427];
x1_step2.ymin = -1;

% Layer 1
b1 = [-1.4444822426840497887;-1.3461888213727868369;-1.3590060608794420904;-1.1994944802174229981;1.1687672138296691937;1.0775419286679062125;1.1005828104695360992;0.84299456317903309621;-0.8032241876154900817;0.79538599685552457963;0.63971465279152306405;0.75317307189945659207;0.63454607339222224294;-0.53972418840647418126;-0.30852338327334527524;0.42247566104659789454;0.037395136767128647759;0.037249201000446909016;-0.32681370704194234733;-0.37362810395603912594;-0.0021518041546944393326;-0.54422713385820820076;-0.2165462793081588122;0.21590457610451960213;0.42431638129944754256;-0.61950755952691971551;0.62029743734593634219;0.55788634776513146285;0.65077842390778462001;0.50243414389862117719;0.78867784967183618416;0.82982345811070812314;-0.99104003240078630821;-1.1262580151130414663;-1.2093388292490769853;1.038544517989852034;-1.1296293864026756282;1.4453504009872748526;1.4562166375871414825;1.0870416097091448737];
IW1_1 = [0.05345303049344223012 0.20755862629767712901 -0.30997427315487990906 -0.0524298166505331939 -0.012381215503980694953 -0.075848497611757659254 -0.26267196860253433366 0.27760055020079360544 0.10375916822603252487 0.24725539965448228852 -0.048927259822823254698 0.1001992064592294035 0.14115640627051645462 -0.21085453885801860863 0.29693233193470314202 0.27428499587114435476 0.14642225383081813872 0.093624070904334208421 0.2266736893012768761 0.016452124861606721995 -0.0027444432378282536747 -0.15320576244333147797 0.011377394932371621625 0.33573096625059767328 -0.12176810174300337075 0.29488869979385889941 0.052094564743054648515 0.28302568947660011744 -0.26198246343287345805 -0.0072300222528543581224 -0.020694720507495999867 0.30442624787450572876 -0.24513428666073544537 0.24430381516933719066 0.30293083632882300549 0.11450408390758308463 -0.044282501536908394635 -0.22090406181645666495 -0.2704999796239122567 0.12424525472587925889 0.060474587673022377199 0.21372045776798834216 -0.20054944596975962656 -0.014221793738083503972 -0.2490411507399388491 0.14381495937876578872 0.18579965368707468398 0.19989802691188715555 -0.034436226058337779388 0.21061283092611995937 -0.2767550939866444959 -0.0028379195595372480772 -0.23671520377069860119 -0.10031411084963404168 -0.051829849364180648197 0.23133980772117393454 -0.25344854618083489939 -0.1537692998322739979 0.057289749072845397304 -0.079125042791164987288 -0.21293978045284403522 -0.23570435871254399873 0.015972297120744279042 0.18613602178976493273 -0.24121962151480813574 -0.057802477072387330181 -0.2912295925938485075 -0.06967900266171579704 0.15932811119617212858 0.1259086368473401607 -0.11870350530354120688 0.17490858692642091698;-0.148136205457631287 0.6070641865852184349 0.71442248208951952826 0.44836189387670744022 -0.54232401030178956081 -0.24025982892724698226 -0.49549372211371017771 0.035200257980257887436 -0.18850934953886802625 -0.091538003231927983494 0.17282888962169021263 -0.28008538051137626956 0.44995372180330583944 -0.22508373654514102213 -0.27556555086715228686 -0.27224827768491838276 0.040476816275351795715 -0.26064921994767564772 -0.078812434593658303728 0.10287752655114205946 -0.50922007841678740281 0.18820100371134376727 -0.46877486014426472671 0.13923095707733357251 -0.4188550219038191802 -0.099428682212118091321 0.066274815818751484087 -0.37767875050695332018 0.3199480234340557061 0.31147743082857853869 0.12705513956953110033 0.069537510144999800654 -0.27494157700261950827 -0.10185661019482300516 -0.33625057906704025612 -0.23651484350722745686 0.36887962616680042283 -0.25491945659839154725 0.844069529100774818 -1.237000136370072223 0.48395005814620495332 -0.1170396562155710668 0.62614677955815112309 0.098222491928320429522 0.6205889243628542884 0.53562719629487898221 -0.1686705674986072323 0.43058551068867573219 -1.491020364719706004 0.20244920633339230642 0.33157685376126277976 0.44679545582012653027 0.086945749340412409323 0.13010070284477889824 0.089732489993201824952 -0.084252751127228520112 0.039664187727657410076 -0.73272332132948247985 -0.073249927987905277815 0.086808423705180784435 0.28415047619967426229 0.15056270763786075428 0.21847121805220098834 0.038404088436172933996 0.088200572875275801144 0.14689818157102749185 0.091919640633619709158 0.31365150131542202105 0.2745457767442933128 0.017027830391674294436 0.38665978959194774456 -0.1186674964219895656;0.070767106091437187443 -0.28966720337315371436 0.15338567793981613963 -0.20806375174364405423 -0.106133220943115128 -0.023053665431991200718 -0.11558174071002648431 0.16108435911915100491 0.20612515041491141776 -0.23711490877290603008 0.10610727786570491038 0.16746391095295545814 -0.049496892177212661879 0.10777156345360128231 -0.082163452167750422594 -0.2422148056664605309 -0.017417689800616968643 0.22958642184478769699 -0.24089202205423010383 0.12049914016238079395 0.22824048437574903647 0.18147989721123639062 -0.18176527640059036983 -0.07860789984074359471 0.19200308238907973224 -0.013619191120862354089 -0.25759363352607278497 0.31578956998854418314 0.076708113172482050857 0.28456805304390453415 0.17012280074590241385 -0.0089582957126053252422 0.25863195278269829336 -0.23758468858505682464 0.25952210715693974086 0.11679248809112589835 0.22852651333142429135 0.17226015298022068212 0.295753987364033466 0.25212378428438197986 -0.13617669078057487164 0.27918182666957391813 -0.21800920035516518913 -0.11730105516565239587 0.20768213945756047734 -0.18643811751352454276 0.046487595050006436104 -0.169609792931220138 -0.14478648325470941383 -0.058941946538586517668 0.28813412427338974675 0.15495319788084910284 0.22380437396193997301 -0.10128313155939114298 -0.16591194796325889338 0.12726916886721237332 0.14642719646438845382 -0.12261260631916372221 -0.15282697137259115827 0.15133745606522855387 -0.030276904459575558481 0.14411359719246269462 -0.13496460836232015978 0.077843302318507001658 -0.1636803291361999535 0.089284415998687305382 0.098952374135766088536 -0.2249029289741283355 0.026381167640340961317 0.022342050228097699166 0.079076723888445207833 0.1516362814820382543;0.15160521485388558927 0.51664153024794523539 -0.14064921715298933647 0.65078090472653038479 0.25386837818135160605 -0.11164032615518769409 -0.080276077917650082161 -0.014942719157173867811 -0.045519443295960915208 -0.34578548201903885895 0.080997975781768011272 0.42139293713441178246 0.57250907938703732292 0.006547897968829995835 0.25955485988816229259 -0.38129921813392542163 -0.17748995263738956418 0.38094370567300339658 0.19529946215607177362 -0.39314870912345961651 0.68223156773819737531 -0.41590769499700264156 0.067117196302757489712 0.086373342961834090326 0.28791068193631202954 0.090909074049669150175 0.25440555697654498868 0.22847711721471894442 0.32326474304770513868 0.30130097342010869754 -0.30055825826503129727 -0.022397328646704982302 0.067958924415098112548 -0.02920213347564033432 0.25333953504194461903 0.091774141809046583251 0.15641626786004858563 1.0739339242779515349 -0.041044784446721688242 1.4129214975141264343 0.031698099300157690783 0.20568366070579849336 -0.43027770521362423972 0.22952856085953046716 -0.14884122616516953785 -0.26964181617945026659 1.0820914956354856784 -0.10154791096869125733 0.60965441187493429887 -0.29263479988764201645 0.11378739774974166998 -0.36097674009586577792 -0.099607073638922336012 -0.21291954845468538671 -0.35547615578777902456 0.5352765840245425899 0.38451450014692900581 -0.42088456197405582637 0.16009327459288472117 -0.32535656210238123043 -0.29894906098477408429 -0.059824587130750804531 -0.32603303598243288386 -0.37873647878025773483 0.109777801104514669 -0.1638550512157902761 0.3491138431217025162 0.15044764462275547756 0.094555826518572139161 -0.11296327986826561196 -0.14156632292958182262 -0.12683831811509724274;-0.13551670374342947301 -0.179739852836514169 -1.6300629086736173612 0.90890787390907112897 -0.18134432540988978944 0.036272066551416105862 -0.025231813269361875324 -0.24739207019111020269 -0.079908969474212776518 0.29145007129801581147 -0.3617267814134803583 -0.1623161388834654939 0.57827370440507097626 -0.15773008459194851061 -0.11671336614097196915 0.049903821787342192429 -0.19615009821196788264 -0.073326602275044103219 0.23297997916843560251 -1.2121803093418384023 -0.57265114550047169217 0.62645764816886684301 0.23446251831614292604 0.19942799976265968009 0.10211665953200667334 -0.20644505110307059814 -0.080583404420860899053 0.067744812803536155754 -0.21979883820645065851 0.12241604482912810115 0.16658910725619896498 -0.22639298417566730559 0.21118660159540231236 0.13604760705808938148 0.22601864729166346035 0.040843060621754516404 0.10511961687812940158 -0.47972130460264167384 0.28483864269416653281 -1.0649628583935957238 0.10990833296197324853 0.17902883160650701067 -0.066466533510878722524 -0.032503146625725128083 0.20033760863668428898 -0.10959823710027825905 0.52320113763514097815 0.10525823079166883589 -0.079926472486283012264 0.19234183673224936051 -0.16637981107407034953 -0.36571059400611988233 0.27527272412052100625 -0.028104764149938954443 -0.13561079789811766871 -0.1009074185712111188 0.16070842209587640759 -0.49139829133472662237 0.079609733599693810469 0.14213772300729254905 0.17701914172851329621 0.13534264558147374169 -0.11596983389656947971 -0.15257478425253656606 0.27145556988910063412 -0.051910448558467138513 0.47446316590204290486 -0.18029694523971009912 -0.22463123868360571067 -0.095724644131129285607 -0.14257451953635336128 0.19614734821812498944;-0.15278739827288426167 -0.17756314215366020282 -0.078142910686583619273 0.048953500645209924169 0.24809881324098270738 -0.15459907017976282084 -0.27202691300138831521 0.15810815067509270682 -0.30109359479996278264 -0.22046115781104180797 -0.24164182681032930766 0.13994617640340709097 0.06501665099097628242 -0.28754517621205116784 0.14564252044953013288 -0.17980457218290310517 -0.32064039752746770207 0.030376380371574595446 -0.14390647129494590906 0.11674670672754433598 0.27076826252307073517 -0.12843090685627728265 0.087872815154478381428 -0.30207872021391662942 -0.12595063634443115497 0.043285057294016569818 0.14497193374884601025 0.21319562017850954283 -0.014871113859437960075 -0.21946937287916254422 -0.22983298026817938764 0.023963572900911944696 -0.14155424587116874346 0.042382015773344716703 0.071891859136614028047 0.059063056344864008074 0.17348953634630809306 0.27004904722390682403 0.25799664299866820194 -0.0097185484170468679904 -0.040255878362889976896 -0.12541034419226909646 0.054821843746011227061 -0.14869416935906110133 -0.093073917479319673296 -0.22839579521184424915 -0.16104395435028470707 -0.24774791686136590774 -0.17121561288148717805 -0.10511555763468002911 -0.1139111421841075833 -0.11448817420448399729 0.32298586588783151363 0.22828927325673090132 0.23343478492975222593 0.005499227038411876739 -0.050839238984629754603 -0.25470964258256217905 -0.007090076162711270516 -0.047763057879151103735 0.21259721615631652081 -0.17717858085970181192 0.21223573898031092289 -0.15339209140498522022 -0.059913475725203883815 -0.22178779618025640241 0.26500957035676153684 -0.060285103248970982326 0.11225135822030944677 -0.19177292406908966194 0.14598097592108896792 -0.12011691240637653588;0.54987451569365919379 0.76096863804887537874 -0.79752487657621251582 0.36130312049428903176 0.24893807468796677607 0.04856515710872853081 0.41940795912031891834 0.20421827589143240478 0.21272042215948372412 0.58990847973194759923 0.11366697140390340237 -0.35167858424263415129 -0.1540087056099743168 0.14170365251551522712 -0.14552950862747129901 -0.021723793799002202864 -0.27202992379365842357 0.51578564420540129465 0.27076943100461425828 1.2413571062201635975 -0.098260614205207444383 -0.4299114425203917067 0.094037669299112558452 0.30740462681968222514 0.040918529902448035063 0.18674900780164796488 0.43065511172825315933 0.054662726423914904939 1.1840018802432092926 -0.053366465282986018381 0.17956900461031222171 0.38753791817398730579 0.047463019660492218599 0.11063588138703477071 0.11581755703194412943 0.1319165070333223333 -0.13240625598318403466 -0.95778853245836537145 -0.88901165975143592313 -0.10139050112397679504 0.043512395762040023683 -0.11219624750021961468 0.076223378655024001671 -0.20662574246765444408 0.044026335949000273973 0.16216572333805009953 -1.0339521693687059312 -0.32727401496763158795 0.4463295041748521208 0.29031683192375917768 0.096289734989317532499 0.10366535746666845352 -0.0015879866484585383832 0.20194617776136977727 -0.27457434706874955799 0.11717732154995293137 0.022441967195798204204 0.32709875806015675792 -0.047968915184639027149 -0.14737203060743900296 -0.36168970345605216954 -0.64262089077316886243 -0.68892379211384657811 -0.23587390908056346528 -1.5459043252551869507 0.18301414537135113347 -0.10053425646775022984 -0.10348187663355096211 -0.33653107459561937276 0.011670718576668719785 -0.46987550601121652605 -0.19148436846035399306;-0.30101012239254409941 -0.11607687761061924459 1.4283054368591523442 0.58250208222061239383 -0.2339136677649341356 0.19118256982355791296 -0.11787864590857474734 -0.2950195046941498922 -0.075654322826538528135 -0.40914741178806240951 0.10888550022036229403 -0.53885421194754623553 0.28590266369190653339 -0.31515739765873251876 -0.10261827600861223031 0.11146634647118378036 -0.32462271827413025083 0.089043804414960778248 0.25697165986520387193 -0.29011651650066216934 -0.22767560992207167003 0.18198064828351151467 0.32235396055623199985 0.19514355375440145535 0.20300564152071373658 0.21295143826498488804 -0.23002991799433614162 -0.17877312555069435618 0.32593333930706841484 0.069091505094434971235 0.33514335075730278257 -0.34661652808109560953 0.015585404667457182157 0.11865661744037486747 0.26772883889960302772 -0.064720874624432447875 0.095130419412580879968 -0.56918833644642130576 0.0071112762347955429595 -0.28026655890481289024 0.07789460794738245486 0.064486510272037209091 -0.16391561028801066024 -0.30465419904024604314 0.0870745166724390951 0.02356786257527661646 -0.19266204807817638445 0.25117581241678182957 0.22635911861127439026 0.41411948917363583522 0.22646884561550170711 -0.012501690501009077305 0.10736902035101733577 0.30714501595104531928 0.3165336131274422149 -0.099377251377245748309 0.32444838740618303641 -0.099327176133176625639 0.50016245872124531768 0.43008532364471840914 0.086014582118588381321 0.11589363191192231239 0.32428804655704840387 0.21925101383959968993 -0.41713791553153856118 -0.22673049656621430126 -0.40970836965619961134 0.32491271638019308954 0.16293048666235987465 0.076138255678171173901 -0.10030500259480122638 0.29545667936296488021;0.56794172749705429393 -1.1679133684280147421 0.37772052710046361002 0.22440464147783958926 0.32996931853290206726 -0.085316788307341878683 0.59698379519944333449 0.46495017735263538539 0.76124730642985560802 0.5928755512788804749 -0.95673289537541794658 0.084775991693025923301 -0.32733328375877607241 0.2230077427503799059 0.020052170725936950546 0.81741737234834732639 0.43116545773736986158 0.32356622593776140917 0.49978182036923207709 -0.69691937841443651891 0.1780587824901589955 -0.025677409608115851075 0.72964991868212436543 0.45368600631927213929 0.59831355233791438941 0.17601983579128172019 0.84334063099882683456 0.48998116233248140139 -0.70810492830329196945 -0.019906927459506756906 -0.30984123798001544925 0.22787197257461955235 0.2938128364475509624 0.46858925865910111552 0.3098223136927283905 0.27016056129062360203 -0.39859690670535402601 0.45453128950687338161 0.088081638914385113059 0.076948829208464034068 -0.25263276816899704613 -0.2472707556755220637 -0.46282522060381492413 -0.044719092710527139078 -0.12576462458011611334 -0.54229589110125508977 0.86536102777129342289 -0.045797834799839669262 0.23960025533825979327 -0.52283893360886213308 -0.12547348136753097569 -0.56620744557651070394 -0.403201182735098973 -0.50819856253700668169 -0.374546072378570849 0.46558381426073869314 0.12040491340229331207 0.49956331850292157171 -0.18044116187661618511 -0.29020530478010653219 -0.0047222853098606229483 0.035636138466655656321 -0.51810324440243404887 -0.40327897129908357732 0.25609193999295942756 -0.0086818237146656616898 -0.3007934149127500234 -0.20289034954936491228 -0.16726750798725426028 -0.22475921644544746836 0.070991924411720586097 -0.30209877898255438344;-0.065678183956270355659 -0.0094116091978711617638 -0.13891463353925412316 -0.2002516854568504312 -0.20013985877071810426 0.24331389052345925306 -0.0097914357516946833038 0.10153772240683524297 -0.17343776485665571285 -0.060779901270806534208 -0.0095092488597851489857 0.010046650741169999357 -0.030819942072271920563 0.046012421287406894688 -0.3184209036438443996 -0.30203852196370351013 0.18274183681371236609 -0.060968850193950013816 -0.020012603201888409105 0.0095278428192123124779 -0.00134836928323709207 -0.15491737546111417068 0.14169162080016792227 -0.055738858474761905637 -0.1801212840363748402 -0.15617642059457723103 -0.19086748945559925406 0.10607717038499224482 0.23988807336871151299 -0.3332005887486569895 0.093280882446840129862 -0.00010009046100488354467 0.24377746030718680514 0.022720766580558555969 -0.30731529005408503297 -0.15788295366525822994 -0.053476686451099486597 0.25683881025202837112 -0.30835743972614565456 -0.15174548803344831138 -0.24886528157029846886 -0.30887661291011031528 0.020425771410480710738 0.018463425743279492097 -0.34544071057933739555 -0.32387743297130866527 -0.23912760607072705565 -0.090891051361136523945 -0.22532818757379280417 -0.059157244326993561889 -0.37703602284736298378 -0.1396586592326234666 0.031918496301169212159 0.22389615577426918991 -0.12563680105066479809 -0.11917121946821572498 -0.11316248468396361559 0.23205021319983917816 -0.029652673737418377281 0.23427088128026615776 -0.2955807676241666293 -0.28382863213726278184 0.065382030125514550845 -0.2486201029541889318 0.19149820717673904369 -0.17268072882342389018 0.02674879436075116787 0.019899302504205813175 -0.26022277170044100236 0.23806112090508468881 -0.10678008447934103642 -0.040270458441498263591;-0.0017747812147991682673 0.33796001574289269431 0.15744022381338337868 0.29996667895634571144 0.010092365452935807626 -0.17229935527205303414 0.26826091202049051621 0.16120558574664975438 0.14067892907152967918 -0.054304348370875180074 -0.0040168804885448482558 -0.21760638617077746049 0.17141266551912354155 -0.075652480102166214104 0.11448151424221669759 -0.08465163811703631247 0.05849199425013118514 0.14772704177802864489 -0.2496402519897267247 0.20873830287518241322 0.057714914720319684949 0.21104495925358901509 0.061793157736753534515 -0.0057041798211354081266 0.083703193772129633188 -0.068337531465416379017 0.14393672625351425221 0.0066974330911333162034 -0.27690531836126291987 -0.10191983639857868371 -0.073655136157078374137 -0.18769699504601158879 0.24268170857193810397 0.2287886644371130429 -0.10871646097914902662 -0.11124560056564708477 0.063616941309501809365 0.076533474261986839116 0.34662774951752695074 0.23126227942126931225 -0.2804812808605529062 -0.0086061123889814659244 0.14395145426111585762 -0.015484798661559519978 -0.12135960746866857052 -0.26097223315295386969 -0.40983171837065818233 -0.29996279561884420239 -0.14761527463571091912 0.25414305416853577579 -0.19131790194309675202 -0.062287550196054648766 0.16238193276216580929 -0.098920060513687541048 0.14521123614731926144 -0.094416528116977413432 0.23353734406043763494 -0.34197987147324399038 -0.11509117313993209863 -0.17274511250507992854 0.31494649249106482225 0.052926176562791138469 0.12869022169634364294 0.17339449691116798347 -0.16796663382744697612 -0.14127677652671183361 -0.209327315708181666 -0.16484680422563333102 0.15393545043242273795 -0.15672060790161757016 0.0042744544873466565338 -0.14775520137920766794;-0.22691446344711180272 0.33712962683292324595 0.081922271687941181084 0.37780347781797241069 -0.084957182614788129271 -0.36656411534326183155 -0.11415368089992440626 -0.32069953203961837351 -0.23419111159008651479 0.044229007873229614356 0.28297569623029805719 -0.092820730648634053317 -0.030277772136727196944 -0.33008012327368074779 -0.30807786670051390265 -0.0091937325924568800289 -0.072766686430928068097 -0.34853870011107718208 -0.1738146671793863729 -0.46572096324956430147 -0.2074858527077933501 -0.28192862258110840123 0.14259503553198246695 -0.26593164201441810146 -0.14708151419660564496 -0.09472184271972416969 -0.20719608018928450943 -0.22650497003308778243 -0.077880470470679419304 -0.31400725545045382603 -0.45840759639861838881 0.042210428096522048524 -0.061332104262252558347 -0.013380297113305392176 -0.028479134591896243522 -0.45991188211347261428 0.33910751936874478085 -0.76041420223519318178 -0.047189629423653373097 0.33365500675763032357 0.24576557235683041402 0.33731946828514541847 0.40900729499464311134 0.014798504167166942266 0.54669438304839912401 0.044489005101054773794 -0.71331339608891219939 -0.3099996320312837228 0.33195855871073193244 0.46653904843281979176 -0.16750723783668639011 0.48050142795020223119 0.20167022067665724139 0.18461866792141296001 0.59460444496061193309 -0.71970387900588217445 -0.052326088327852009197 0.24261148754392078408 0.53751445492440830254 -0.059305574254036340365 0.14738652472313287789 0.36064469244307401086 0.58570389686998602929 -9.4063039896859711696e-05 -0.18483575749282082912 0.029809003203297188694 0.18215230986525771106 0.29106663828771300873 0.16973949060784701559 0.20119141206156671009 0.33706666104020299723 0.53404311024475858982;-0.32775757666731253348 -0.8549600969935865491 0.61006948204071187458 -0.29377759739245457027 0.091764129852937928455 -0.38088940610483218441 0.059433664636944535942 -0.46689923412566608496 -0.21916290244401592791 -0.22966812730847327439 -0.73680641962698267822 -0.23785850920101631045 0.073079183504002373506 0.067520208643127091475 -0.072958510403575163594 -0.27747740216788024936 -0.079009359664615558261 -0.11673874931853495118 -0.13851641985197540863 -0.092507175856844522932 0.29387818167325086005 0.30721113634733410169 0.18617702596546217841 -0.12828881900432501095 -0.070704450020613943129 0.015419997392317421128 -0.28063818819634445134 -0.12669789272683393277 0.46858384536555874877 0.57192087399840607631 0.19596574366418986757 0.17768892812576228546 0.10044919181004161035 -0.42027778325954345817 -0.38284542583434655327 0.011537195348825104307 0.51602885873067250166 -0.49912583238489344195 -0.89323689514763371378 -0.22066316725525295106 0.19087870151904151594 -0.011861830228482183117 0.60293850464121456767 0.29183897841020850494 0.23548728237162522281 0.46048681292983784097 -0.81167015625903304876 0.2290288424574997983 -0.019977871697018940306 0.1425015583409479647 -0.1070016624438386299 0.48260520619511776408 -0.040632490492654535497 0.46534877350140091412 0.14015719408722601691 -0.25507160608942486268 0.45404489823360583145 -0.21132857368172305867 0.36899688574511857464 0.13474433447794492702 -0.092113245410704577831 -0.014449531377478857033 0.25574478783460158349 0.34515007759234894724 -0.5909657709860810515 0.2376152948208651583 0.49494588439741427077 0.31272433313135822308 -0.24329307297898386531 0.085022867675438207336 -0.11930413260398879671 0.044311112120455797836;-0.095641622296789352564 -0.53211776209037031649 1.2092962548467174333 0.59885538997087817137 -0.13896395880242137788 -0.35096246522331903117 -0.058626894685393560191 0.20066210267582063054 -0.15914279645509765704 0.19283362931900832615 -0.3438617218928360364 -0.13467137571404738661 -0.10921770194940079446 -0.020313675188975213737 -0.1194012627546638533 0.058484981239479517934 -0.2132830744118932309 -0.24782802958618260769 0.37148669088881042244 -0.34995687607140740782 0.098153951436633274374 -0.14313406878237830422 0.35710456041461718923 -0.036015436496874282668 0.066800093734868920547 -0.17093821274487486228 0.21248650113295700081 -0.20844638665089848528 -0.24764013368821374828 0.36951769437066334101 0.092589913608449966875 0.14440792960168491454 -0.18256831817215826708 0.083662494269368462008 0.19497392073303282389 0.11311469712892832651 -0.075477867757149985639 0.147401835680249782 0.18806868689336619926 -0.90983276839793802981 0.24026885938512015928 0.0050162956616756843378 0.050690841870892587584 -0.14476880417196588691 0.069661615369301543854 -0.27629441947026367465 -0.16946870714122483359 0.33272642242013578118 -0.19523965329849207739 -0.16799601738423353137 0.045362278001683811746 -0.33246258737538947337 -0.066726638072182736794 0.026014543047746332277 0.22148803077559370278 0.37099027798910755305 0.23438349395031246591 -0.50727980740384748248 0.3061773629394891616 0.33420497698197426661 0.40092741292792666297 -0.045422839191876639153 -0.17659368863806504391 0.25652368899418565018 -0.22313257325143118215 -0.113141929528452298 -0.14117874674429653492 0.15464441519596841546 0.0018959661149250746793 -0.1073995440792817474 -0.041272364898298864733 0.27688000664155143493;0.36789036822066706334 0.10489951629927338206 -0.138562626893468821 0.17806454167693488988 0.1029700350191034286 0.0037135552964396912647 0.21645668164582587689 0.22443477348738499755 0.38774955092826535186 0.46383665571458032595 -0.19898816679936232044 0.10530877181964426459 0.24618148196449204934 0.49804365321750432294 0.061323682474740466575 0.58570534223210835023 0.17306030358841084649 0.38096587579557505965 0.3323646777522744622 -0.55735300817149180386 0.10590408163472003755 -0.34483426105795766947 0.45018362973140385597 0.081231304213615115883 0.42111961397982117239 0.1519351734465760051 0.17507595858476399098 0.43991274760486892559 -0.018988351835522741806 -0.11776668853411419169 0.056602704447911371399 -0.099238303667302255051 0.19815015004174255098 0.33790366372551799978 0.16441578315889657236 0.45245284257455231636 -0.092893885493375211171 -0.57742153476132340728 0.12041795273772751274 0.13905411324467581435 -0.38002092468088088939 -0.089400078867102605873 0.22100277776543686414 0.12900362187680045056 0.2517301738089580132 0.17117119372364544838 0.026868910414586399255 0.23357613275406427511 -0.21814708674264579602 -0.12226475790009667943 0.065474456396871896779 0.16204507481824242943 -0.18615460378319040324 -0.26947614922465207288 -0.14269800691751854949 -0.37127665813918930837 0.10719263494214056887 -0.084829330955915452361 -0.11980833467425959504 0.042898150168925078263 0.20506965239206170759 -0.25404187726722138319 0.02997699407530324614 0.1138316444226718932 -0.22855637553081561975 -0.063175781000979397417 -0.13348312439490625514 0.060483549845762762942 -0.37613780461852991399 -0.11147715959621738724 -0.13680676838395655626 -0.02467091064636929218;-0.19313488267417747157 -0.14766157814141037119 0.20504766628558573904 -0.65437959783741050934 -0.11051873495926906044 -0.040011487440733281562 0.038729695501792449353 -0.14610476552957604723 0.44340700337220023686 0.26388255975480123805 0.10853581802431756798 -0.41218929378143065456 -0.18239868782769574906 0.058276103261294918967 0.34951710344599201674 -0.038690742099829179834 0.21432625587159109815 0.0046359376168993958467 0.25738165791762823709 0.30138192276292991023 0.1821700450842744512 -0.065645780928190691772 0.13204824769481549041 0.00037257113309950259158 -0.060590562143115256344 -0.048674532560199747222 0.32577697310239078776 0.16457386422197672893 0.10555771518967362044 0.12509065772435398745 0.18265738518202978558 -0.073729699441107202085 0.34259189203753737107 0.2104677316300077039 -0.088076094425240475383 -0.16616201647299758126 -0.016756886808431566832 -0.35920463801862789754 -0.44458530507580018565 -0.76685954855542015629 -0.027823225676251315402 0.11408074421781233543 0.41694125015153732372 0.20024971405291130955 0.10130077534247189375 0.32992818757368208571 -0.34421892228611261633 -0.022350564782653792317 -0.66993673107053375304 0.2985199867750191749 -0.16374963064137046387 0.37967049850442358139 0.091588743583167930851 0.16657820307099927004 -0.44308268889134821977 -0.21008223592796382295 0.22739113104373162577 0.023994337612012927446 -0.28390237409086327425 0.10019343988412181268 0.095531730671823120171 -0.15472905623220067906 -0.12984332953653798803 0.16325528955186435764 0.045191350429307039493 -0.11072443311768355445 -0.16526106826302686126 -0.15553454892917273344 0.21246313568145039352 -0.052336507205770592399 0.27316826211108624634 0.26848717294877583184;-0.045493750014107416091 1.0059972994831487547 -0.40355552484788592693 -0.42505132424740815766 -0.07678086587495593085 -0.063740856784678640024 0.17815297299161411693 0.075854819585288557615 -0.31103327530153462854 0.28974273028705666011 0.67453942555818147131 -0.29507184851002876691 -0.15776892687431606777 -0.17537723359733650708 0.43485581572701698105 -0.17961036711879801997 0.41663044302149149223 -0.028371662357094668688 -0.12179259029691621996 1.2217081770035618238 -0.5502338637842281166 0.21584456789424286138 -0.27984643960975624788 0.29446915850552030092 -0.20165128711548049867 0.19060826462035201923 -0.057743077414589630281 -0.063260872365325584998 0.62589324286503900119 0.27064194228296051259 -0.084408640249829927638 0.062243231065770683597 0.075195078121805647431 0.10870632004505302592 0.28565850600518105651 0.33495975955821166714 0.24195344019982839567 0.1366796279168143724 -0.094021443826466391536 0.42638128262871294316 -0.27547048440904303712 0.12775095129122343574 0.28338691838363383457 0.0573830908560257133 0.11907994582948182305 -0.051127320927668626349 -0.41101712874324292102 0.11675410115721948645 0.4689278823556732867 0.21299190544863449981 0.18775954772890873778 -0.076131191226204014688 0.05794856783717946408 -0.05611183088522631035 0.16173509960663054463 -0.11416219901630571265 -0.40822562117400928994 0.28618693598256778055 0.12315462623685119459 0.38514676994534069454 -0.33644639532191433773 0.23087075870570542002 -0.00011752150983283435846 0.15960805967669572381 0.26845077515691079251 -0.077481444128651280612 0.24672538684266220876 -0.055559455376953115202 0.027107964156329059091 -0.11060079414894526117 0.12503579448480314773 -0.33614032451724673578;-0.12119903821624811169 0.13566959145676177334 -0.70420749970761153946 0.17975989614059642574 0.37173414476946947671 0.19897044525665333325 -0.362805294949815893 -0.25123853651595690062 -0.12586885679872447663 -0.013774812265095241759 -0.23607942688390193275 0.12929196398037617888 0.047528345305613256544 0.016930235746514935014 0.31375694404475040766 -0.24090211905369013357 0.080421241652162300806 0.027333999942951249518 0.32318065137590790137 -0.19605366679760238835 0.079156233797520250683 -0.13569847945785973309 0.40448394757370631503 0.3684931620560494836 -0.28044638966596890928 0.20414734286832578181 0.3020348662740104384 0.0017491039498886014857 -0.47028875505090450559 0.095235660467805349771 -0.0027614450986870589175 -0.039144172846300534507 0.092358162014830769149 -0.14195500622892767706 0.12697059705170163357 0.12670329004517899563 0.28089140487465380502 -0.22229700793425574701 -0.38579208527797298478 0.36042288877721917473 0.30621621639971630113 -0.14967813355707001999 0.096843844200055137494 0.13831804822265419963 -0.075906231357277212379 -0.23497798230869687552 -0.35973760149879890902 -0.058243270822964064715 0.076693116255266036152 -0.18268248471550818657 -0.39050559841168197561 0.12870641848667102591 0.16521348610739214346 0.24742503627660189514 0.1173480539767036146 0.049643977417988038869 0.022049344815355812616 0.18539031065228364636 0.0011460094929197880195 -0.023957262588316985408 0.22750081225376514449 0.12755354498853108125 0.36263093013945568721 -0.2556906754311426555 -0.47366495073193387588 -0.097982043744920574446 -0.21749560182857086144 0.056960508105853263627 0.011243844513544489286 0.09304377518187295637 -0.047711937791874201031 0.04123254645420294795;0.084505621999977506564 -0.37772601579020342877 -0.84806263013129290496 1.1460134835339519377 0.14420684793867993845 -0.28146195034587800921 0.22096344416503976849 -0.15320214226491402076 0.1250923186687991906 -0.28082418586345120337 -0.57175554689872221115 0.27011235764890861866 0.3804710292638567859 0.41692547110831501556 0.087025392202784629392 -0.025127079332386975663 -0.33048022028693674335 0.02248012699627750452 -0.31824563236773972807 0.78391660734095847118 0.05603138767551591598 0.30741626503132535309 -0.12756414726418552341 0.11059839461431357488 -0.067841684732709711669 -0.39147242669908172141 -0.28991358244600956562 0.2947442741770381347 0.035966060589302621675 0.1635279352456095181 0.5793874775628822249 -0.088680303535421250993 0.088592351205594485619 -0.37290193140992555776 -0.28759264798015710118 -0.31311010154150359375 0.37375521600154143487 0.4941408518566856034 0.22027050294845351708 -0.39571699291004047705 -0.033641932578205191451 -0.13870487748779741777 0.24379572139817801135 0.060566871137689937132 0.47055073525393548151 0.21725071334474416185 -0.83865857807370480792 -0.068420852589840819302 -0.8694787627201370217 0.244895044131707873 -0.084300986334186908677 0.78050750618822728466 0.052577243679956330025 0.43988634947444910095 0.10516004020670925712 0.67555015320310085603 -0.075287230550982089938 -1.1329231876595546868 -0.030256319136493035893 0.12827048418817263431 0.23718200431455560562 0.24539758785787790796 0.027944197288113436367 -0.35104855364403220186 0.32426914521782757017 0.19046553031686441759 -0.064746989855938588687 -0.34318616758849207482 0.27153405790628565297 -0.52104659956928922604 0.18953407316877704525 -0.16653619125839336235;0.18996837142365255446 -0.21354048627390834203 -1.4589004919479893196 0.21158216340216010054 0.16401160334585063172 -0.22766201236897715132 -0.23252651570882207355 -0.26790121069792505182 0.053599510222294359518 0.21645539179236955585 -0.038048991312325031178 0.058292539235185639179 0.0089112253774979045123 0.056314061656822164692 0.062336179103178242233 -0.1396639144452751502 0.15787814920426954113 -0.052205443058343473095 -0.071668918851730614716 0.78072677942102730597 -0.55875142726006832294 0.30813202693454577741 0.058216187108300468389 0.10620479457124214206 -0.1878323112151501495 -0.28563983693330835534 0.24741507565896109222 -0.10310193053930209739 0.15542085814389988707 0.10120061395424181927 -0.40957976630087128411 0.35133938471547598859 0.1205813560739691509 0.19730947506132395786 0.12730276581770458288 0.31602563179195186649 0.35077717618612469508 0.14125268809700519679 0.8211670044700022375 -1.2501878965222978923 -0.32530173078148066912 0.16628694465105980926 -0.06446318972853117002 0.099615324563077478626 -0.18574124645659403909 0.21328558744032458105 -0.05623888941228749605 -0.15156996945517556274 -0.55803270671088733845 0.14607592050339768264 0.43712789220335424023 -0.047774046469325641417 0.27917472333535670037 0.065422810168514075602 -0.43046928789901861556 1.0269256079970003892 0.38763707268785124738 -0.14790219382841601758 -0.088558008962091219751 -0.10713172669626798428 -0.2537629688660427707 -0.081204030079809086384 -0.036656502473529660457 -0.02369880538483175314 0.02619352199853770477 0.28832232889374292961 0.12065217872441580393 -0.13742031019201508824 0.18026670832150221147 -0.091436589760046399489 -0.14990667106668056907 -0.21776577777290784255;-0.10496959945255669722 0.1934811028906552044 -1.2495828688241030768 -0.93185792848633708374 0.24807272100659227831 0.35066126514999285124 0.324791449070270688 0.073067348468651413529 0.080781161980513563337 0.24697631081390697405 0.2464518717111809365 0.75615618644053805841 -0.75251874691055975486 0.08115983614098663812 0.14221069711442604899 -0.11780158213228071606 0.33215505374325277055 -0.14664714457558417071 0.13215894023566485127 -0.054314828559725830681 0.19926150265792721972 -0.5631440399625294857 -0.14741779194474649572 0.23736417575582935413 -0.36044496967792055697 0.16065987512542539983 -0.17059395502553748036 -0.008706614604672863536 0.033112351819416199761 0.21073258586238671763 -0.01035499839798429203 -0.13563252676711867739 -0.033987934002372842401 -0.28546651464438860257 -0.11684444388077207255 0.10410788976502986791 -0.011577825123441283159 0.0027038482639729268658 0.011317090102510796862 0.43784494104062526842 -0.17099428746784950395 -0.30864544976889113359 -0.29418817693375026723 -0.26744792248156995518 0.18550285210490577437 -0.16377915308556720286 0.044922371008588153629 -0.64931624549607380725 0.61991013156057150901 -0.27220221095496532904 -0.1681094018486855024 -0.30617662750492086188 -0.14561453871350665823 -0.32492937968968088613 -0.20504600047167706456 0.14635576628593494064 -0.070209535910254763924 0.038151011501653557534 -0.42727240960527851366 -0.21604647406876312243 -0.40448243826507451759 -0.18680580069159308243 -0.081033588614620594148 -0.23090128015895861058 -0.18592710184502503346 0.012301826975661666122 0.54541746003825886113 -0.038631528376308538197 0.37702165592268555017 0.091008401891158968722 0.47128780846477297262 -0.044981722716946483109;0.77806770753396159446 0.58551242993585084218 0.69080121921769555016 0.36135941919366887376 -0.020171946586121300427 0.25381478928400108552 0.24354214903113483026 -0.082337795664623694702 0.015865816721512285281 0.57420892785654908952 -0.10902856285964152017 0.18333828556087994333 -0.24815745620739718125 0.21837545834321245297 0.02554232673017987551 0.14237411529788443487 -0.3468961736082914471 -0.32343627101754579556 -0.00037878756190653107422 0.42214953958643808285 0.053638465307684089767 -0.57254712124809170604 -0.18084312429571230973 -0.22670380402041956369 0.21901875628693451281 0.031155843303320971543 -0.0078410399512774762304 0.26533788152905185553 0.84562198672469357508 0.3601840544237305819 0.32707281917333469456 -0.15285393881074821332 0.24705486060190615105 -0.086571383848011579376 -0.24282384984567947916 -0.20712241708062043011 0.070206253982959085369 0.78945886401328757564 0.014804188839018848564 -0.47811739148481929851 -0.23335611791610502697 0.25952399456152636104 0.028142728980839502168 0.43154225728383976968 0.052192543993445320027 -0.044565306718405028885 0.26731433507261526117 0.092617794913255391265 -0.48966287109770872954 -0.22482317543177479657 0.01478739281875468374 -0.08851797109543423081 0.25497197414511779678 -0.2556320999945896344 0.3648266695319873909 0.53040266947298475575 -0.19273892886043392236 -0.27948844936388839155 -0.18159091227282223024 0.31784462179829159334 -0.32218338633790039038 -0.034146069724860103611 -0.18478271321773576119 0.027955059905949201926 0.24513711043492877883 -0.68492088926544314464 -0.27263896683815536104 -0.15665858373943677972 0.38798469551169151304 -0.39156340804314532233 0.037120447059455968786 0.090657935315440946189;-0.44734077964084750789 0.19473480904481085818 0.015424792373110104982 -0.062357785355562161955 -0.32272629507324912534 -0.25409200417360516822 -0.3110667753287352788 -0.30674470351784460798 -0.12767153947694040439 -0.23875364793874420677 0.39798402114522385409 0.0053462609691830300859 0.56453504261208964365 -0.055241732362979738269 0.17691799421807219428 -0.013576549048579949347 -0.26421012100947682821 -0.07593957630184049179 -0.22449017063733692212 0.308207103519460901 0.094458769641767872938 0.16434385329002779152 -0.39559805522403374001 -0.25165441875342636768 -0.35467514879696110386 0.21500167925939006608 -0.46458250447256843607 -0.49181136213396670076 0.10237606237147023336 0.1547785528554736223 0.32400051939100926734 -0.43700917941490452501 0.052803623858318056439 -0.57782109664323377807 0.10671612484439949031 -0.28881612460383299101 0.29836134058834329341 -0.67378976494659903462 -0.74250707796933534954 -0.18333706799104937391 0.56560078174236594339 0.3099211764014445647 0.14179997728648449651 -0.054055659798996222309 0.20853630737827780206 0.36364553526648152326 -0.33347614281021459304 -0.069741720501394127707 -0.34304831383760742147 0.50352484636512317984 0.35095716497153606195 0.31633545796718853804 0.0059127471831394700502 0.50927823609516820191 0.029879680470274030263 -0.70708913821042407299 0.62755084997157928317 -0.69160226154900028561 0.33338033190107435599 0.012690918663473280473 0.22739380776494425018 0.27510388649107087033 0.010323521616918251292 0.64932824987642800973 -0.83829008625811674005 0.3972396143486823239 0.085791772054980924844 0.23353440471381220478 0.34731083533546414088 0.68340525658720330249 0.36004519501800696935 0.16804573928103949676;0.27670593667330889431 -0.06279799907567172601 -0.59728064800910873888 -0.39947040077005463443 -0.11881118960094898263 0.1340939484220447786 -0.33339233523083594557 -0.12793540445317300169 0.021873457577081204667 0.2576136131160246534 -0.14297870037322235603 0.22978154242647311212 -0.4538137238140182439 0.30218403741038518673 -0.10136831231612994375 -0.10142140491424610216 -0.048164365077787096858 0.15811461180725025488 0.33162769722441026721 -0.076931433461563863974 0.010156099585353371706 0.20120314051636412067 0.24206411369847699588 0.21155564301933602045 -0.13695900325591281455 0.10362401985326866183 -0.11208939602406295388 0.22996242548837542152 -0.11176660693826780124 0.19072712137483235906 -0.052580022417462658757 -0.094819775292351027307 0.26186133366516228804 0.023906585369802585417 0.05697449706820099935 -0.20162235995000418742 0.26142981141873733453 0.1386957902304803425 0.34552525506113568321 0.037387704215466693869 -0.29221075599048101923 0.1104696386487514087 -0.072365544351368854548 0.22631416022271111377 -0.20640314182087826644 0.16552031871469022328 -0.32298796861369499789 0.044223360581224259447 -0.11750074532379531367 -0.12477945075437688049 0.18739761959023074067 -0.2698652642464587359 -0.14277846611562469703 -0.051717406643767782626 -0.24412973276871779982 0.42042487521398413941 0.058039164302452393718 -0.049236972177635909831 -0.19483487179057715211 -0.026114820451610551433 0.02533728702791566631 0.19463374382754111691 -0.083929847688662961858 0.085521918334663091232 0.24953146907320300496 0.028149277774492716814 0.16716161068544044266 0.19017459228112942871 0.19524230735744302345 -0.14347447269807608872 0.29260324382120850295 -0.16992452368182611733;-0.36899656330446767294 0.033303322650299012342 -0.75632287968036904235 0.52879430190428833303 0.23562167089144081533 0.056849495340688074863 -0.063415058160066539727 -0.065365474865405864824 0.20823116457626433817 0.26797917892939360218 -0.25548310241181476643 0.26051383369016134495 0.55483101685168623174 0.18282701719731248025 0.28032513973946060482 -0.33270227618679537596 -0.17547119016053233653 0.44885573709286186173 0.1810983368059540799 -0.20104845723153227932 0.21922928613585729307 0.17806025781314516188 -0.087176095702742192883 0.32281513147890333881 0.17561134105249540105 0.2613022287925422793 0.092106731539601333081 0.26359477000271935854 -0.47814973008821420875 -0.32336993802287583577 -0.1637713784342969825 0.07390970454576145654 0.056530227492518146659 0.37430998944721077804 -0.1264625549221300993 0.36143835688115094618 -0.1032042652907369934 0.15041595863712939329 1.3413148407782509164 0.77022837596790738601 -0.059201009252222422385 -0.14584722492833321339 -0.23517630035669317978 -0.13597364863048480577 -0.059468530799235065631 -0.35097253746745948888 -0.29496649286578313642 0.22215908024100267104 0.78030294257674825964 0.14270574223174548045 -0.47368137034805779528 -0.090081508203237820043 0.054645250634360875708 -0.083277830148272294353 -0.014739756600840113465 0.033593131755086533263 -0.30605925773761921693 0.62845851965475374445 -0.32913135479950905715 0.11301238929011406253 -0.36575978453914270716 -0.35607695696314906053 0.10023366070823172547 0.062050961440621874021 -0.68552326540480112982 -0.22590737196631438533 -0.31040281019069204671 -0.25973292312542761717 -0.21575911496367733422 0.074470711890609511685 -0.017622134492894805935 -0.058274176555904305674;0.5770551878975328508 -0.88905472138028351914 0.4862303064340945391 -0.35321621256714663684 0.47419984369544471159 -0.03628312607824076691 0.63446931468249778696 0.39788408652076856509 0.22651880615376979167 0.58003581805953063899 -0.46552285103193352667 -0.046739535578272289884 -0.20146802709544478494 0.4190766163283816681 0.32469219736633958551 0.43714086089033138416 0.30268450884822906133 0.43340176048566420031 0.169201143200339299 -0.050895800141609805201 0.14255427609164716962 -0.22268195799320583683 0.37589666981409664004 0.36768164806665437627 0.14159762865855882175 0.09058794823501635507 0.52654567901929738571 0.36148877047695560094 -0.051115768615912118844 0.45202789263853887514 -0.11149540070132500647 -0.008963275767069118008 0.16453276127859273181 0.39136170254206570362 0.35328648433225545711 0.10341186532065786696 -0.53052765254271661011 0.96530583170360118039 -0.74516862506477243855 0.044032780900087178932 -0.064488624189283083599 0.28806214431465959613 -0.30359073821263227178 0.18441036266110516495 -0.55026364812658612458 -0.40967893040779868041 0.75669650093780271849 -0.23005491619308426898 -0.36600102621485164356 0.0078631987714835212266 0.036816979450613046554 -0.51534861706380941104 -0.069416667697868111864 -0.45503021561956585872 -0.3008246355058927235 0.59950117646829659268 0.2793616308465913245 0.25407780110081151781 -0.18349135248156117628 -0.19944791377295911783 -0.5341067400691699163 0.14160967254121017977 -0.47473180946653958934 -0.38829321656930004814 0.33010820080757347084 0.47570777910876044237 0.034080777077984784895 -0.27372871210474175596 0.3420378209610541731 -0.14234460751003805146 0.29106770085275901483 -0.12332710007982720934;-0.74264874661292323843 -0.12284147913610447833 -0.79992828129268911397 -1.2978269581946775268 -0.1653189429447795844 0.061855216805751997433 -0.73952253535658118988 -0.20106922498250232034 -0.3760789976541231705 -0.89549167261500717263 0.83598640776642985095 -0.10472210634444267807 0.42925483662998814571 -0.50674631575910700221 -0.476558999384103954 -0.74519817473611627001 -0.32318502910681179419 -0.29377230254615888105 -0.5078914438107412499 -0.021590247237985218248 0.23998642444535805973 0.17614645438433107483 -0.087468750988333676677 0.066324765235079477521 -0.016012214405757087959 -0.27322089438211044632 -0.44887093036731012807 -0.046110146495788616183 0.10012454919408059206 0.68517490472871922513 0.52165866865688348408 -0.12406187194104677241 0.1428360869145679779 0.099165011033648498007 0.10908982318213314433 -0.28020412933877847372 0.39545216795391785469 -0.3134129699721781015 -0.33271962341640520799 -0.30048051439438899779 0.59766608397885956361 0.18144607537583573587 -0.083966659773043308967 0.45331265066353826354 0.27571586864575053921 0.48233136026649814365 -0.016480801952108208031 0.66252440863847128494 -0.13456766447786386309 -0.024092628427309529388 0.34597855534711596803 0.090162898630287410806 -0.14568001453118867294 0.28277522173073910139 0.33221074246330783986 -0.38220577351125717414 -0.57949772862543058594 0.76270265555295091442 0.14779348419150148408 0.52146875885599419664 0.48656207823916169941 0.59407436155170856296 0.33683121147474409662 0.48456765938183254949 -0.35214319695184786996 -0.23824492257417295704 -0.013987211256825086633 0.25149460111573163079 -0.1125716242204790607 0.66354905074429482159 0.075873013244220105511 0.54387547691001703054;0.16884044284010732428 -0.56712331052564579625 0.4533848731952813127 -0.32919805605037710805 0.13161103138096857945 0.29935740826951245941 -0.085421368595590269068 -0.14873702164940141857 0.14252354412304230058 -0.038208569553434032495 -0.029221658595786660639 0.24490705601750700771 -0.37782887146012178459 -0.071560790961351081196 -0.13512534434518608251 -0.070920502312891500751 -0.18668899910760231031 -0.13983332101581541496 -0.020526255800999475276 -0.36491597842264089646 -0.33092091731100259366 -0.19407285903882567912 0.32378113990503626374 0.14769615038795938511 0.31351377247854422814 0.11158272088235036967 -0.081940326217691678012 0.24836932361760319377 -0.16196471258468131404 0.10878668779331754357 -0.13399045984290686162 -0.25263973277887602498 -0.0073122876364841169275 0.12447254762333576084 0.096924952339267567147 -0.28127054945972118638 -0.2360795665114802655 0.57180667311318855717 0.41869457787218350431 -0.049635195909152378391 0.12697300408082501377 -0.17090989445563020688 -0.098321430765717657274 0.098815347095479053041 -0.0085489732085562326891 0.065101715959421949109 0.4876159806773031069 -0.14460511650220322921 -0.39888931786661752099 0.20381691588956946104 0.15560196031532766425 0.23397348639172607654 0.18428509287353883606 -0.073808007527811483883 0.067729404297249468092 0.47047334141984625822 -0.28212548563832223758 0.31535284675039787494 -0.20709783396946673806 -0.03197322658733276618 0.15243313754857057418 -0.24568447217693947793 0.11231805073944145512 -0.35246200981363945415 0.037194571403564247181 0.019527294653467284352 0.092787957977508481178 -0.20184145694913149804 0.21822567777480625373 -0.28181725495114917646 0.10169156964880216032 0.1631845607586034641;0.42917584391197821647 0.57826297505702073387 -0.45122721177695457317 -0.76570593821375687593 -0.42164961363101460812 0.0037298247307247633237 0.30229507194353089083 -0.27966233399688233963 0.08757041816877790541 0.11175907527598602509 0.8834374637092192728 0.010265794307390998033 -0.51719873331665078275 -0.14264412069246967807 -0.33626606430031913408 0.14887384782889595547 -0.26597551754835385696 -0.37653759598876251902 -0.00061408489399198741034 -0.07343250732830763905 -0.24015009054132704924 -0.26549951559553913727 0.092206712858102807262 0.056894075064821733601 0.1646367968676907545 -0.18917494975858278883 0.14499651077182318382 -0.29765934726392978549 0.6892111006783429028 0.44685648127245536365 0.59437480177068990894 -0.11508840764570045512 -0.16909111493268361159 -0.22268837221517942537 0.2439438303580527545 -0.18815367444437638977 0.18965709277899500673 -0.90445632246185259095 -0.42353151635392571883 -0.73499664687975307942 0.11013464864691248357 0.31106652289593655913 0.15411415730275687674 0.0093915209628846977458 0.17252835898621313171 -0.050341461588135412442 0.031413325374607954654 -0.3200664194265229745 -0.29385392055080783447 0.22220681848449549967 -0.097894830818017586349 -0.19582178789314041989 0.14672811960704398859 -0.01755961049832388543 -0.041217077147447107877 -0.71942459468640118647 -0.31799477821525845567 0.35192715258634282849 0.2879195014863215607 0.048435348054657878514 0.41585692560505987947 0.031024474703491539129 0.19523969637289600998 0.38687252839484909117 -0.2788884144975554702 -0.12405203854621442427 -0.044793118537092134479 0.2908434128781105521 0.016219653342428464599 0.13180709316786642926 0.29776597812285077183 -0.12772695918665030734;0.27691550038404577627 -0.97593906315607670265 0.71855544561567463724 -1.6231258132633152869 -0.0094958773854756112903 -0.12283683804317578614 0.17775241392617349701 -0.11550154103039103615 0.49455857583664031285 0.41506916555658168733 -1.0991435853747391072 -0.53157611582328723188 -0.63634848034209856582 0.14035173702653955252 0.091162801629755998989 0.41496565386570044565 0.18890254458383390346 0.40478542876037520992 -0.12805063860761639605 -0.31212414458954906848 -0.22482533365773732514 -0.17748125352954768896 0.096328956733092011011 0.2550897143365349895 -0.094536104771145407222 0.12918212021049790827 0.19570394273070002011 0.46020932551749793582 -0.75813301958913270617 0.4299716633819998246 0.054401198672968331671 0.31264937511973411866 0.37961169496139263169 0.13033329108384214545 -0.081943277420513466192 0.11074941099394977617 -0.13739079356345720861 -0.063980204932916312499 -0.56092973926042755117 0.20681916047087872679 -0.47502741099456774476 -0.17045816036739858124 -0.11370993072757508424 -0.4845088157092158343 -0.0067148143656512943381 -0.024641833407116838645 0.37074409059713175907 -0.13710103402062756572 0.46214144826447667302 -0.015153842974632110094 -0.25301365219478127999 -0.069889629141818218616 -0.014014874989419804849 -0.37851413733561634078 -0.45843601179308290927 0.45664955315605987307 -0.14084697917604394046 0.1818137589741159188 -0.3256259300943477597 -0.33440714965112106061 -0.50043654044403396153 -0.25603106898550598292 -0.0081615236957800520179 -0.21796778542396383349 1.0092621600003126581 0.41010121085808282082 0.51665663761129532183 -0.48715119289087388532 0.023991186588108920352 -0.6066568208067402157 0.093713097912528353639 -0.30749921830077736606;0.34255038268881510266 -0.51006455116768190106 -0.94612667598931732282 -0.40091588816825157737 0.13804124431861569677 0.35575666157991253646 0.25880226438841757997 0.2820432677379743347 0.1645119405803348589 0.10381133515651638777 -0.76001895271608976845 0.31095683602597645745 -0.1150468058533478527 0.094759212185193605893 0.0032612517892894590452 0.36826282439508356559 0.34193003786890741047 0.10835792184607598299 -0.22344423584749412148 -0.22631504622264095317 0.11986909369830534011 0.061785159606657619191 0.10486390269385963137 0.19230787634763030214 -0.26826153758856119413 0.19121136397344712377 0.066709105005991545245 0.0021237427383388640841 0.093089668064185573937 -0.14924908596330641042 0.58464176959494584818 -0.21654434967861710404 0.2375120847323071438 -0.14410955783421108833 -0.22193717932797252246 -0.26644425506966473716 0.18590792378139728291 1.0114715048845768219 -0.6777329482879704825 -0.6179386512252211805 0.071115843135287667987 -0.25243356885020495906 -0.013201482926900974871 -0.040000319669548076162 -0.076980632501167933768 0.24589939872266280974 0.26958078195136886412 -0.48408322682952087401 -0.77454076638910718255 -0.18503353902480901283 -0.097584335274945574468 0.145849704682964737 0.38596283628254568487 -0.049238979092422197059 -0.28940694132208566458 0.50292942999263667847 0.14065018594464198665 -0.38058113416841254928 -0.30567759737155536515 -0.10200536734289332441 -0.19785662300826328819 0.11722898890063541966 -0.089086722153461889162 -0.11281429602959214265 0.53829353970562610066 -0.042198709675809700781 -0.032873342919059606038 0.19672827712040794057 -0.072501586989321645249 -0.35191195833137572935 0.10183870149415831519 0.19371752644159442869;0.36049053388606067116 -0.042703591300121052088 0.16479772097062095337 -0.303091730739694587 -0.080985012259029362514 -0.19879395714141756546 -0.057897802689800881293 -0.169764643564376011 -0.081027568712338987611 0.085142887177077380967 -0.21340397594947105309 -0.15695668579765936768 0.0061333575136727084068 0.16407854087285050904 -0.026599116977503400178 -0.030788250418477533521 -0.13664561173421968521 -0.003733348174986253834 0.14892843051030721369 -0.17730730442853176454 0.43656461016040870593 -0.36525419177231627232 0.22290395630501422253 -0.21413627935856999196 0.31926999537531774997 -0.17668158974043482456 0.23934954885265122271 0.1908874925679069634 -0.28939053339006554078 0.021526651717921438389 -0.44992439095049213682 0.0089903304445622545665 -0.18926680869263334817 0.26647540041032713454 -0.16535477463532358144 -0.077540763538772067287 -0.080899116136950596778 0.26041981968454214202 -0.2100071588209216078 0.01877842089588342353 -0.026914658911382425416 0.090313760454555122581 -0.16536355221562157314 0.15971186446100560374 -0.15196811485080558013 0.061887524485894282456 0.30883474579447239838 0.15694772005834253803 0.2626527418379751011 0.13314026810141471602 0.27123625755339991761 -0.12678555793355766879 -0.2024451770362037939 -0.32181447763842513377 -0.16356041293292306049 0.21967586823065710089 0.022094984730629565334 0.33488209780306266161 -0.1382649663992709943 -0.010413598214984503762 -0.069499831820956994854 -0.17262010307712996604 -0.16864243990079150204 -0.0017969480726410698435 0.34622285004115072038 0.24479087590705592148 0.10268708853406584292 -0.27738527068102353246 0.19903840956610027724 -0.45884185114959480378 -0.19382127945066923713 -0.33973598812009447867;-0.14595031060708410497 -0.055813281011180895796 0.13524219597381281766 -0.23815446843048909686 0.1400027212522765574 -0.12728207116381884401 -0.092312441906634401523 0.31484973733308413424 -0.046224493801781167679 0.21483718274810656435 -0.22658713829761711889 -0.005999701627320804323 0.062982610050814180624 -0.19590962131035147276 0.13887147520257711597 -0.15381111792232679547 0.10899397099930713262 -0.058280567584781617363 -0.20004589493968760738 0.011951556519219117686 0.14492823680818633925 0.099444445913231371836 0.26011829173717909702 0.12672952545377871858 -0.06920415725900894155 -0.21925826246384766405 0.059770721953326944043 -0.011237142310343516821 -0.14191521921105279547 0.10599984727980885091 0.12801503228457591921 0.031686536640773713125 -0.30281010227227861398 0.14630115815406183333 -0.12765293225350773931 0.27098659270619118722 0.16893818588342615628 0.25871295727551357757 -0.047120244856668956623 -0.43493982895596167149 0.005869890340078781979 0.13696798343946614551 -0.18414080485993464253 0.32577228413354469838 -0.079659683751535911855 0.2566656027714227517 0.056499770592369776001 0.071918211944965920734 0.11395558485660980952 0.231828938181669858 -0.05533590939190816127 0.29243230644990814149 0.075122157006114131939 -0.18890933536403056725 -0.018351290461250807651 0.00073137105295914615725 0.24107697543755865488 0.14392848629985413589 0.19982060537661025523 0.22239056961136724477 -0.17079925720028610314 0.26401954780712749704 -0.18615672374283551149 -0.23010006827774545646 -0.26647894742436123439 -0.0048627899538871829574 0.07726489712269307697 -0.2020265668211576604 0.30754922627278868941 0.21954903143787485309 -0.028557371017236991145 -0.23924321404358109278;0.27632570189336158606 -1.1370696361860506141 0.86889111136458796469 -0.78784376210132800455 0.41491867259304454629 -0.21288335929842175376 0.50139477230909501593 -0.28571261589366575562 -0.005045980924491828834 0.44420163261128658982 -1.1160671894960607631 0.2386004880840233433 -0.44935712939272048905 0.41934278925439172347 -0.090037613308040997939 0.047562097185431417845 0.016730470539243254974 -0.11385790916812546514 0.18913505975416089466 -0.75540151129811650144 -0.22625540915622885385 -0.18806809027216306318 0.36933195612496072524 -0.04349349225827168347 0.06688389741071798511 -0.15687942866765733352 -0.1047253015401083398 0.33248935453426664566 -0.083401847604952089599 -0.09807238091196550378 -0.42008128162318125742 0.24254894476218541444 -0.10133969701286957288 0.086201824845987123913 -0.13708995513699426261 0.22637828053839462172 0.1669976087647056795 0.44009414240086791592 0.44741327392986784961 -0.23823932930454325141 0.068550133537327112565 0.14907033079138057308 0.18305188645210673792 0.085805523035838368595 -0.24148765316255266233 0.20925978768163280841 0.33424746089467483046 0.45697910091850751924 -0.38429880123597615071 -0.25686495890731875225 -0.11794332019838055237 0.035145380199502758434 -0.12142765603278174447 -0.27737371512979119847 0.29432067557583030393 0.60361423728668672783 -0.54195809465069721966 -0.27943409290577947424 0.06657032622341467476 0.5064381211163760943 -0.32586874907517199285 -0.26548281047094274276 -0.27146945477060452356 0.090052361531412439266 0.41902718547121670101 0.0084851615579414271795 -0.15307688122934984265 0.10820905388563815952 0.0063446413583384654936 -0.11586052268394603226 -0.3052109704059748907 -0.41321716886136389268;-0.39981655726569398368 1.0697186764414086113 -0.1119557850095285606 0.79557339986197972426 0.066248011057734410012 -0.27563767781150649849 -0.10003681438809942927 0.089073545178469742956 -0.35916459736100719846 -0.30892976988026715768 0.6829562352716640472 -0.41695609916234477321 -0.040494321602294117146 -0.33065479127577479534 0.050623069546919134687 -0.53210139821262336657 0.048902925460425482329 -0.19584743736323914631 -0.26162628154581357709 0.3711011033655917668 0.38426214765988486732 -0.2849733711640586864 0.13329937117369378141 0.011022795835534440409 0.032268556502089998372 -0.20908613599848036024 -0.42701063527847976653 -0.10603756205234654564 0.39753111632549037457 0.21573867929954965161 -0.51694904328614255107 -0.23380590516657168143 0.35652625356854245053 -0.39848338774299135734 -0.2530796863439982447 -0.13268824018517208496 0.16503410463900897165 -0.39052796061243422177 -0.69457030197504265878 -0.0080239812100878701862 -0.18983225391252511738 0.027849599617653663514 0.086263736769230298096 0.15470878124865941605 -0.074033263947292898832 -0.092203204091134555176 -0.62628066960033079713 -0.39884195547360046241 0.11551223190214020276 0.27208118946040293906 0.31525334890977124713 0.17497526684785369433 0.061215090857894179088 0.29767859150590925132 0.26215173289898269227 -0.63885201184328810342 -0.017791829046962998051 0.42036403358381108086 0.29628851754825685783 0.043940384035920036776 -0.050088284662950961768 0.16747828585636490017 0.34556314907950941295 0.11325044673804712803 -0.084429108539598715644 0.065253645029176271519 0.36018425937574349849 0.25834685478187424668 0.36532976148397844351 0.044661838511095411364 0.093106406333418406662 -0.0086795208568006803479;0.1776573684900207839 -0.049174490711140071697 0.097131991696716019069 -0.040466429785197273461 -0.21329513888109763453 0.29348673925181600897 -0.16225729567073016169 0.24743163660517589197 0.227282229114228157 -0.13025444443794628735 0.32551649500820900585 0.087419030392131488738 -0.22490355493639410667 0.30916458026966470163 -0.21644394879391898323 0.24934947130543144711 0.26202730238009785957 -0.17442057431433760639 -0.046122967460816684249 0.26375752362913135185 0.4008860030396103058 -0.090027235552786091799 0.31045822578048715146 -0.029107166592919047482 -0.16985806575450301814 0.22914250105359512677 -0.21311210271498759461 -0.031236774098292997143 -0.15933144045507541264 0.017504510898168790245 -0.088174259535480747907 0.14370606991214779358 0.087524094658855883244 0.073026810247354009831 0.20591702067118752839 -0.0039841322410187930692 0.22447344414504408205 -0.18465726380401578655 0.25826534855112864841 -0.022900422762704656515 0.013658437917226790015 0.0042161170423188733605 -0.31321735375035275606 -0.12872071152820882545 0.095764298183944232545 -0.25639140491444228909 0.10054808123679417897 0.3262793961452065683 -0.16360261840743067774 -0.14270302675426013717 0.034283491070283361735 -0.1499380559237792343 0.20061647359123149781 0.016075823108003910872 0.19518571489969585575 0.29799833052662477728 -0.16794075299077987351 -0.081563323462670478392 -0.12499641614510838272 -0.056494480850591333176 -0.036786279281009699738 -0.40947976287094134396 -0.35982893463615900354 -0.33317315140611586388 0.10191605389790103775 0.047907613940493393168 0.1592772919717591884 -0.22327159003521096503 -0.031085402742140392368 -0.20536811638152824289 -0.19589458655246355656 -0.35572050593441512101;-0.29434430840998754286 0.24905756172771686963 -0.17757393831087778246 0.33739223710584803628 -0.078982105406947195059 0.00898106228268358113 -0.29956359125831499846 0.35122867315584938019 0.26291233213764420018 -0.00049005428156451060623 0.23637239852337413315 -0.070019413393883719876 0.015311439954618390885 0.40216707413616792355 0.40648900818233507648 -0.35242319293961049675 0.28626201569212567088 0.095923991506702166454 0.28671634359138770121 0.096164917157992593766 -0.1956704846789442398 0.30411723471402074548 0.13547165286803006246 0.33578349501613069528 -0.0018554223724566417178 0.067533619442148057344 0.27833870240496172421 -0.018621692501795475416 -0.24479255574327993261 0.044499568568158960613 -0.31066255837535416973 0.26487271517165850154 0.29170760252053562489 -0.049389315158560591346 0.35177124147562177647 -0.062117221780712515711 0.081368418451214896692 -0.12797014323861821694 -0.38044274262465960224 -0.078004323786184756595 0.1950036361468854007 -0.16412918108198915057 -0.050621250894594765901 0.024542981687032096316 -0.28732862094686373311 0.20510246848288907207 -0.34867975022960695508 -0.28049522212759586681 -0.0050412774770235502589 -0.31479264825472635936 -0.069224763941647352028 0.081690854089178768782 -0.32103480335495970799 0.14704196631631635817 -0.23940115655573207532 -0.3483282987507327344 -0.022410472742587724676 0.022520098821093112451 0.20418473112824864213 -0.40535433184135938323 -0.0072737853310938628895 -0.33948914859984297143 -0.0043507164707687305538 0.18605714142435847425 -0.2110236312414719706 -0.12709457094506609875 -0.19778640936972746722 -0.1771189521810614953 -0.33816486826853353609 0.056578787933539577415 -0.28161408680097721469 -0.39676157850195215016;0.70219378364133111514 0.49341393756265433668 0.73900138409665427908 0.7906086058754081547 0.46390229974853230965 0.1752109244447355163 0.31105740875215381891 -0.053685054244306425197 -0.082860321162189734534 0.51973365974091767505 0.37372110931354751706 -0.3439982233016418145 -0.012817704807357886351 -0.12342479637030426276 0.29461461488432255651 0.44302723620582235009 -0.098034187201832823089 0.022004756319064219805 0.040907391792698068189 -0.59208779346441831049 -0.37159037580677695134 -0.027212211738772154601 -0.10487264230638917994 -0.093645602482791842625 0.0020682098728580077668 0.1535686781868000339 0.14082320727003724836 0.02874863776048090791 -0.26710574292673078256 -0.45764697843875801198 -0.13818492383009278734 -0.069028727567084488537 -0.16802584185796218263 -0.13685709588337408027 -0.061449786250980166502 -0.16388572686621469265 -0.25632918046201136342 -0.59876270076230442285 -0.32366795856983454627 0.4731969211784086693 -0.20711056168371949626 -0.35362567698229874225 -0.3246771048869689924 0.12268552860739302679 -0.1333754439372404621 -0.43615214827279646936 -0.071359057066620101839 -0.39841444225066252605 0.34091236479651360058 -0.15728430409100971343 -0.36723014997966485495 0.13114682632043347943 -0.13008693535915843986 -0.26657641172331442148 0.20039766374920167658 -0.67869351628310148339 -0.090033521678952954659 -0.46558098122560837018 0.31688522201133001444 0.26705304350420167037 0.34634895648134911283 0.12923330042471453671 -0.086217456972113831748 0.15630091562070022593 -0.26345037946276689267 -0.19053806283473581629 -0.43415828936235673075 0.19948927163815563524 0.20904831928039710465 0.082957056780293567111 0.19552424125418307876 0.20546525084956826501;0.54894293759763479468 0.66659856299177744354 -0.12226719533361257719 0.49687503591625736821 -0.072894185761661997591 0.51218637793208521281 0.46763740600501108036 -0.0036683513370410598085 0.31460171631972982942 0.088091039085515229767 0.60030416407692777092 0.21969849013736908461 0.072127384006481096157 0.086969571112865878826 0.14933645934088760066 0.26836766132922140748 0.10406387737456719578 -0.10856236700024091135 0.55615565568556646348 -0.15725197219569328477 -0.010222919293250759196 0.080667212179323072307 0.37226245691560860829 0.34618110689336428765 0.14087796202244842747 -0.12120175468113587869 0.3591748569559493065 0.119565219111338647 -0.13737419032479031289 0.24972720416262200738 -0.33633354109746138594 0.013544343393028533684 0.16577650833013771181 0.68776479789389710628 0.22516795895315458442 0.18922413817290412164 -0.48807994304221508086 1.5535794157680027361 -0.33115781711065461757 0.46726063740790940715 -0.39095295716643463368 0.18625410478899917521 -0.44474513492160216988 0.16888289827985727976 -0.5607094866780344411 -0.62288496508262292117 1.8787043709677015979 0.19413511757966653293 0.58721288601166721222 -0.53180005019792986332 -0.13595826700036656165 -0.63177774879332659896 0.17272979218314266081 -0.62890687055814165074 -0.30240818581698214462 0.72358111080692133488 -0.15045800231904327138 0.15483012851194960513 0.16179344311479290641 0.0047828714671948723697 -0.42371958055297920254 0.34268210980118990472 0.026515955570855918866 -0.2081730763186468991 0.97140062804662774543 -0.020331057089225272605 0.048221334834504143985 -0.047618923560207214452 -0.053958104010469173928 -0.0056829025530473319811 0.25999614766751566464 -0.35019788579226196479;0.67373877767282908113 0.41720816587033626721 -0.07045164333913107868 0.32586195890482544391 -0.0069361759173691148531 0.21484563341112225543 0.27207530266831642107 0.19251737501355153936 0.065629958109259992072 0.30199021228503408754 0.59214497195622162184 -0.062899384622569054493 0.37089705442374137911 -0.32809772388492131068 0.15867483517657285375 -0.26244789825769965219 0.053587088997116838485 -0.16313382002138979154 -0.28782837719492471162 0.64671821853663868929 -0.2457304237821146542 0.068389300320903706476 -0.12529592496741098762 -0.12284347601927508853 -0.43908276071863144852 -0.24257318473126765479 -0.037837697838285007379 0.21975373927856059475 0.84271025101457386342 0.34523832929773340394 0.31920611997508574476 0.18511402585193822978 0.423150294334334931 -0.37291788639017142692 0.093441092677365500396 -0.1729550363342695074 0.1458133277314542231 1.0112193506384350439 -0.23745755485593683654 -0.3496299879498470653 -0.25240434669269923296 0.22540211287939473928 0.21674254165997663968 0.20219657638446020265 -0.37909039872566491214 -0.048546182021026396125 0.76582729911546232326 -0.1294476862800220951 -0.27110974296878803669 -0.35944625318969819494 0.33822202243805915556 -0.25867478735829463332 -0.17392455995573521954 -0.4998780387874419695 0.0017177778616209839549 1.1126176170506958396 -0.037655922563135102443 0.14142187261632868656 -0.3739136769328526011 0.46855517015872161224 -0.25513240430475220277 0.34375286131542021062 -0.50122189371505576627 -0.45955793075605516629 0.52547137203830518448 0.56490935789694340929 0.00080036193640367712249 -0.40181067971857969967 0.32020388966425145094 -0.18915507648785354067 0.0075881147220475796827 -0.3818391143928566156];

% Layer 2
b2 = [0.35287789768195398921;0.20377015375565343813;-1.1992812662673473234;-0.11048894199723469089;0.16768344155279024665;0.077552658276269406668];
LW2_1 = [0.22759241323627896203 0.2631157488616174267 -0.15218690504025764176 0.4856293256178138007 1.1637391682172111285 0.25139420354724173468 0.53294381847644811678 0.46491854970452506368 1.4871581256521027026 -0.10317059369520280299 -0.047076282142079491078 0.7967104021341483433 -0.69901366381616170109 0.341175630277047226 -1.4313521681222594051 -1.2419932387851659872 -1.6584323706714385604 -0.71617363455654081683 -0.65704338347106538976 -1.2517518747737641505 -1.2011422528993682679 0.33614169537932270249 0.7136856879324164904 0.16519087730093098831 -1.2732972786135863252 2.3927020810245718252 0.87632736878041717077 0.20507965470141956144 1.5418426453097759943 -2.3904985362500319468 -0.89758663229821600282 1.1946396446922167289 0.32328024604208510651 0.92299990973576451214 -0.54002200779938247521 0.99770613677750030757 -0.50642446870923996105 0.80880136926605861181 -0.44463769262107954994 1.5624311168729687616;0.088379862959602886741 0.75105949516374992392 -0.94912086966744302341 1.4013376716592860216 0.29316481175746933463 -0.2441206830848112741 -0.54210535852778019006 -1.7106814983246714235 0.84637264810466783516 -0.018485124768709833981 0.40817926059794762406 -0.32996114418066174734 1.8292078190848735098 -1.6450712102900935108 0.20216612314559959107 0.28065448462973852095 -1.0738108800204251292 1.2853907554613723807 0.011171396094311444175 -1.4211518844286412655 1.8369622937711913568 -0.93832743212490121731 1.5485258564152855065 0.29138454291754695147 0.58889884643899792493 -0.958670723363488686 -1.9116344601166861406 -0.19810397151119685244 -1.0463379790345863629 -0.59444491379940833653 1.02257366096776936 -0.11458873644759437482 -1.1352846673344714201 -0.50637851048669968446 0.80091504045645434129 -0.61592755139268939857 1.2232243631803358941 0.41930480975594836002 -1.035672078391116635 -0.077672905491593252636;0.64588507329307764948 0.94569682830720491751 -0.29457453447426196202 0.8035806796730861068 -1.8619907148267926811 0.13062739837307640878 1.0330538923361749504 -0.33627594167401370084 -1.4157646339147662573 -0.57186632446930241169 -0.17630409698461277368 -1.1145766480728154235 -0.6888947583335127689 -0.16852936787976394162 0.35601046321147494789 0.031366847702336941861 0.29530325684998631752 0.1102851059025155428 0.92817288329591263185 1.4694311342202750481 -0.67907969625120256918 -0.56465094677653138167 -1.2155044763272484509 -0.61074574633877443119 1.3443519213911669929 0.33467214029350778048 0.45654164235572752828 0.39178383217035972486 -1.1675182829770975879 0.85562624089077932155 0.623997506163234128 0.024350116192887370781 0.41273561483544207729 -0.24701979386236591618 -0.95249261995004086412 -0.30162902760907928101 0.085270482374426859185 -1.7126488187646187189 -2.1430222856103329221 1.3274777087989080293;0.83980775587200640064 -1.9461490073277813995 -0.2470627935032933542 -1.1742860309121521123 -0.37596140920424592213 -0.003246263038693722805 1.8021661223237250837 0.7750536054022689747 -2.2629550179392716736 -0.75909102321329902097 -0.047756916905289825692 -1.0086052470694726324 1.2565611345704685853 0.28136399414896806626 -0.88790558819415754677 -0.77512707182618001411 1.3418161987527719159 -0.43366476092484512739 0.68645160614055078518 1.0147858596062837577 -0.3804672938869050336 1.4142664329542578017 -1.3174086209709525708 0.20653553315180092631 0.68696441012788056479 -0.86257518738686167481 -1.384819221175763504 -1.0365084874074665944 -0.34814544136509251171 -0.40289023257734507544 -0.15866271147258961816 0.38925849261877754071 0.0063907641656288519463 1.5836320960631251609 1.1155712822727215094 -0.13600801550941260532 0.39898651090941811281 -0.48398431426480048589 -1.0905219836507322739 0.48826118798773388008;-0.81952978041984236857 -0.52397116516277508769 -0.95655903671448028192 -1.3569444235641721086 1.3875051096287822627 0.44497367664725301362 -0.81523993329167332433 0.71540735704820834773 1.5888736149856974578 -0.94374699748402246513 0.44935485173519745805 0.30415490783088056093 -1.0573257615227598105 0.52616264725005645886 0.73759603988706268218 0.21069029326381541467 -0.49326914886502765123 -0.26377124087680753339 -1.7998312467746588883 -1.03244709467166218 -0.2913652504456204495 -1.4954728056089847676 0.77059983327911463213 -1.1116118979013183132 1.2726564420798396338 0.30998978472101673676 2.134910393460289324 -0.39439075751173147122 1.01397098476872638 0.076590035003254133827 -0.56256729350698830849 -0.63309014716598976946 0.62979923813424254497 -1.1880591422485589082 -0.79723182335126963061 -0.72043130922506559699 -1.0767184279448076545 -0.72936186733788632708 1.3967622628631366499 -1.9174735346655265023;0.39261057899001539084 0.029933773511440078113 -0.37528329933977649935 -1.2889813331803965379 -1.5906255245878551108 0.15864514791164088803 -1.5257263457598244649 -0.18721725960404655975 -0.90375327861839283017 -0.94317962115930964462 0.92711666820103277864 1.3612149928830783452 0.033317850655368970447 -1.083607162323113382 -0.14903494044884132985 -1.1863715303456370265 0.40472032154732068276 -0.43807028138777698301 2.0389813558278953032 0.48122783944502300901 -0.6235873302237009419 -0.58804448375943474403 -0.26036596621265606366 0.76884301005009059171 -0.60855519300819926887 -0.49346491070670711609 0.32147579882358734427 -0.36466265441288048255 -0.016188893256297853807 1.2371500093930294373 -1.5824905674617313345 -0.71468996787157779149 -0.65106667873522361401 -0.34157545592380161859 0.60010540074886364881 -0.14493057266574826958 0.1057820069981600386 0.38192972410710529507 0.83325594001842628877 0.054600240976765281042];

% ===== SIMULATION ========

% Dimensions
Q = size(x1,1); % samples

% Input 1
x1 = x1';
xp1 = removeconstantrows_apply(x1,x1_step1);
xp1 = mapminmax_apply(xp1,x1_step2);

% Layer 1
a1 = tansig_apply(repmat(b1,1,Q) + IW1_1*xp1);

% Layer 2
a2 = softmax_apply(repmat(b2,1,Q) + LW2_1*a1);

% Output 1
y1 = a2;
y1 = y1';
end

% ===== MODULE FUNCTIONS ========

% Map Minimum and Maximum Input Processing Function
function y = mapminmax_apply(x,settings)
y = bsxfun(@minus,x,settings.xoffset);
y = bsxfun(@times,y,settings.gain);
y = bsxfun(@plus,y,settings.ymin);
end

% Remove Constants Input Processing Function
function y = removeconstantrows_apply(x,settings)
y = x(settings.keep,:);
end

% Competitive Soft Transfer Function
function a = softmax_apply(n,~)
if isa(n,'gpuArray')
    a = iSoftmaxApplyGPU(n);
else
    a = iSoftmaxApplyCPU(n);
end
end
function a = iSoftmaxApplyCPU(n)
nmax = max(n,[],1);
n = bsxfun(@minus,n,nmax);
numerator = exp(n);
denominator = sum(numerator,1);
denominator(denominator == 0) = 1;
a = bsxfun(@rdivide,numerator,denominator);
end
function a = iSoftmaxApplyGPU(n)
nmax = max(n,[],1);
numerator = arrayfun(@iSoftmaxApplyGPUHelper1,n,nmax);
denominator = sum(numerator,1);
a = arrayfun(@iSoftmaxApplyGPUHelper2,numerator,denominator);
end
function numerator = iSoftmaxApplyGPUHelper1(n,nmax)
numerator = exp(n - nmax);
end
function a = iSoftmaxApplyGPUHelper2(numerator,denominator)
if (denominator == 0)
    a = numerator;
else
    a = numerator ./ denominator;
end
end

% Sigmoid Symmetric Transfer Function
function a = tansig_apply(n,~)
a = 2 ./ (1 + exp(-2*n)) - 1;
end
