function [y1] = subject_104_5(x1)
%MYNEURALNETWORKFUNCTION neural network simulation function.
%
% Auto-generated by MATLAB, 28-Nov-2022 23:44:25.
%
% [y1] = myNeuralNetworkFunction(x1) takes these arguments:
%   x = Qx104 matrix, input #1
% and returns:
%   y = Qx6 matrix, output #1
% where Q is the number of samples.

%#ok<*RPMT0>

% ===== NEURAL NETWORK CONSTANTS =====

% Input 1
x1_step1.keep = [1 6 7 8 9 10 11 12 13 14 19 20 21 22 23 24 25 26 27 32 33 34 35 36 37 38 39 40 45 46 47 48 49 50 51 52 53 58 59 60 61 62 63 64 65 66 71 72 73 74 75 76 77 78 79 84 85 86 87 88 89 90 91 92 97 98 99 100 101 102 103 104];
x1_step2.xoffset = [46.142678;0.155381673361038;0.0322491982268484;0.407030999756587;0.177704281988927;9.47364355116;0.0985949632107022;5.91738503146701;0.140679015455475;19.7913097778597;0.240331765539652;0.0128853940661603;0.300452723291878;0.0832048762445252;2.07691542926002;0.0986251000672275;5.37331914876223;0.134055835578749;12.0020202931022;0.594282863339132;0.0152234916874643;0.342418642828735;0.0502770400721775;0.758334227525804;0.0296944334548208;0.43078261039034;0.037957140518691;6.56148588763352;0.993567273771605;0.0412287452795994;0.297675743023799;0.0261489594326266;0.205130423822745;0.00759092210375632;0.0256023103541543;0.00925345643713531;46.350319;0.0178474334400028;0.0295819811581609;0.387262238161641;0.184300123477776;10.189960654177;0.112865408026756;6.097197800077;0.142800440778539;21.3956017243867;0.00587632939175145;0.115523958147309;0.295611598099665;0.0849668160429773;2.16580794854434;0.112728771567034;5.65848455624241;0.137567065508124;9.57826903507353;0.135036607285262;0.129165540060356;0.363335807798603;0.0398101132510872;0.475453535119316;0.0243399841262414;0.289109220110052;0.0310953448058627;6.68881200698618;0.441917254205313;0.0650279764162889;0.289316317413262;0.0290883249244571;0.253839194073238;0.00735972996615335;0.0263487852132908;0.00938738661551765];
x1_step2.gain = [0.0160958217749573;1.09000580267698;0.689358165670678;1.09729749703934;3.00619468348499;0.00981741403321055;2.8740627929949;0.00496820070233555;1.94525392482023;0.0133126322497323;1.04270159300522;0.493043374661269;1.48421065640402;2.9615399615959;0.0117279317055961;2.82520396741182;0.00543271971349456;2.03329789876055;0.0220315545160894;0.999113985783162;0.561572777463447;1.84655849494705;4.39507680223613;0.0263679384939785;9.00651872777799;0.0563676234304081;6.48071014456418;0.0299465685015482;0.921158278628744;0.644544396337628;2.24224811498562;6.83182009554764;0.0659991860022238;28.5427025920371;0.645026770016163;21.5054755058106;0.00720855800005767;1.04145252663245;0.582697957937943;1.93280739440303;1.4947979657693;0.00291968631522883;1.35208834216023;0.00153544750090583;1.02602588513188;0.00706938639752348;0.936561723783734;0.640593834311707;3.06659512964738;1.69448152188877;0.00418317472205827;1.38866758967892;0.00173672650174422;1.09303549949919;0.0105770925854612;0.750838238774514;0.572816882116052;3.39637225868039;2.45242726144237;0.00913239094382478;4.14744943191229;0.0163609652794611;3.28372866364258;0.0146390940279743;0.759648492885586;0.541444871542115;3.30189993061808;3.48550306797271;0.0183839811677923;14.1759732902186;0.184949253569522;11.0485624392861];
x1_step2.ymin = -1;

% Layer 1
b1 = [-1.5594224856816334412;1.50498642065167898;-1.3242791497148018731;1.1794680261842676039;-1.0656624255795379419;1.0236166059632378911;0.66044767571836870967;0.81361091689181119779;0.86006524226340685946;-0.60514334487078824676;-0.55540479673276155204;-0.23508265370495995406;0.35791375144508380535;0.37289790127920646734;0.1607775498530064906;-0.0045515180097350296795;0.11714937466439578895;-0.014942987518831404511;0.24507838959356254005;-0.32607920290977421285;-0.48347063912965004828;0.41534745818450174992;-0.69557241538308878237;-0.70977365132668301939;0.73551493899445330449;0.85614866479000095723;-0.89960812296421455159;1.1629388183590698702;1.0664625712231183829;-1.2972064735771993149;-1.4199138152037853455;-1.4651630940845197237];
IW1_1 = [-0.24702207573397150231 0.36535432198086043032 0.1320874119054588347 0.22803429674057093535 0.089384875204964825413 -0.091928676675688159037 -0.14295784208975481633 0.18559206441882628025 -0.28652656462570080809 -0.14957784504050314345 0.091942314730097715603 -0.032956051658804483284 0.14029364824945739221 -0.39839241608987790988 -0.29497679169298085533 -0.33552980180950653377 -0.1202375716730146038 -0.2640771873853088314 -0.21415019643936006322 -0.047978858224807754973 0.15447128081289726587 0.082403589995102943799 -0.0075575673319332467917 -0.25415254070504644801 -0.026267600586337629814 0.080337279759956928271 -0.38496731283459750816 -0.39494171475155320783 0.039428400234648261491 -0.10524005994340061843 -0.074828090178559486523 0.074536172445974810397 -0.28530474353608947791 -0.4417307833416071472 -0.19453642886751784657 -0.11715435797490754422 0.080938845452474289521 0.22380595739201011862 -0.10030939537019500918 -0.17879996291131006192 -0.15370403029232632131 0.069899371584354996756 -0.17400064772446141581 0.20076882214817354244 -0.047066499190352328874 -0.1088958167018652945 -0.23992382465091927068 0.12569923594501727915 0.17304574926763802156 -0.064698229079223804061 -0.0070009781213190847016 0.33355050953693526905 -0.013309131285472562342 -0.074393107594366750246 -0.19011924717509104399 -0.13745904240445427913 0.011164153965149428704 -0.086284766489479775009 -0.12153988868464780937 -0.1361834022909145514 -0.26841858167116261491 -0.094198231757786216045 0.19493971612652069569 0.32893277924868319362 -0.24170116529002932948 -0.073426441468372988242 0.33386856663764602482 -0.14862656144940894487 -0.2323193855782230699 0.10703965000873265356 -0.085490479888713777346 -0.15517210407990386645;0.21833064544787050831 -0.082382054793671097292 -0.085738311167903424881 -0.28609057765102952064 -0.062085918951801384591 0.054257604562158848194 0.08984337648164894552 0.3658672616755878626 0.31257431133520685584 0.3965813653387404436 -0.071156336435887590497 0.2151755564935105558 -0.070229947734428477268 -0.02970038189583903282 0.32349821611034579316 0.52330640980302756127 0.22094630563190914563 -0.055482444991976839765 0.32781084642329677559 -0.36407478183577191011 -0.15716798033849949112 -0.46708268724042573128 0.23775735618734578081 0.21897990691518548489 0.2486444413160539546 -0.061289485108209876274 0.26587809284722219161 0.091382552420836787865 -0.084886360440699901164 -0.1869222596959801419 -0.27149811531563794453 0.064378785976738767127 0.11950066309485521399 0.161735250503417749 -0.11791700204384669703 0.11669324587361674939 -0.13536832582885219289 0.097817089077270394371 0.040454007263230021274 0.29549685718026946768 -0.10448239515525400978 0.083501394822989793987 -0.0048489044022047090091 0.049990945032430345041 -0.23053450605441033749 0.062423171828686847828 -0.077324226269741044848 -0.088026763424112502987 -0.047893241110221487777 0.044401584040642871898 0.0272854471459305567 0.25063129157076330378 0.022203479422381891539 0.12779558471538857156 0.27336578579953851875 0.11088261564587204022 0.13334956751836626876 0.31641999645926460749 -0.1427825028819485198 0.087143981163990358318 -0.16018088082127535099 -0.2884893722350695966 0.14597756196870975698 0.26013903640729474365 0.0018871310318016275287 -0.20824316062969544516 0.14023978611531437433 0.27178722284388912023 -0.018204467675131785764 -0.14416872935306829229 -0.26809167327642330347 -0.13233033388198098268;0.094851149352791638836 0.034524615553989140837 0.18658690889418894088 0.031680294355818892915 -0.051728553439929866875 0.13504832307582181894 -0.28656033031640015807 -0.17047847155344184045 0.091079816608389832511 0.24167851980280599666 0.36416329125162993918 0.0097654353365410773852 0.2718322549044003833 0.050619943581270983313 0.13080608575807911587 0.10115745289519585681 0.13905639116447390813 -0.10526040117120630257 0.1485376104825395227 -0.0091446205811923607365 0.201104730066681614 0.073637658479610082485 0.17815391504590963323 0.028140485673218994245 0.04138652795953675495 -0.18048636616258728615 0.12638076434355163813 0.20349007134193397572 0.2145521449912495271 -0.3032797037560984732 0.05688995084593701651 0.086143711190760807739 -0.13701298999441163806 0.015626108362173873889 -0.038555105887463414494 -0.087383272052802093977 -0.24412398373498248039 0.13141611798400409938 -0.015215619523640897676 -0.12693490488651590353 0.019153306508713312944 -0.099595503756602560275 -0.25415380957561573005 0.04110757386732683677 -0.058223295507417560657 -0.026985324309128790043 0.25004352905387883244 -0.037509592309902382856 -0.12597510993067118079 0.18233823413391786472 0.23602189139191864786 -0.18045929544504063502 -0.076021622428794191628 -0.24129279446446053048 -0.03902806954035484277 0.12863157100632366392 0.24160752210405689322 -0.12465008063984821252 0.27033420539732805343 -0.13610164312331637926 -0.21378827242216055793 0.29789721002589175658 -0.21057203927682879852 -0.24644861475862200884 -0.28868692059106243475 0.26887553720612056285 0.26860456883113509319 -0.11943213668744646905 -0.08439352075196457359 -0.047501214488705610639 0.21859994331725782213 0.22939612160539515906;-0.33244280357847633134 0.035784683509981200789 0.095948376980745347931 0.026266769008062455792 -0.24693534184382981422 -0.035441039016004385886 -0.19036697157238416378 -0.045691472481599736122 -0.27017977045715335649 0.069698838068836421744 -0.2362238494139332623 0.10952132655780648374 0.054700965980793964105 0.18294576080475261071 -0.019217944778605770828 -0.28543140029647245948 -0.059810145277491767735 -0.28691231453414067776 0.095927239316683246551 -0.096613715965242763506 -0.15705329029892656223 -0.051972095596604372947 0.086719417137572890608 -0.15812476558168567231 -0.29188802126918844682 -0.26667015615834055442 0.11041524129137439414 -0.30673143410496095385 -0.18202315208090624754 0.23506685359796380963 0.20402341200355866846 -0.010139025679415811232 0.24401566200405405693 0.080872682753930155708 -0.21405948319868367546 -0.028560492074198529089 0.41294865058957030968 -0.49909855483660314768 0.33649855851072330015 -0.44279499330392452228 -0.019573038817943866352 0.26365239637640303094 -0.0072575673468948768974 -0.032062290417230132622 0.27447119602321895515 0.061841325544421496541 -0.71954326169302151861 -0.10808643973038194186 -0.53484370169906281234 0.34402770842478919144 0.20821700815394592055 0.54612566379216176404 -0.017231098080708349973 0.47152077435504646807 0.39420451686425367344 -0.38295060715719264621 -0.16025912653039792177 -0.37030810630239929804 0.27691461336814277017 -0.20439688572473183048 -0.051139565218557732351 0.084361182023198158508 0.078551984165599539334 0.0052900113962374350693 -0.57788689727718134392 -0.15325913718084926973 0.0081312369326145168824 -0.13460892015482744943 0.074453754600117771911 0.30017591750510508319 0.0056842347495888855685 0.035419736695501122248;0.19147752848822910399 -0.11965876000902053722 0.17070508924168406595 0.18692567942099888589 0.11810949513299129343 0.031192620895865583869 -0.14740605553291835639 0.1950903782756432947 0.25054115957960182426 0.012651870457944094928 0.059765099174315605701 0.24621299219341963305 -0.07308949359476984986 0.010220850749880897035 -0.10106178922587107094 -0.17519398700384847256 -0.17978218207044005528 0.062644346415134069539 -0.21849570782397020885 -0.0088132743139852660202 -0.27590178105077484139 0.23244208448703840286 -0.21765052604733012287 0.2088319100760833158 0.057742940171529054394 -0.27383828447201280509 0.23820406461444348922 -0.21785818625857203412 -0.18504010892086475426 -0.11732294756421335347 0.001993635599072507425 0.20201358570781072221 -0.21133995332917041021 0.007548712408518901823 0.11744205220078660079 0.017853672998631203023 -0.005472793456056470468 0.13570542224231502137 -0.30646225662495812925 -0.25843459833452109287 -0.20682143888284854061 -0.25250375440755340462 0.23918843154770361159 -0.17714146074941633513 0.23204925014683266959 0.18418241830730089359 0.086727465453157903674 0.21711056630306871384 -0.11627751851964829299 0.26949410117163613565 0.028508839089106268599 -0.053478433506085373828 0.073915721321115956943 0.1418766734945333674 -0.15680381042948840498 0.10632332181115884684 0.28440410227268997367 -0.029580855289482128889 0.19706574364732099003 0.19063107685320393458 0.18570146848972965414 0.12309514927567150044 -0.17981370004235008864 -0.074586504478039716837 -0.047176820258609308834 -0.21162202535230553724 0.24916365408240537249 0.20347086847755979644 -0.01563185782492418352 0.28995677961070587259 -0.014492295004337348713 0.16696240635481829351;0.11509599817024357415 0.07379126044794045991 0.14980696690333336618 0.18038582833476288214 0.36532846833784482499 -0.090239418066676554964 0.18541408607044521095 -0.041599982696473608579 -0.00068625193284061955512 0.36264782073814821883 -0.32627884267107831739 -0.17634221632761334919 0.23197496766015382463 0.22625785683707783091 -0.17384024793057920033 -0.059562678534368106165 0.029487182385527450912 0.096351071061133497508 -0.11805613592009715773 -0.19974595754036922335 0.084515482271991668184 -0.022666332871419274386 0.31940319507174291802 0.16955732057938141533 0.047559872293281520161 0.35834165919381288923 0.032078664374352451605 0.15244878871702433054 0.1243488564666496432 0.12645427820636681582 -0.23283447810508836606 -0.07930679282171149147 -0.25902001176476241451 0.11631381277045974021 0.27461263599379553968 -0.24514135738825779121 -0.13217715564267631945 -0.29920376743029325484 0.047799852914732356146 -0.18855805595899363669 -0.27744842237121608575 -0.11421885743379983635 -0.066694468310080523565 -0.056525900228153680427 -0.29919768961780029981 -0.17532881407128023121 0.16280093792910019235 0.20500930263793168407 -0.25279809850599571641 -0.090448238467414524 0.090542009033078948987 -0.048947209988214432363 0.0040426260918452498402 -0.25008480425425777538 0.24234640313589045357 -0.35050745234524416372 -0.034040221944417241307 0.1720914155010038471 0.1258938564389661674 0.072254815306679195941 0.16341244281494266 0.18612792434734001801 0.023333758576456500172 0.22655718571066096878 -0.12615577344738621024 0.13410767235844442413 -0.093947614362225942419 0.23791040429007787038 -0.046679110216587348103 0.085226751916134629861 -0.14285397619446552064 -0.015203635090045557882;-0.34311454967691173978 0.058566533836238013344 -0.25301854796265210723 0.31672697810445227251 0.1809844579336149506 -0.045259994886307990114 -0.19634478718091788463 -0.048729268118297051904 -0.30223911255741470194 0.14289342700463375513 0.4234657827225818405 -0.078771149689107339276 0.17465760400423444021 -0.12184792661302495942 -0.15800608579116526275 -0.37582485879138766149 -0.12022991017460332719 -0.30535791184160882006 -0.30341276688760893121 0.21780158248732600645 0.24430699248792892009 0.42385652550381425208 -0.028120456703562463768 -0.096274346775277852561 -0.11451709085145955758 0.13833086243379705271 0.092405699909900176903 0.14112440037598958376 0.23456099350958936611 -0.087158297718621949302 0.28868609738655365282 -0.27612572609633628806 -0.14659558463250946247 -0.054799851683144211456 0.12899529905932438645 -0.1850664811928142417 0.25222064243293756958 -0.011406349859653198975 0.14415602132526361689 0.13369655188262200007 -0.089993948640680901385 0.25962898977356696495 0.23620327751729655597 0.2523253001295406861 0.22901778322014684774 -0.20697541626607307563 -0.020873563949152854763 0.17786142075953603747 0.11458489419641136597 -0.19237383067713076379 0.062411639272154019464 -0.12505317819428252157 -0.039556862404163145586 -0.2744783971467389394 -0.075313318861721628705 0.34983988903181245655 -0.070661277962592666801 -0.14649805141367153172 -0.093648623325481142321 0.23030785020628727344 0.31230566070464899076 0.14220316525957252263 0.11313458645228194333 0.2941595626284684295 0.37253456693380065934 0.1880715086367919231 0.066123698223126164963 -0.2220982753088928674 -0.071440283916384614282 0.16246290616712083521 0.11273882446512800692 -0.20952697180150345324;0.15097066543026435581 0.040015812676831706562 -0.14541155136903458067 -0.31424542772974251026 0.060069674885212948068 0.10263284734041980273 0.26859521792267859741 0.30047377071253189573 -0.075910979353334046005 -0.09056089372068021337 -0.3394278096771938813 0.051536585108850008208 -0.46602490858927014816 0.25949104958164997958 0.15663340398199684933 0.025624282372996541601 0.00028545686285947669859 0.023588239880189140751 0.2170598817201044306 0.11552641398970261988 0.24243114069532892274 -0.40191076881087511863 -0.15979959628809234373 0.0028930723275783641786 0.028688300513952491588 0.29399221088697041759 0.099704665854325857932 0.31014918778306044267 0.12180943447738924734 0.059615969515839598025 0.034946859909051865289 0.37643090442731585998 0.30162536637924164395 0.17135498126310619305 0.21509252901360056964 0.13077204056389124531 -0.039946008100507440775 0.009158070517871175556 -0.23846003285814476591 0.17005107238247291201 0.093057978813759739678 -0.1789532939519560828 0.24160839210443565972 0.16651887244393495657 0.18020177783753915657 -0.025831825381525085061 0.35000904246762970518 -0.10143042603818958058 0.061392190168814392282 -0.25091662383797280755 0.15020664408491041231 -0.30244702493141623068 0.088826660747528152218 -0.26852569830192840605 0.2793240957128220181 0.021561539138509975416 0.020525315979803289423 0.10701900520961113439 -0.012806337629487397206 0.27620830691067749241 -0.23252583430650952678 0.32347693936587007535 0.20151585471617647349 -0.098759931522107477497 0.048013689450736106445 -0.14664481495198514183 0.2773091874556876113 -0.090917470892297819196 -0.21304911807804891022 0.25162269911126911026 -0.16869239491720022794 -0.025888151046217028339;-0.15957270761241787449 -0.097037061931691648287 -0.10760847160774680842 -0.0049035600950479664092 -0.13030795568738692825 -0.36378753303761324212 -0.021840921490252872272 -0.28101344659646282365 -0.078530394839439091048 0.17774241726042219747 -0.28206130198430223732 -0.018755469164497738654 -0.13131540217011208882 -0.27855996741462657473 0.098545781763882844828 -0.033734167814998300416 -0.085111655959796000959 0.1054309546149925364 0.17549876474382186675 0.17408781088003050241 0.18891328489141664959 -0.058214116709214405732 0.1567757092539619479 -0.28981109569396923398 -0.11369756009934858798 -0.17727159963418248623 -0.058338175825173498035 0.004659920613791305663 -0.23677544892917301578 -0.18974915950306395218 0.19667580728033992599 0.17906562551329191502 -0.35454422038836125308 -0.090127786928788949927 -0.34428532157382135681 -0.29895047156696935575 0.31080950978024257658 -0.72051897191186453639 -0.50259430310635944128 0.74786774513515286156 0.34367660445052411466 -0.13629701315510409088 0.40517146555077110381 0.20742330779186077261 0.34500810614115395847 0.10130287165605206257 -0.54220956760359240167 -0.22721038425697828722 0.12442217283272538619 0.40017973928620992341 -0.17562473195344618926 0.12732441760571169831 0.091939608640847200749 0.020306842388644892605 0.44973479331907262324 -0.32414261534414517962 -0.033577969348061002808 -0.07964819435360705191 0.47511204659889483271 -0.0095432970270825177167 -0.014315750470790518031 -0.27876484086376962512 0.13169370322415663299 0.14073774393176130548 -0.8372860049747073985 0.19681047399630532957 0.18287393904804669087 0.2695767174106653008 0.049907428641084612686 0.023758016756593315633 0.23545183224629731567 0.25380809607070586864;0.10350219020542776593 0.29476693825954281003 -0.15447291398654888761 -0.12322161898207850683 0.18911886976739264443 0.17228307456784122675 0.12692942507468021884 0.061920621704882716774 -0.12635615402344033131 -0.14736821720905335376 0.22671078352872425787 -0.077098395148125317689 0.19829096866851075864 -0.31990938777395078185 0.22758394196430858925 -0.0080482326884735201633 -0.126265067420802235 -0.038230895750808999156 0.25185907428706327815 -0.1369380218383863812 -0.074163127208536114288 0.076013360901058646402 -0.1468841657713183535 -0.1694513572599073703 -0.26313931745414159691 0.12293087399466529064 0.051482920331146493631 0.11855898965079876561 -0.18508743934589819147 0.081473652855418188246 0.036316454770157755028 -0.24058587881869050729 0.26368995585926807701 0.062724041011869291484 0.12114792704680700519 0.086960278158040124619 -0.029191647612670464096 0.44084618789687707308 -0.47818357973706121511 -0.092513811675766666198 -0.19515393908018252578 -0.14050632663715026394 -0.21370315167347220253 0.22620017068457534681 -0.28419620835366021794 -0.071192013129615178135 0.33752776357510516636 -0.11848464325762605998 -0.11333103624763968265 -0.010198100140787823981 0.23848765631324364556 -0.17925254343766999776 -0.30331683547690946323 0.16513842959361546558 0.13817635962973257024 -0.19449893440489665619 0.13983740866144678261 0.34978777641782177188 -0.021489173359598521401 -0.22344726213502613676 0.109633539989748785 -0.16033481502005614283 -0.32713665881402487212 -0.011964650051578274922 -0.045413964469779806443 0.2075589137280144103 0.18073786500549968159 -0.0374005077506892325 -0.071285864982996896555 0.026325534620533008051 -0.081233548636558336464 0.045876711629715363761;0.13421834092068732347 0.0051230071324954370993 -0.249615565732250827 -0.29089207857745585928 0.28611120417698598928 0.091502337587154314313 -0.063460229191564174189 0.12174001329093173118 -0.084911231208496640299 0.13879124067151935029 -0.0085403563261094023185 0.26807560145993131195 -0.072119194894856325506 0.19735513204945137611 0.061619829048700697216 -0.13442926740150989984 -0.064873704621645683632 0.14918733148727819637 -0.24689101939189447843 -0.021854407552162662121 0.098185236930878327932 0.2200781645451367341 0.13160488415578475152 -0.16351008033955385934 -0.11420174283224104883 0.11020743811155303549 0.0019504051714266095602 0.2700306566878499237 0.20662186716089608884 0.028815832479457501036 0.13055015255543347963 -0.087244966410687518898 -0.089750446295722513534 -0.27975372538565979053 -0.27203305893064955168 -0.2808047320480248632 0.18137195324853783163 -0.21338093648597850072 0.10862582747673769912 -0.023107933859484355854 0.26849334058361545852 0.072532068181282716157 0.13826578967109701135 -0.17739320950325912496 0.19693942948852821706 0.032261079857848554142 -0.21849535078214252226 0.2499920049196433236 -0.38586599971015178578 -0.22805218510862459991 0.12281056101462789476 0.19819051544411092625 0.079689702488192834529 -0.12255093623414993476 -0.32195878312282849576 0.14193917171485162521 0.088196480995059098329 0.028552110820684158121 0.054039040747253179464 0.12238304552509123024 0.042207543547874391832 -0.25225939437725586334 -0.23375514163327301698 -0.21171672330875862533 -0.22708681607657893453 0.27683623081192537674 0.29140000430304979773 -0.26501555062041720623 0.25405091110813554645 -0.050542162657941772097 0.17715789586367691744 0.086287487508126051172;0.34381232505780601194 -0.10064554212157375557 0.10117230865267409778 -0.79023938404199356444 -0.079905688503741287287 0.10769488685151458462 0.012123863567484925718 -0.3306573706944768154 -0.07159518389184768572 0.13057699844672127076 -0.16439825516315911824 -0.16542961408321921191 -0.27986587212281616166 -0.18333333624973224829 0.1438294602761473473 -0.036321030611786021824 0.22043986769590917518 0.087447221805718233778 0.19062573574981858671 -0.21929387219467239012 0.076167049592028385208 -0.045843773768944759417 -0.13490616770540619918 -0.31861248844553025084 -0.040976969885161904084 -0.38874757283964184174 -0.19551176403537376403 -0.0042769269156419324057 0.013675900156261192736 0.11616758361264840904 -0.33640763168222947987 0.18320931978358662162 0.11181717584058929738 -0.24976911327415224351 0.12399449418590777205 -0.26786927062524934495 0.095708301391499689403 -0.49506692943525448802 0.30110934356243812537 0.022909976011429640519 -0.0027838110919077112271 -0.11977423628517779031 0.3465409448010111082 -0.023047830433564682473 0.24333525593931040754 0.11192406519752956529 -0.10470760115250388189 0.035808471897474866696 -0.22299448970605464937 0.34333208407056520217 0.083598128210180339126 0.23759234442117846409 -0.060022311845891400395 -0.068059527942612885187 0.11342150402214457028 -0.30459012006166691355 -0.074666316473674027021 -0.091485381814392890965 0.032048086531059352677 -0.10857607036480704243 0.12641969398727118112 -0.1004315963352518104 -0.23000136616034727588 0.2528117486017700255 -0.030205437120432835491 -0.012562504218760643659 0.075279008538608249701 0.32534401049684757989 0.16949003101876478072 0.23761247628744333604 -0.15357431897955584055 0.23385747891648883678;0.092264258486858236052 -0.040932126239885791019 -0.079217970402121848372 0.17527199362467238419 0.45380534972876312994 0.023837754786828035947 0.21367131995983307258 -0.10852643800498264215 -0.11153798522229124712 0.089163632993947472549 -0.05512317225376605484 -0.23715676538656288441 0.12450635851582239622 0.36755753442198979553 0.26138418548369274363 0.12530642119898816045 0.17322137392554939894 0.080676188625823763712 0.42051799357221270048 0.063132846173962059444 -0.13614852648465797236 -0.058815228105308273165 0.24127633817796692584 0.033157148863909219338 0.038966349405958007612 0.065389970920582171643 0.17511148903991363701 -0.0029434295951340280068 -0.37490011293742775411 0.25961828499906919321 0.22023226608207091548 -0.051406904308844841855 0.1305238024017939813 0.28184661145117684278 0.27536067767931721173 0.32519329054526963096 -0.15112449892193086098 -0.085247135201760138035 0.19162057025990383852 -0.10459503197952714493 0.3303562384925980977 -0.07233818765328400846 0.3190090372028193122 -0.092205043342531739503 0.046289344951097224912 -0.17556152926562318406 -0.10496215162952816924 -0.11352590862932390725 -0.046358155329297379144 0.31078357735213890667 -0.23525515481649106331 -0.1218574635044837734 -0.1490273424224395904 -0.080133066586788745389 0.10081914387780309406 -0.25820205802473678025 0.16655053481298484619 -0.0075024735555352332211 0.35514061477603220407 0.16811984594574616581 0.10366373558205170535 -0.09500937481929332129 -0.18798218118782109021 0.21405000634157345107 -0.14697903691303870755 -0.042849788696647538033 0.22896229098179157746 0.036218090634770404301 -0.17396418814130587549 -0.11628741966585977308 -0.29174761710034768925 0.23843772790804926287;-0.33424865709447654227 0.014716740789250597893 -0.066853032985852531289 -0.42796925233914123732 0.14125002065861400058 -0.13937097717148505538 -0.3101337360084761019 -0.37820987545142314978 -0.0084040280668864330432 -0.34635339951075289067 -0.14913069199601286519 -0.18521540870921820998 0.043203829619313655064 -0.14951244084342910079 -0.39157391911665517803 0.046851664218892127844 -0.10362686487213959574 -0.21396795058426681946 -0.16752743513316065149 0.22957963951473173148 -0.062313249192072893423 -0.18834527480600279925 -0.21862777824241586 -0.16020253388413652207 -0.083569165561732466907 0.069684274442127505655 0.10477647227862113555 0.040557943514322590539 -0.13205903234711857674 -0.22187420493026888124 0.14698817985850520795 0.091074250104555748431 0.066274520370086603682 0.00099452740119770812605 -0.0095359001433609688614 -0.1305997805892679664 -0.039197343764878385397 0.20415319153985655998 -0.090391401872302018505 0.27012499914177634519 -0.21905061048134283341 -0.18211527156189807886 0.21042006338060581516 0.2206746385062640925 0.29485474258263294489 -0.15885897121682779343 -0.13023091578579917837 -0.06755766663477613676 -0.2101619941386293211 0.040238775370157076061 0.1327594515757735405 0.25426822196347492744 -0.1903574073978961112 0.23002794547630370237 0.079640630173812829162 -0.18854030819421077614 -0.19931950807125864422 -0.12157787716524157129 0.040585424963267321963 0.17888652542449462457 0.18912449010877033229 0.1501934010331909819 0.13748633670651674854 -0.072447527413940851493 0.14605559626540556839 -0.068862660595025548815 -0.33111226183076869489 -0.10357094602234154235 0.30896933013700367265 0.28188554200651605441 -0.087700167926548985853 0.26961579991365941522;-0.099642504213095520194 0.089739838246775921471 0.021297064146842795834 -0.35652762756872696803 0.31514599445940161271 0.29424055942828269972 0.38348195042313232284 0.20798077155230310087 0.26325945610100315308 0.42357330912818808022 -0.42034232548905187121 -0.048004907655101805575 -0.31488318410081311827 0.045174882447161876509 0.065227872810364295741 0.1736001420542404583 -0.050260298540014125557 0.16768967965011882804 0.074305843402827073674 -0.062149118496297277303 -0.21015489122501518349 0.041178920229944689091 0.23021032258878718069 -0.0068695127999926480084 0.17868773546566268928 -0.25815173408820057954 0.073117093766152482792 -0.025030810668018883824 -0.17082217501145141592 0.14953780812759703833 -0.29603826256045534526 -0.2526998620375606186 -0.27069402980786066992 -0.092166718438488934306 0.13461963837159959811 0.27279677328415857795 0.17240606298960292619 0.016540556332708469811 0.40096053905239703585 -0.40829686740648252208 0.23654447219804533575 0.13449232115195922099 0.18231030009688792282 0.15932215778704605924 -0.25845085511264742628 -0.041714618400446018542 0.082128738882794788401 -0.40566439726852615566 -0.11840896125028796404 -0.27740242549621269008 -0.041180703299627231806 0.006765991329324230058 0.1438567498709438508 -0.21234465350807363304 -0.34202242990672898637 0.33342077923112006799 -0.008192673013302505941 -0.14344859823755670702 -0.1645580709140438691 -0.26167791976372928309 -0.1871091090187836925 -0.054042535343751162136 -0.073674931376226326929 -0.054321601750971740263 0.46649464136870610886 0.25713718582909161903 0.24269227106004206962 -0.25281016328719729813 -0.16819067371198223593 -0.34081259681833164787 0.18659088426888079115 -0.24655650672835785486;0.035958419590048230907 0.042952314411172400066 -0.26939181181876775684 -0.42396566750709868687 -0.048876582321773741346 0.047458380623310668367 -0.048492000666343085258 -0.054505609495369734818 -0.1015144815257993105 0.23086952547302078131 -0.23822706755654501909 0.1917475319596099459 -0.51342480245373200987 0.10551363192329171747 -0.32317835096982283627 0.30687182852880823258 0.26203329474947056887 -0.058345840899849128747 -0.299421163762249809 -0.15185185067357159783 -0.10017942046094288622 -0.34813758544698775177 0.13129697598284978399 0.13074994742163012496 0.14870273708063330709 0.11018913757437748258 -0.20648189220997636983 -0.1397999880854266519 -0.20916186014398283066 -0.32729049639941276695 -0.32288271168658366772 -0.090588412275096674708 0.11507161800577746236 0.013913942133518146516 -0.041599167316801688443 0.14237665568738483435 0.23200005419014496644 -0.10616919521650632074 -0.062018402169348361974 -0.060122719298687891942 0.25965115108671243949 0.22122409833038925164 0.38686942574437321873 0.18259483696228881455 0.096703752297845696484 0.068449971852937677164 -0.22843571872540630041 -0.54500786736991491122 -0.23372607971552514239 0.40568182031504773644 -0.10726234576049850644 0.079609900031782365737 0.17268542389136015691 0.10784994784209162022 -0.062379620650022171713 -0.12232495224827540092 0.012711264792701812074 0.029110192086716380616 0.085424702345868575026 -0.0020783402450860284302 -0.0080799068932294743073 -0.10275747717332923969 0.42904781004711622927 0.35663427025550809013 -0.55039651707284664717 0.07108268048330386446 0.25748191063951536561 -0.14569771482285764908 -0.21522038493234874057 -0.17110715951926175338 -0.17604594055800606989 0.15944486272663821458;0.097836868774439089691 0.11180815387354441082 -0.0012046244725059005679 -0.29372798186331133818 0.2571610764841971708 -0.26140756555017791163 0.013070592147020613366 0.26299498498125628565 0.26838203396070897666 -0.13519196802451252659 -0.23546514716412636492 0.063919665021083829637 -0.19390409173251607622 -0.27187320721439545146 0.21433912486403358666 0.14990078369617393372 0.23671595442528614583 -0.28503053904766356696 0.0016472247000700174484 0.052845834932472440792 0.12231426625489973115 -0.20407901539601680518 0.19238907925618323191 -0.15840813306872111865 0.17799042613052346029 -0.07205005699735293756 0.27278965815004596607 0.12548005090138655837 0.10946570179774761655 -0.053775094081334094687 -0.047887637568486546291 -0.059244626344360930281 -0.19391686500064334031 0.19687440902077688043 -0.084485541048061024716 0.04366351841220278418 -0.032211025568173665135 0.17976376391120407749 -0.26124138606802643769 0.32135867448598021134 0.1298147601537217033 -0.020018417633214380391 -0.06975379605521690729 -0.05867433045695494287 0.099763881838047213657 -0.17515739020028636697 0.20573679203403599791 -0.27427874526339202088 -0.16344614332838780513 -0.077013136960403058562 -0.29582029753337613087 -0.085941588483365569107 0.28364047866910807594 0.038563643503629292664 -0.27750550832929915535 0.095251127851523717527 -0.13401533711231269907 0.16930709775209790147 0.16054691633699716413 0.20599860572265091263 -0.15492870434399169666 0.088742499917649556029 -0.13286514155556272687 0.056619625730135028641 -0.1331905033841568331 -0.28924263493752688792 0.24544086807713882958 -0.10357628200865864887 -0.2604709070933103332 -0.14215896644810546712 -0.19783057427208047829 0.10552680773316434892;-0.01886473932620083907 0.28452853551331902526 -0.066933996655914249074 -0.010323607078026901182 -0.21524573956164616551 -0.081650376152483564174 0.085950180342555762558 0.33591775139288021501 0.020461315711959218028 0.28038018655102586729 0.21367767336470866457 0.0169435492532642 0.27488132721862384988 0.17028724506667294869 0.37414210520540658322 -0.056623855970205742849 0.18053216601511856698 0.0036778337060964722341 0.27519262737539512687 -0.24526228924225731975 0.19121718441881191408 -0.12998323131321748436 -0.0057616168475650795383 -0.095306070804912199068 0.17699249788454884946 0.14904682474118099988 0.27124588570037611035 -0.21216490739942286958 -0.099991459461912443607 -0.2788122550574677061 -0.1046786964043399798 -0.10640335109654797119 0.24279541328634157704 0.19557026228277166191 0.028180364034882519897 -0.062321247283533651173 -0.062075141752703892617 0.12360624611648536597 -0.083429611104525250309 0.20172537154584299635 0.30636659242355462895 -0.11278726402803920803 0.065945867480993389242 0.26264364480793800372 0.03556148852266145105 0.26640248834783747389 -0.094381387263126045872 -0.13548779362556709338 -0.13316966905071306315 -0.054444902737670594628 0.18060100745911120135 -0.077645929943131200557 -0.0045260570213542629728 -0.0409891286250028547 0.14861502689375644115 0.33349667494791790379 0.24454945408347375513 0.13578403780085390729 0.26022694050576550273 -0.069648483827403656621 0.073924164962557520342 0.27500933864950460883 -0.10576496453470511649 0.088331032550514207435 0.074022066379420964344 0.3258813653373509589 0.13580915575669907924 -0.21508978613789761503 0.18076074213784998346 0.19179679197814150649 0.14709834610271735333 0.33566957850915057904;0.16049390685903872078 -0.074381669332909627901 -0.027218741206326332177 -0.053112812668152840911 -0.074011167326114110643 -0.080442259849299369012 0.28761350586943273955 0.29787443044636602307 0.24936431988603421916 0.062228078080695643781 -0.032845974870856352312 -0.075029153645741281098 0.061390818324473434009 0.10998440522414473786 0.23261102559870117101 -0.068107491587948973399 0.259595998873977718 0.29710932251160693252 0.26123408340559273189 -0.0081321838037183465098 -0.18544933585888295768 -0.077606132769716534847 -0.22606488565621146725 0.18555631620808329951 -0.027401148695580527376 0.018400121887124355063 -0.20672624514291557118 -0.0065504995998086779779 -0.065952116681444919455 0.10461206111115067818 0.020281672416855359847 0.26571450258615381124 -0.074296860805621728341 0.34382591877332280283 -0.0020094307183071077882 -0.21930963563198049848 -0.36464308764494829385 0.29343518851159766658 0.20259898783392266131 -0.37667274920758142542 -0.28248585852077240377 0.17634045687906921285 0.14539192653373708697 0.070814819977433968168 0.15501748785887511928 -0.25669166859826453297 0.27957363457941492024 0.096338111269822113147 0.1859826018393636593 0.069708087420676495549 -0.18062011837912739232 -0.38998458218684628473 -0.11656181755935393629 -0.078077527496810739116 0.11719994485570439657 0.26766935091120042101 0.11934233675147293274 -0.24675057830375102252 -0.40279932718521305191 -0.14220642082905887715 -0.080179925092944553944 0.26683234306412506598 -0.28027023470014716944 -0.020178700536789231923 0.072510008976360118549 -0.29470369111694255659 -0.13730063460593150415 -0.37675715963308625822 0.17547638814700619592 -0.071887883600296006992 -0.083694870201224028095 -0.076692677845641904488;-0.25095720723467723756 0.18455947715948980981 0.2787852545597347409 0.25300309895108602509 0.066498562855855411491 0.2380870982637232347 -0.34855974838351133638 0.16827558798045408328 -0.31198954544672941047 -0.13933324972932190078 0.041264409125394058142 -0.21655497703416271005 -0.12964650605896221869 -0.2746692004672077192 -0.13460353035468111682 -0.30745838773369382757 -0.2992488591709659973 0.02009950361844765887 -0.035652716895357171312 -0.063122774149641264207 -0.25043795321784306784 0.10822323699225730453 -0.22011671846218491821 0.035417456824096922585 -0.14345460475863652805 0.12786394872588163762 0.25107473322683765415 -0.031468916941916551255 -0.22850398783362615984 -0.098463074915027565259 -0.063580043387925860854 -0.31948408386812809923 0.25346717159742082615 -0.23753671014290173025 0.11780403950632115095 0.16954676243788666112 -0.22306503120819806685 0.32389929382412668835 -0.048632161811670002183 -0.11524794825259229714 -0.38806533283053951111 -0.045380915146161444895 -0.4104393972423353576 0.0609426822949659594 -0.13752171239955918169 -0.29005798188976972263 0.079038124559258890467 0.040433037066162400008 -0.11799797178533025233 0.11902508210695614266 0.034732005954130729108 -0.22517782657987700512 -0.37632510481880893094 -0.19661553394033384756 -0.093251549552665971565 0.16336408277224900853 0.11942363422160355568 0.034685645715576245152 -0.29896020482381913119 0.097641806647468229463 -0.26054830663853856265 -0.35661097075753855901 -0.030125407799726399566 -0.17286899215536130625 0.0024140570324866304081 -0.16385443010958608556 -0.29871659229984182105 0.13032368500303059822 -0.28772533613469036817 -0.17333711788427055844 -0.054171092242747062584 0.029483691111060195134;-0.032058688060862511326 -0.026677896277392545987 0.097877777274458316326 0.75247505709865836199 -0.30547731161054364479 -0.0056834937603409676696 -0.3514438291504336509 0.05980135314939537261 -0.17278981312693481032 0.010650788185545781439 0.1564007035528580114 -0.22472898398733814895 0.23353666224759148107 -0.2629071767735384757 0.24909851011866984694 -0.32267310677750826731 -0.11398592612279161151 -0.3864099094201408624 -0.17786903964695768843 -0.32114955987860571707 -0.28829227085990016821 0.25089432897582381043 -0.10674735079019839756 0.03962037860529597777 0.10957361155951678144 -0.10747688560450092965 0.222609103901913713 -0.15738474612644695605 0.1520504088226573014 0.17304079995067445097 0.15061256971244996183 -0.0644982916402237344 -0.19385082760834967952 -0.055987287322005620249 0.091202087773316842245 -0.24035940946448733357 -0.38302845434078303111 0.27642658574928169468 -0.25980832864699926477 0.81934631648421174521 -0.12359918741313530299 -0.086102370763595614811 -0.41757054744053151429 0.21804463696335521505 -0.15006162791630200948 -0.38838201222133705848 0.36443008225040307568 0.038417564957583742735 0.50089749380941006596 -0.24839809295722761751 -0.12482567713016891331 -0.29326436755915669119 0.097585099200263480945 -0.14557344835100891056 -0.14552671502470915232 -0.0086380582300867314594 -0.12865231023877898853 0.072402512571197369384 0.2551748125967864822 0.32277047694645311093 -0.036268608168183814888 0.25363614603368589417 -0.012255382589615799321 0.2851406155793481112 0.15981510419765670994 0.23306194680314765155 0.15783308859559833093 0.1227323545098258778 0.22414140366715648578 0.17528338097203030599 -0.074628154778466751496 0.13796097239842877724;0.089367072465390925973 0.3592106170139512944 -0.0093224555450529822398 0.16782418571341523039 -0.38868915406808574042 0.031574843382957989979 -0.04151017985265126331 -0.10901405090042488866 -0.031383830045154451072 0.083612269642978617745 0.42614957175995071825 -0.039906268132848414509 0.1229848699312538346 -0.20763298010439160124 -0.15040363644809376376 -0.31515051061093701801 -0.32935142719900034614 -0.077727040172140382523 -0.081300803120368719812 0.010258041910104306882 -0.065547708763323636605 0.33359810662802197312 -0.02378450807838546413 0.054021961760160365495 0.13083784423268465802 -0.0069949682888796856431 -0.19789029028571281099 0.26302088936362727489 -0.091954486566639362377 -0.20921956923373394299 0.14028718112738072787 0.11479805547470479932 -0.11203742760615993668 0.17521948747298210503 0.36001914397377077215 0.16122417986062870243 0.018995701261708991536 -0.14309850458679551632 0.11372595325533257915 0.26127635636768592464 0.2134980719744418165 -0.048405604259934023603 0.17989091050533889682 -0.15930666658791620138 0.2796923561100690403 0.22668129552201748966 0.057823721054442445144 0.15372951547918184412 0.24640638441347806342 -0.090175677912917737156 0.029603401657942660097 0.020276502213150970899 -0.10261273727670028322 -0.29973906272842842924 -0.25525563600558037747 0.2086502409829574245 -0.22694182826257597307 -0.13282222105602678464 -0.1033624573186934098 -0.093698059544897779882 -0.15092598556060687898 0.10566186244637222613 -0.3329185433809456196 0.11460140999770530856 0.15136531214621859465 0.054655612733790187585 0.22352374201002184195 0.19162131010883137749 -0.10116108402477191897 0.31020811837685813295 0.012096804332855565223 -0.054720721668758597056;-0.15393235089661336246 0.047825657504043689316 0.10273084091699972997 0.20319915048885014985 -0.076584884891855942168 -0.10180600846438889184 -0.28281261580609812212 -0.14054211290549184499 -0.10947545561908175737 -0.21753106106190753244 -0.19896212863659720749 0.18702500383110706728 -0.067233012575706629921 -0.043993961626019553735 0.088368175722558409135 -0.29854746651181629513 -0.04393477166931325506 0.21074332781424959249 -0.11342598161257122502 0.19599361463817710494 0.11590258708130812826 0.080610481494905877886 0.17644212317783769528 0.19323952625246054726 0.22582789503804398534 -0.17833953637160773753 0.077788647514878614397 -0.050233085238439362241 0.09142059641152518179 0.26068928512780242812 0.31595283984769595431 -0.18016704297565530601 -0.11367600126234259084 0.022105826246543960889 0.16299196074833302572 0.051392070935330561032 -0.31400783946136678892 0.19226851303812350635 0.065434169877908301971 0.007013323474161755125 0.12539837617196425423 -0.29110564590701626386 -0.33067996285657197397 -0.23292215511018699026 -0.32996699476568291942 -0.25573364453774982685 0.025183780018258314359 0.11442557577089827736 -0.16165975048474084952 -0.34171321139593929805 0.20166482964555004775 0.17130567890896553074 -0.13327242986833504057 0.10058385192715854628 0.19971976735847910001 0.077471175937747577267 0.066629394841923539339 -0.21649124596149735278 -0.34344403752318425349 -0.23660561207138949835 -0.29629105808521638554 -0.23325011224004141286 -0.1391669748489687275 -0.012446864015039502821 0.10459726723940050708 0.11445643018129314505 -0.250078717081804347 -0.28954995831608376644 -0.03527632215133909982 0.1329363993641005659 -0.0017563432471980498437 0.078767203541754551854;-0.20438838871720230173 0.0057204670345728184794 0.22513925942782792022 -0.099389437909132585802 0.24198528580027423018 0.27934909699191196042 0.07303669722412535481 -0.016022662641785857113 0.10296970503743842207 -0.19920114089288801229 0.18771130784902292921 -0.063430691470687639022 -0.16294892720058651303 -0.070193903461981024816 0.2383180053854145608 -0.13706047083475658699 0.23404957787725952367 -0.1945214994796576613 -0.14893381663882940269 0.17269690552528343952 -0.23225072851216790881 0.24510227646816171165 0.067709223778123259208 -0.11722425681882928106 -0.019079245882827732678 0.12470636227128299722 -0.16675188965473652924 -0.14418555872818816788 0.14150863057010407142 0.057732966842438983301 0.0093476172397602662334 -0.23014382954927734004 -0.28523814524545976212 -0.054962710176745921409 0.14750970467747154258 0.18045347317997512127 -0.12254785948408829233 -0.14759091962159395783 -0.020129932354583969512 0.39716516212544439313 0.32398270613889912362 0.30499529188014928849 0.1527691880548140424 -0.10589285253383443064 -0.20400578702562116584 -0.22129990741202604232 0.15646791831324813327 -0.19425992489145138542 0.17152727618243715502 -0.19415715794004240191 0.26415305756271584281 -0.10582005373222516664 0.0694277523050702422 -0.18984068118223623722 0.043535657864918635152 0.11324688907873310673 0.11851681360983402913 0.071277744276543431035 0.094902692054352116857 -0.085616999977346758266 0.21895373281477920058 0.046474438170502077594 -0.22919103301644666582 -0.029187468138487826508 -0.022319844083592849798 0.16223950750744606242 0.18800991549973106176 0.27848855700558611259 -0.21432220119214367982 0.097741282070421570127 -0.10483106534403410781 0.048790418477931647712;0.18919902043389741353 0.21773569738109191385 -0.23294154451496937308 0.8899795995855764863 -0.20756868634678699026 -0.070316780889029664725 -0.41336046302740747649 0.060038963851465280974 -0.090486332231778626722 -0.098820803403667403786 -0.057519071079878490715 -0.07396686833266093164 0.56980894111259161594 0.16970053962069789333 0.27151443087132820509 -0.34848517270845930094 0.0951283510608119387 0.15086832188551624334 0.091601094136830665815 0.21810195782578473134 -0.16949329453635306186 0.2163566946123017809 0.12653166877189123141 0.36476061866506975795 0.21268873221802703233 0.18268575648608631479 -0.17817705572067363273 -0.042399417897280911038 0.21844387855014726907 -0.042422144562394840939 -0.036213436335666593369 -0.1915793825199127165 0.047454552997908849843 0.28610983349149332611 0.21695735364269733148 0.072474749480900685361 -0.06611746872732245095 0.33130100089745662117 0.024302027822801799267 -0.084419440378707868988 -0.046107200596984795893 -0.02702266515077331871 -0.2768475249846292785 0.1555657797162252054 -0.15918144695356420404 -0.060543364283462387798 0.62010336898675844086 0.36194261962354490336 0.069639018131248175969 -0.1367652031281655356 -0.26638380053396487623 -0.42462802433379731593 -0.31437370902808059459 -0.10834309905153086118 -0.010166486724943064532 0.21047499611126235797 -0.19557890186185644676 -0.1883031749325277393 -0.28343703636441214266 -0.27777624647886245413 -0.27349243761015845644 0.20422893944687411927 -0.24264907377079950046 -0.35370562628615237477 0.13652453512694864846 0.22437885092599516024 -0.1149632488381252815 -0.022824000411887097883 0.02611299421756117789 0.12601585201197781916 0.21510661012013285176 0.17138422090395941111;0.0095059445603169825945 -0.15633898236768334344 0.066505305543031995041 0.021391066645976553745 -0.13536239450526676986 -0.22192211875413034305 -0.28754471998097635987 -0.20742153582164535308 0.21023262154806438007 -0.15015297696325083376 -0.084062908296518870643 0.14072862226786828077 -0.089782258937613906857 -0.32876775701280408493 0.18119491450543628863 -0.29129801399516552785 -0.095305246820737071767 0.040489133252878214964 -0.13641026826532490213 0.28364980365913250449 0.19507282091214189768 -0.043821390936121105975 0.15582047356313646902 0.14607316923900623418 -0.2472695412048782071 -0.28745742009638020065 0.00013096422042426555249 0.055020413040840793206 -0.1288924962046174294 -0.088299894235188067237 0.29399276097501109151 0.23106420823714449164 0.21831078643552118135 0.17266496864100600028 0.068697991130709970542 0.015076089676874467049 -0.23343121152696344467 -0.031635497130392216392 0.2172680473462232642 0.16940437572949809675 -0.20839989267869257761 0.12543359263479358923 0.12795960003306319774 -0.098392130485032702758 -0.12428685906102736325 -0.046132184692196910591 0.16428630940464919452 0.0086243201347871879109 0.14779142542448214792 0.046384385043689510542 0.058808889092305992319 -0.33719201592040864979 -0.20041373600361619967 -0.33812390626675092875 -0.13937677253106497965 0.1760607614201981086 -0.22045691450762039398 -0.16334369905993065264 -0.32422781627947011573 0.061767051056027283407 -0.24776071730037774188 -0.22236606344429479809 -0.26946331809623241815 0.22666341058442743273 0.16810648914559878087 0.16444477115295927372 -0.11296652377034681336 0.20379240747069884976 0.022715681083434229731 -0.22139778620306813095 0.08359255381738354973 -0.11376792673559031621;-0.073630416560844708096 0.18276848448902732747 -0.0097024909468072188107 -0.23424591174967737683 -0.27910270709494078289 -0.26647747526573428711 0.1050253354445466053 0.081060547579197339552 0.212607834618798619 0.28321946558684990558 0.26202037860047694418 0.19913664125178215381 -0.12308436407416931124 -0.08160323603439061102 -0.13544002552238468273 0.19107156074392550593 -0.28258245203263021583 0.11943772745430362991 -0.1664567835754357239 -0.16169378158430741665 -0.021214295870872281607 0.022160853936536745179 0.18754114539237107251 0.064251390202669123042 -0.30074599427293441378 0.015386081067154704777 0.16703908857284219258 -0.11951730444362679284 -0.0054144643756712292765 -0.046474927503596691336 0.014571157221302975457 -0.13979700303785727589 -0.063685952096630096819 0.22330324926368466665 -0.37496052865532381038 0.22496768646601214559 -0.10572616253297929811 -0.041738342658245164429 -0.082575687331360073107 0.33874678523423024101 -0.24918993582345799753 0.075950518902505606555 0.070513343238228831655 -0.027020148930331000514 -0.15605561766316494721 0.077130927250915359839 0.0066665706469098296588 -0.14239305010387498518 -0.03620581045311321855 0.019676418828174169207 -0.18114315126826460722 -0.1525144628785382872 0.092718617392718638559 0.11148496104744244628 0.19515440618090806879 0.0089726599282259414392 -0.24323062719969901213 0.26983640213993054235 0.25332524603961270593 -0.28262339095455990545 0.21567401154540374875 -0.14324993288821591397 0.027421650930790179845 0.20599207521526230469 -0.38304511133089419461 -0.34129022320980284544 0.069878016987856408915 0.30440925659003459369 0.14698277915133300953 0.15614605191690145158 0.1777273877090846943 -0.017995604480844890061;-0.0024579302635141294514 0.11560887020069046671 0.10238064725053067083 -0.04110391568602361767 0.14812251717534527518 -0.36902396223469507985 -0.038819042036250757388 0.17109398383904472762 -0.24300418465100309673 -0.29722561819604709221 0.29666209037906421386 -0.15995052030798612153 0.20055513495609542107 0.1530706306115390547 0.032764472072488969034 0.04979851191458059545 -0.35668016934302415599 0.16064951754666012551 -0.38732434611215005305 0.18216449071776225077 -0.095277872022048432088 -0.11687871119119544461 -0.34270483550486469104 0.18172776059925241365 -0.17370403496700956292 -0.23679500311233586674 0.060882186158678484877 0.20083033765498536916 -0.24531038780508390706 0.048469950452560327248 0.0073839705180299705992 0.017477651024579692746 -0.086582232566605063506 -0.030957052270094546215 -0.023822748164478074751 0.081027641309929690494 0.09597438367175954721 -0.39636478118496559775 -0.10983071337397531941 0.18355209649508416603 0.35687308540249979005 0.11669143054582993557 -0.12137430692690362455 0.052430889396308369421 0.3700326113920318627 0.29458994995905640746 -0.55183319731236568639 0.065787536945625557649 0.12800637900486006027 0.38693115295116797814 -0.24151981942463435216 0.054782692949949599037 0.025133276953824740946 0.19283746041961311035 0.025590900665566160971 -0.057139874977016641422 -0.029910406867597549851 -0.24852133264229428478 -0.038034042202004146593 -0.12107991763547262809 0.092900905960905375003 0.21824354068778431537 0.055215783110655530797 0.27319453884654315567 -0.34843527226528481222 0.038470456205067615763 0.071733258547141368067 0.32066486620300393984 -0.19548568409442879101 0.22741770589755180842 -0.07667500577574828946 0.25016101902242693367;0.00015457495061762041577 0.11510774995700781553 0.1697195752805560065 0.1660715637174617898 0.025416063881621951681 -0.12026703289689436027 -0.39643274258009775224 -0.14180782944412170798 0.076447307441117856586 0.024501820665122471532 0.24507089493326669749 0.0094838652452110313446 0.31888381839393781236 -0.1177681818697524363 -0.18696592355691560305 -0.2607240267344224649 0.20648515754150781332 -0.28691973718497182366 -0.19408838593374660997 -0.00067816363547514545151 -0.17731698545636728759 0.024963987574442160489 -0.23104274674257965771 0.021806894504148053443 -0.29557965351099874107 -0.12963581535233689723 0.088948716912688435832 -0.31242102884707845245 0.12726652500566174031 0.090724710372505817935 -0.0018209754442297734767 -0.16880239476048944369 0.097878120118816386297 0.12849956313960977927 -0.1947565858492012747 -0.36896549546884782611 -0.028485524291378384876 0.15109512718100845396 0.0062682394039879577724 -0.12376863725043658893 0.24340505092698347389 0.27554148899982444654 -0.084061064665594445455 -0.22816658195179373436 -0.18634908597660149177 0.22963641562435699317 0.22215708759358251956 0.2586965238831991365 -0.35778701918572797247 -0.28428286313249023776 0.18687210193613701392 0.16775851763866439503 0.17454753654935981078 -0.046828954746630499506 -0.16804344447911934157 0.17254683279711915955 -0.098226375376358629476 0.24997858591948002305 -0.21025908308014923387 0.16049147527632051657 0.27248076037956669992 0.10765704884074157877 -0.2838151445811834539 0.22237032081941973671 0.23358178892686501382 0.26247190254802343912 0.34158167979909120904 0.063607033220352646175 0.094288279771597635626 0.18830556405375650786 0.060827273689251663835 0.24439651922255936634;-0.11108662015420261993 0.3487173039680753206 0.20240521129689903468 0.10990274376929477784 -0.31344755835184123782 0.084410134585311186184 0.012861986051989439395 -0.28896011534986265623 -0.13666060442452132584 -0.18478736840609488734 -0.050067769002465616068 0.091359921408299002432 0.010701352419453170894 0.20160109553727043052 -0.029173447548349388386 0.15913926870040609463 0.035743909533388407151 0.12236130830925401325 -0.33740766558038964851 -0.04781394554350668763 0.22035016960708422862 -0.1843635208040703688 -0.3092155857067999114 -0.24483037388035672199 -0.1066200154090727048 -0.12850611653428711811 0.18920514678692362809 0.051862247828254603998 -0.062888424279708879383 -0.14565558187416854929 -0.032400312913709691798 0.18813080595721068389 0.16829360947542651439 -0.001693523136918513583 0.17502438601370351456 0.032752870362659447512 -0.18945452012225680316 -0.25828270747751569392 0.15102770561459485932 -0.38324030005460635318 -0.058411321115116425495 0.028259885101599699353 0.062469919368962699424 0.094617189091734998918 -0.22246806303172403374 -0.22616140537289383672 0.16744397608911892883 0.11385214654822442548 -0.037372357428196806284 -0.2992362644155715512 0.16637769617578282433 0.2083243881762855132 -0.25026940116338036724 -0.15563781780838767399 0.10792994176311343502 -0.18640458345154078956 -0.22893338695075021727 -0.12733269706393365861 -0.21129445108837008327 -0.085619459286487120675 0.038690897911149137178 -0.010414620927305818371 0.22533376557298828713 -0.21050589193068400262 0.042729213360942305822 0.22507900268431690893 0.052960828950384265801 0.15823541909220514845 0.14122913839175910145 0.16079655693713948428 -0.13394678529300002578 0.20638067092617187748;0.045034964114913478284 -0.034071913749062661403 -0.25942704343415157187 0.098595553137990232795 0.34220192497031387546 0.36849383541888791616 0.12653432585207038952 0.050371679483890180462 -0.042756543109697633942 0.0071702500795580853543 0.11070590140688175984 0.19632190065332674744 -0.34300684907238854215 0.28755323730696291662 -0.0016422127975973636882 0.24393318580365766501 -0.02858229325770958798 -0.048536541161198584748 0.10550526897283978023 -0.044326073391222194087 -0.14956402855352607384 -0.035226444783103730285 0.32245264279892182913 0.23165306191888623832 0.25358433446189454497 -0.11850390588873349618 0.33734868797293821041 -0.1972721622689629084 0.0064621256758789803742 0.16852939676336689545 0.15900940270838495594 0.31388313463445521867 -0.17340955984956735181 -0.20233939892644714487 -0.072078765688846607729 0.060327300942948351714 -0.24000609975534184515 0.21645282944110558199 0.57652385771396630343 -0.44040720019081136538 -0.29771853882324089691 -0.20294385075558563081 0.10184327396415862599 0.17778715217669904813 -0.0057306953419380534526 -0.11051782758566071341 0.39471956553137921286 0.0027938951873740314538 -0.43269225032177865975 0.093963973383667423467 -0.31080033370803572534 -0.18794726294307609327 0.052716418068308873446 -0.172164835876348149 0.040813234350543611817 0.51490366805553100527 0.053336377581765161138 -0.051260492803921101079 -0.46640514609999755846 0.21342282876552501336 -0.22067521081751526046 0.089324399200478507566 -0.38990259626248741087 -0.073447199531210205503 0.41390631868039012842 -0.22573681798400688225 -0.17114256524939841508 -0.26264064348176813235 0.014281412658027065402 0.086048588734382994159 -0.244473031986154693 -0.46060496824910490687;-0.30564505856756607471 -0.11584232030778024436 0.16725917970127282541 0.12620479671657502951 -0.10622532028058992437 -0.13199185837022892054 -0.18829689498118495905 -0.11817329057142189619 0.24924137174748500767 0.24687127360481225802 0.28929403392762892411 -0.2619499246263557457 -0.20282408197529633309 0.10711596203825464457 -0.061528148580628577724 -0.23447948773747473439 -0.15834604339556251906 0.28595631012686084649 -0.11929711133926862443 -0.18979476462045580254 -0.033491075695806941936 0.31167740268763688416 0.26465081119561545409 0.05665019864571201047 0.13060814960284586328 -0.094392886863089789373 0.018453889285121882063 -0.11445157168511416179 0.20391847380258201761 -0.070916834454658905784 0.20052856591203688241 -0.069890699368257383495 0.075549155243825022454 0.010158763191087613956 0.12069805493700319632 0.086299334624445958597 0.24217288467575184829 0.10029483423117327434 0.18419702106857605006 -0.032861333732543962505 -0.13164731988845837507 -0.075750051229028392275 -0.043295219960457279051 0.16417285280156151961 -0.058102161991817502518 -0.020109671980240856337 0.28507489617505055168 0.24505157864293311554 0.081765087631574334681 0.094556605091460951829 0.028810559944164940149 0.12771335924822863062 -0.33524807366320125146 0.12662665543704818005 -0.15913598060795353106 -0.23396229324766837365 0.29353169991288513563 -0.095056783663951149865 -0.18910565618197569537 -0.30047248384764507767 -0.098020951017723512155 -0.019702408666364138595 0.17841166645312045436 -0.13481665324457278721 -0.098736811949839728419 -0.027250644629493593618 0.28229286995584451647 0.26175602646035384113 0.16467319336390079387 -0.064440881970581689875 0.018743570548934863906 -0.30346534466107033534];

% Layer 2
b2 = [0.64562614762472148033;-0.19239552736864121152;0.0088688937439481835279;-0.052357966347179034361;0.7868734674007715757;0.48682873620761518696];
LW2_1 = [-0.54315525858636148904 -0.84340628081677138095 0.49131284300158012401 1.1726267871249358432 -0.74826227164020153726 0.56175415444668952425 -0.43508107499366005522 -0.87672847808334952724 0.86453676014941538419 -0.31248148647406298606 -0.028146885235548219778 -0.68774153472884769212 0.58914686976728625201 -0.82189165698491462031 -1.0529777481886593016 -1.114997132263041868 -0.34176358274188139985 0.73996707826695196086 -0.71560107828302932376 0.30904199866180170897 0.8711802436008934114 0.58393340783355862644 0.74381889280577040413 -0.2625047166380647945 0.97376180306916360063 -0.46708145533063560872 -0.52512499857416616855 0.66561549228639582676 0.71188094343275010178 0.34215627964176292819 -0.80281731178689796913 0.64262514860174380082;0.98815266384740818584 -0.63824529151510889236 0.71051683465076453938 0.8444438944272900649 0.045955659547278912558 0.17790345427542256229 0.53138098063434480167 0.48767462465624006329 1.179762865544410122 0.20724473909101628899 0.37709355085499135507 0.94350753040760138024 -0.69723549375599302991 -0.19867083637355756331 0.44034617198349784717 0.73145121127250978255 -0.035969756956713311302 0.080504067411465346504 -0.50633276286538975164 -0.57030933094468028166 -1.0809386201681459028 -0.77604067023199418962 0.34990064802285947287 -0.26097098769894799819 -1.0324049042717000635 0.64929499424844039357 0.65857582215004095705 -0.52391384532305373956 0.8411213179668687312 0.11230031558114411672 -0.74558072077275605594 -0.84258237591599294269;0.005594307076532296745 -0.09553840231237550884 -0.43346336110580541146 0.91359836325056342776 -0.42958221034615429179 -0.048123240897943626859 1.018117824019015405 -0.43428170162549412092 -1.4264089713260861281 -0.54819039309133932303 0.52540933131288847235 0.14361009061777174622 -0.41255295711010331328 -0.1188470730670970199 1.1343677347768965635 -0.5166518945860298917 -0.38367564815606819417 0.57432744361465137839 0.27598533245653228407 -0.13392610936441798342 -1.0503381782165490677 -0.00019645828392247173706 -0.8460837163740725364 -1.0070122744166341011 0.40981228897869542704 0.59869315221520846837 0.11090974398025676972 -0.43428369602454292009 0.023589920448499650946 0.69819976699655939001 1.0243243331879139379 0.39451656731683609758;-1.0467789961569926582 1.0424542092466566601 -0.70312025594069715861 -0.36391215536423482391 -0.54940772135073501214 0.9903769324101476812 -0.63312091811809001474 0.92978080296371590219 -0.49873582977823394113 0.051534051648168675841 0.93472088427195509919 0.36398757478385806996 0.84472902689011464261 -0.74646618959887145461 0.81102919250497074177 -0.47856965441090787428 -0.55632987885170581688 -0.88514792399397557165 0.21212544734982935468 0.26105643448691101538 -0.17997338185202207961 -1.0269814972863227087 0.34984414212460773763 -0.25472860179754308607 0.47639740679562569969 0.045300128907078546225 -0.20485372495568832107 -0.54631878523866128639 -0.9821004632761471953 -0.85241939092726592975 0.6063086036544778068 -0.25068830744621684037;-0.89946069992446997521 0.88237860391343292399 -0.23689301685029839906 -0.36178860641491411565 0.16180329161363646295 -0.10014817816506506321 -0.75155882670521956257 0.36690085558405965971 0.49798259257203175698 -0.34336825393594622158 0.026436653730044640254 0.85497384754674476959 0.068660166311103776327 1.0293306248509759282 0.88439650015644322156 -0.47435898189355785171 0.10156473372830954194 -0.73886431571277411123 0.33807656410454117735 -1.0595548783458197395 -1.1270081200448796022 -0.79353720213595124733 -0.80235822295130332371 0.102870553665330558 -0.15798103715770595024 -0.48348293295375327494 0.49118119996724146636 1.0424181604659150668 -0.90802619728095423923 -0.65825770854330778459 -0.37620791790334984217 -1.016566129757402015;0.1197564447575914931 -0.60767949946256860638 0.43954035256691592615 -1.1383653787004366364 0.32460102544752406084 -0.49293064869947034179 0.47903829992295887674 0.44706869174894176 -1.0021998184794966846 0.40673538624538330133 -0.33180659254220151722 -0.75321512567191950538 -0.82676392587843394733 0.53638026296002783155 0.57477640923435058262 -0.84616912368122398913 0.31997784780548116368 0.51356341270936867183 0.40509796931519165275 -0.46232052047819438556 0.87820695949951987913 0.48839497825170702372 -0.25652932371594333594 -0.4753462060622937746 1.0018261259648610917 0.23436350097152386374 0.36414473662233659557 -1.0565941577215460789 -0.79874182347530142678 -0.18872517269629762726 0.1116966003560998788 0.5843284670499752087];

% ===== SIMULATION ========

% Dimensions
Q = size(x1,1); % samples

% Input 1
x1 = x1';
xp1 = removeconstantrows_apply(x1,x1_step1);
xp1 = mapminmax_apply(xp1,x1_step2);

% Layer 1
a1 = tansig_apply(repmat(b1,1,Q) + IW1_1*xp1);

% Layer 2
a2 = softmax_apply(repmat(b2,1,Q) + LW2_1*a1);

% Output 1
y1 = a2;
y1 = y1';
end

% ===== MODULE FUNCTIONS ========

% Map Minimum and Maximum Input Processing Function
function y = mapminmax_apply(x,settings)
y = bsxfun(@minus,x,settings.xoffset);
y = bsxfun(@times,y,settings.gain);
y = bsxfun(@plus,y,settings.ymin);
end

% Remove Constants Input Processing Function
function y = removeconstantrows_apply(x,settings)
y = x(settings.keep,:);
end

% Competitive Soft Transfer Function
function a = softmax_apply(n,~)
if isa(n,'gpuArray')
    a = iSoftmaxApplyGPU(n);
else
    a = iSoftmaxApplyCPU(n);
end
end
function a = iSoftmaxApplyCPU(n)
nmax = max(n,[],1);
n = bsxfun(@minus,n,nmax);
numerator = exp(n);
denominator = sum(numerator,1);
denominator(denominator == 0) = 1;
a = bsxfun(@rdivide,numerator,denominator);
end
function a = iSoftmaxApplyGPU(n)
nmax = max(n,[],1);
numerator = arrayfun(@iSoftmaxApplyGPUHelper1,n,nmax);
denominator = sum(numerator,1);
a = arrayfun(@iSoftmaxApplyGPUHelper2,numerator,denominator);
end
function numerator = iSoftmaxApplyGPUHelper1(n,nmax)
numerator = exp(n - nmax);
end
function a = iSoftmaxApplyGPUHelper2(numerator,denominator)
if (denominator == 0)
    a = numerator;
else
    a = numerator ./ denominator;
end
end

% Sigmoid Symmetric Transfer Function
function a = tansig_apply(n,~)
a = 2 ./ (1 + exp(-2*n)) - 1;
end
