function [y1] = subject_104_3(x1)
%MYNEURALNETWORKFUNCTION neural network simulation function.
%
% Auto-generated by MATLAB, 28-Nov-2022 23:21:10.
%
% [y1] = myNeuralNetworkFunction(x1) takes these arguments:
%   x = Qx104 matrix, input #1
% and returns:
%   y = Qx6 matrix, output #1
% where Q is the number of samples.

%#ok<*RPMT0>

% ===== NEURAL NETWORK CONSTANTS =====

% Input 1
x1_step1.keep = [1 6 7 8 9 10 11 12 13 14 19 20 21 22 23 24 25 26 27 32 33 34 35 36 37 38 39 40 45 46 47 48 49 50 51 52 53 58 59 60 61 62 63 64 65 66 71 72 73 74 75 76 77 78 79 84 85 86 87 88 89 90 91 92 97 98 99 100 101 102 103 104];
x1_step2.xoffset = [40.81522;0.00115631314302532;0.000303443301592142;0.381731142090671;0.15750928301643;7.442752270905;0.0761637859531771;2.767170812562;0.0962016209919472;14.3338145516001;0.0126116299013321;0.0460722350894433;0.290935833107525;0.0579540716547543;1.00760232640932;0.0753746907473572;2.5334574455059;0.0920494531457653;6.52227707992604;0.0363710153145301;0.0513121970492588;0.338853466406293;0.0273961966729056;0.225165477642158;0.0172483989207194;0.135309668477203;0.0212730039545;4.06380559002136;0.0107199141767003;0.015929300328877;0.294393905342428;0.0172583656247912;0.089355355211692;0.00456195290131036;0.0101710265801878;0.00583239327420364;39.057741;0.00208234866739316;0.00212383083301636;0.37263551819582;0.150179770319996;6.76618902401;0.0628736287625419;1.923958755825;0.0802162369368635;12.7161188334452;0.000424480652474551;0.308261425942643;0.301514181381485;0.0505950266760604;0.76795701730538;0.0625412582810493;1.78223622472812;0.0772052865417498;5.62163749948848;0.163536757355008;0.0233820412773388;0.33722797821993;0.0233716922454339;0.163870799524583;0.0143221653434582;0.0917889773890087;0.0175210315464454;3.77343658929878;0.393486334861557;0.200041075528601;0.307276854724569;0.015438392147649;0.0715031856313769;0.00366280337894334;0.00708095673132048;0.004866428827815];
x1_step2.gain = [0.0044094881487543;0.859167627341741;0.516058809066108;1.27787063304857;0.818199346116824;0.000988374513763218;0.811709599982749;0.000522774530858957;0.574362979428907;0.00388059711957299;0.812815219276076;0.485787283215368;1.96779009955368;0.911057783035266;0.00131399865737443;0.794195747778182;0.000576289516187112;0.603119728803614;0.00603984476357779;0.647908359416358;0.481559004666756;3.05206629983021;1.42977143053384;0.00327865147950512;2.27009296975857;0.00499506423859528;1.76037171702355;0.0077354831209972;0.569038119804915;0.534752054514229;2.89585887041356;1.7454162703477;0.00492898722075169;7.95736904719134;0.0586772222641236;6.02680520844893;0.00648264562057615;0.832712156180267;0.678627103288144;1.74585098981602;1.37779214480462;0.00262143401791506;1.16967812263438;0.00125738693900073;0.897813968486331;0.00627759469673986;0.771846791731876;0.495221440081027;2.74760803890295;1.57919571991496;0.00384890636928792;1.17629074527032;0.00138183692074492;0.941489974800184;0.0104857471074491;0.645469005754577;0.363760285173991;3.1092148929153;2.48613282848496;0.00973573144695105;3.89122006549741;0.0137123457529003;2.93629818879223;0.0133488479211282;0.619459365668607;0.360883607241786;3.40607173994319;3.20931156672499;0.0163557619854786;13.0861210608982;0.155565030892128;9.87410917333545];
x1_step2.ymin = -1;

% Layer 1
b1 = [-1.5521397407482462327;-1.4063208959153739031;1.2640756360591147711;1.3429857716030049186;1.3045184637663034266;1.2426858096940507359;1.2316073005979062405;1.1556170218100354496;-1.1093940539081872387;1.0414545338264620256;1.0004892925079187371;-1.0417327014398787277;0.93492822527564867219;0.73926367664225611787;-0.82700850396658698305;-0.79251338462532827656;-0.72209983839386182591;-0.68154981739304343336;-0.58380368627696455075;0.48999359459258207128;-0.51512439806992493807;0.49248876569531879754;0.46233090557102074492;-0.45768397704598384745;0.39480982871698955261;-0.36311890542474933863;-0.31845949530120915005;-0.1664167333730058318;0.29768100938145386491;0.075186189080290136144;0.0065262205290222696785;0.025306024619935744979;-0.072364493682412614484;-0.11836656807429711546;-0.13171970415427761147;-0.16151912621054800856;0.19533568735246764625;-0.36805696476490268321;-0.24502212260962788481;0.32910219421696207398;0.37422206444173894413;-0.45567236564000718202;0.47600141555078445688;0.46565989782037769951;0.54610487478496927416;0.68193334423358287211;0.70806465459007950081;-0.73755024847458616755;0.68121161764886672962;0.82284437907006147128;-0.89198335021143604351;1.0035663787147626191;0.94474313787717445479;-0.99197259337371324062;1.0408836490772683803;1.0710459172938584516;-1.0676008163435564136;1.1882208855232008204;1.2283970320177430846;1.3102953027214134796;-1.3471598567505074229;1.3048461959396331356;-1.3759697742372913876;-1.5238048626513909234];
IW1_1 = [0.29061239291642954052 -0.02250035259750919267 0.14113633248980506085 0.23207060738687948498 0.13310924446461272486 0.28325755410200942341 0.089177910704977630951 -0.056908950310815900608 0.041833873784641012472 -0.099264645667022977094 -0.053668558520268173917 -0.093493145465264951288 0.30259251597174385839 0.064276927999280822346 0.2979122095775275092 -0.19735670476896235992 -0.074146344074558570569 -0.29186031441034310241 0.17477114723139805519 0.20391436452478808872 -0.018168068212409915069 -0.090450579845744977225 0.056539617469677609651 0.15234725229239273747 -0.0032281558842413280754 0.11447809408313934509 -0.019698353820898524547 -0.17273943648518172433 0.25888378927100885729 0.080923131560296318598 0.059919182059482989366 0.23467255146938820198 0.26946793131425234025 -0.0082116253435486862011 -0.14864305375130823506 0.27386279504806260165 0.29539796670156720504 -0.1606332700249465395 -0.12387698653321736753 0.026711147738738512392 -0.0020765492331887317953 0.27401835244590566631 -0.20768374259815264304 0.066855339083688916646 0.2607793624953853584 -0.018093497758265665587 -0.29788310624517644332 -0.18210705595567810988 0.088938997298377467371 -0.2426163258525444455 -0.14657836004014851428 0.14157756837867901956 0.063267741055994863864 -0.20248887055792275103 -0.07496319078491495147 0.15972131413550930135 -0.058443562426234371698 -0.20073366575672368928 -0.078575547429615200112 -0.17207356890099123614 -0.025486172309308011141 -0.21168756372197486404 0.28520562490449274939 -0.1774570644629188676 0.1719535956456658965 0.1699395890408663401 0.11704635520101165647 0.17381457993074933555 -0.1756876953294395638 0.048223752916003441438 -0.02831408670166377789 -0.24310565179448440087;0.069894222201224640023 0.06473646941872319982 0.072911553433372577881 0.088519739258310498053 0.21370568437563233766 -0.28562172253112561027 0.070894838264868600963 -0.072909855181762239784 -0.17348223094350553874 -0.2895774575920913585 -0.066668998979767996049 0.03869627690129876646 0.19632012383345182061 -0.27862923996720490027 0.14723402984687458672 -0.13832143995277870752 -0.042671520333241105827 -0.27626463487744862269 0.14051890759853324919 -0.030902400729935022156 0.18519747036149108999 0.0003470340451099934026 -0.27771400511945409928 -0.25279026027604906135 -0.14143426553134577639 0.16366676062344248654 -0.29332093419936894341 -0.21174938207525742517 0.11144802344264057026 0.25629266595669353279 0.033279312067023614219 0.1996133783217769464 -0.17324725520009498503 0.074094998122642974359 0.23189647948618244411 -0.21426603748441996888 0.2521606564474917489 -0.094923876765588638404 -0.1893284839474589365 0.182588546332778906 0.034112892039075519424 -0.29805239018299933829 0.31597410932771974323 0.12366195193008670816 -0.14197764839454460328 0.31520674886062599596 -0.18781132079137194402 0.015109891790603366055 -0.010480249779510057706 0.31865840624835617412 0.029786977814611082654 0.025696252910393006796 -0.24469571212035215457 0.0079854286909930398408 0.25466214972868489452 -0.35337272682738801732 0.0094961141943923042807 0.18061583450513807314 -0.21869245742990628401 -0.010059965169902013171 0.24814981722730408698 0.0098603623241550527462 -0.051501379676474029479 -0.21853071072059673807 0.027299326878392995988 0.26013942657410321635 -0.13181535121057810778 0.052282364239285991636 -0.13553318543211581582 0.12752209174793910362 -0.12701464322705677268 -0.038716198959618246256;-0.086300612680020968859 -0.22879241373172765073 -0.12245586475403483218 -0.048191556194728757401 0.29425641278284575542 0.28730247121491964135 -0.17285293662437933859 0.075565325526285531677 0.29509955878027221976 -0.10511478717362811308 0.16245335797732793348 0.30859387922259434722 0.12315442365865333918 0.29597578524598266991 0.10266278189947121435 0.11073509571277148633 0.10206417293748040742 0.32992918444143520817 -0.024040434621261205089 -0.24297540716443294384 -0.022236764598219126154 -0.084031962628659043202 0.2624511465811533717 0.37213340562760965913 0.20582443890769630546 -0.13233447511500634475 0.040060626840495425216 0.263835883400408866 0.12881356164095206229 0.16595860272849816131 0.28762890749702635373 0.097412927426713660783 0.041170766646428672009 -0.1774742308106666 -0.089206497808653806292 -0.020748186722877638016 -0.00050283943477241960576 -0.16622069161766706014 -0.07797980903961515553 0.29778687876293591374 0.25573411882031593656 0.1210806325488005819 0.068005181009521992186 -0.10163894779454493711 0.26377001973841757154 0.24384939280135300987 -0.17527018999063256888 -0.23028317235785919492 0.2251929849221026847 0.23660898519330131329 0.35309880915472435792 0.13495404224353144129 0.12223633913115412863 0.15390151142879673896 0.18781041050347099808 -0.23281281964263045303 0.34036374249566697658 0.034728074850436163601 -0.22331689116668676509 0.26070701368985260693 0.27270855767849039308 0.17782435115359634947 -0.17362104463068953053 0.30985429683217902141 0.042365760041161742988 0.22493515189455998149 -0.072865588034458694811 0.22718483783401269283 0.069515993904221945465 0.090311499492884111939 0.20969284521079678552 0.19266083167752348637;-0.15282338158612285284 -0.19783864822240113113 0.22499903872476031963 -0.17838727943824556066 0.030304231024196815608 -0.022992755170572212742 -0.18439048453012890638 0.052763321663617412938 -0.19478019393984813412 -0.26883008859890450415 0.23618210532397027057 -0.13458950818987208686 0.16910958040187001883 -0.054648632819223677548 -0.16755137945629294816 0.2117599027946578949 0.25780264153435739072 0.11605058559185538192 0.24189084545573666385 -0.12636613147476788432 0.0077227444586781450811 -0.086747002937494294139 -0.015810909082799806669 -0.014740090105732695999 0.23643060205494628723 -0.26918230676931853562 -0.01577219456673402756 0.18227388376329259345 -0.067500747296902474659 0.10142609367425191313 -0.24893105930741191156 0.21288724777428585933 0.024369171583623960159 -0.13280976041594250159 -0.26508744400204165004 -0.25642359243173679095 -0.026241678485990262842 0.31208787833848389281 0.1179189964415862657 0.043116315663641872902 0.17725086631695630146 0.18486679371707950836 0.2175527886224056795 -0.0071351909481435511068 -0.038027816852040041695 0.068123558675769926851 -0.21176989114398211966 0.14283562472599689586 -0.26094955596109936646 0.047978181985184165104 0.23933532192760434421 -0.008730011396938679169 -0.21857029369997324486 0.213445758108378153 -0.28198891490517297154 0.034332748986478922593 -0.14401021765292054688 0.13024067183133963832 0.1512755780239745107 -0.038529394106046360724 0.068486927682677931073 -0.061977529113080936929 -0.26260096205226673982 -0.21139916685852294664 0.20275006885735827322 0.14441413061102312265 0.23199742436609677165 -0.28308461504356763339 -0.27483172453850263084 0.17942065805234827525 0.20272168828679229535 0.10143532733863333539;-0.2545926597187385676 0.21292286788785355633 -0.16848514594598199001 0.17543220565626294061 0.14824777712777900684 -0.23633994398953725447 0.022904811816469989455 0.029027161452110917389 0.24666830196229697081 0.20833479681987646104 0.011688285843488138357 -0.11371239821419033833 -0.0046295265899286017555 0.29096499661988650676 -0.19680836616281005558 -0.15224818155795177832 -0.24800470453418649308 -0.18330317438160320664 -0.21118295076990376002 0.066661172747020450147 0.12026028339349494056 0.13416950313530892624 -0.10948562814426807122 -0.10833955266460737477 -0.010319939154547390706 -0.27185579915620483593 0.30037744538536415018 0.036186430584911208341 0.15172257011561435247 -0.21842931378631222361 -0.23438420498672754566 -0.13943742105076709081 0.23471073670186293203 0.1926988320189293169 -0.22969541432947290782 0.19767643354802164057 0.15235972408710588 0.18376709411622166312 -0.033048494847581495748 -0.012955468229313619674 0.22285231441666336627 0.074608871224349532225 -0.077364584541576492116 -0.16164781796267493896 -0.25126286340730230595 -0.16742467997537799351 -0.17490294658984670284 -0.20486834569019543584 -0.073132854080459455681 -0.13481864783140884434 -0.12515389163629692115 -0.29874158719064169976 -0.13805327197430586339 -0.25998644320118080575 0.097077001345581476199 -0.079020999946607703435 0.11494254025847117084 -0.18275720254337424198 -0.1567882279143492652 0.28485441990587923033 -0.012952461874694728289 -0.014089708051607849337 -0.012778056168048074898 -0.081257711572515226028 0.25385000690079312369 0.14240700576874743 0.12093708354627288881 -0.25658095379672979375 -0.10506366027124619533 -0.2742122454029529699 -0.010547704931685665877 0.13789952017149151309;-0.18033200235665267086 -0.062868631743171282666 0.039284817540896306565 -0.25250055525247810939 -0.22595953050234138249 0.11753229999350789381 0.16747654374258699739 -0.082675816736986623701 -0.25662107569176612065 0.26023247683347788817 -0.10656836413770688632 -0.23821718910251810097 0.010442491160545755435 0.082542665185711461273 -0.14685483824944670084 -0.21507927936483514642 0.16011368681743856635 -0.22498482829154262119 -0.24352491212784310726 -0.26172429581412687272 0.065927291337744400868 0.25963060351305050633 -0.14148693523780095371 -0.22240797842038317889 0.073719876156027042136 -0.12560207414330357145 0.26206595844383678839 -0.049448929513438620587 -0.22531319124984430791 -0.063963392795483978159 -0.1389634743103129455 0.14224819918175363176 -0.13090718543151808051 0.26749896307608717061 -0.24846319941000760689 -0.096491170274408483154 -0.18897747139062623378 -0.0083092192913893081485 0.056630832118527991981 -0.131972457694234796 0.21650527623329168803 0.076986837547260780767 -0.25550409974324234108 -0.16064895930647707378 0.2582424036504294973 -0.055562876305025744872 -0.15846266224811350609 0.13990248011191383504 -0.21195702772464344865 -0.26347395182153782178 -0.14383068328934012214 0.24722165765254786041 0.22108700690401181244 0.13224082061200045923 -0.049168027427205912572 -0.0098418853290452440463 -0.056712379081812536175 -0.17272654724330080422 0.10876739388160448774 -0.056384493038214258953 -0.23201629319608060853 -0.017601471729566151025 -0.24997309169408615803 0.22046710378967923627 -0.1650256467813307204 0.13554731577324596881 -0.23741794096886476018 0.11103927224585853628 -0.045305025392673378692 0.27549696553971597668 -0.19926076449541615943 0.039790734162197818891;-0.081132082773332156456 -0.15247546670212508424 -0.26452315181894930918 -0.19597562139636945377 -0.13869196726457855284 0.16401278976816072164 -0.26979741362255660331 -0.053110678527318440356 0.013525708981398796432 -0.062292777685912778529 -0.0038147580958787603508 0.18202717829960557427 -0.14702723811630630246 -0.092379682357835904427 0.3066522114358534723 -0.14275587814007875687 -0.10162603416208113027 0.21273731455850322658 0.27422693136708808925 0.23135726143614537831 -0.022695690915332696058 0.13434244925524974068 0.11421811231854604729 -0.30905461158476321692 0.029157105291417306087 -0.088721506017407636424 -0.15691408177066695773 -0.2673285653858167854 0.072010557604946567878 0.016606036104568490386 0.24500500363804578186 0.2537267281702567101 0.16781754966275222452 -0.22438671167582996402 -0.20529517212257755721 0.013808086588047007587 -0.068915692041125617417 0.032763430012188510254 -0.29543703271299542878 -0.25209655844936329494 -0.27249382972637387068 -0.11681481590031272955 0.19895371327294811281 -0.06908196826467767615 -0.19914162888779909921 0.018846306524201616311 -0.16221711313673675692 0.10838403227613224722 0.26364568504815544259 -0.25889377172485122935 0.0035687319781454581932 -0.073103638828280831374 0.13440954617592609788 0.12425093895765620955 -0.15956010753647556499 -0.033405955790515452775 -0.049092325041006884545 0.11634688366804581128 -0.23447895518798722581 -0.32130426579150450639 0.08018523901894129835 0.23326070601679393945 0.23230124578302782656 0.0867436951921418814 0.23020310461646742439 -0.25887427469548746073 0.037653661137011872062 0.17443753712250711918 -0.17221921173048493348 0.070357854335697467274 -0.0076744448464341500846 -0.20699495665345785111;-0.319716732493997291 -0.04711217214929848407 -0.2763252514555714634 -0.18995578124829051725 0.15653715521544217526 0.30523084088417412607 -0.10555601249323738611 0.30286149546825053003 0.0011393794720726364497 0.11840198218046872614 0.23767813083907948779 0.035476521934617179233 -0.03301400897545381935 -0.12612161859132614561 0.25966309644249041533 -0.072099474257143955636 -0.020690256775819027696 -0.16095526855884889628 0.029693088526210588418 0.01282424586419848335 0.033907952965287209424 -0.18114526099112127078 0.29440788519745619833 0.0012925244464765863611 0.14171769680226103949 0.2614070129792471775 0.072530607730012394696 0.21982823677671620155 -0.22993531560423041693 0.12839453656601637621 0.0041281260067709928119 -0.16474861579508526255 0.27590776245311843251 0.11694995041846564798 -0.11591735910018365063 -0.012414634041604630244 0.21386409146221294075 0.21279706738423476153 0.280490485145791002 -0.1407338834096135971 0.15093357538871762791 -0.14170556646604243189 0.27734774094376002385 -0.039064102749391912961 -0.063939263757024564216 0.1209762224569862904 0.23039967665786403872 -0.16387018975786285524 0.14480842852513042818 -0.19653181364260574604 -0.10979256508898810329 -0.022049419164173775926 -0.19309390601078554872 0.10238761452545187824 -0.12137273150299894564 -0.12050206677626310037 -0.062286355656822389726 0.26241171996071355199 0.25633604203214183093 0.10558992549658786919 0.093776644596899563777 -0.19916147232009112633 0.034373458194199589533 0.13403222490444588466 0.24509268239799872346 -0.24071765929950306173 -0.22643751524924521368 0.11624843596605473339 -0.26188401900320962268 -0.0019981101332837477441 -0.19928505209030392131 0.22779804191017705151;0.20510995657949371296 0.16214578945149846212 0.10369086918684690402 -0.036923180090004913134 0.070424264437355013624 0.30512122782513989572 0.15226394720620226031 0.18857380899193079693 0.23948657012741622618 0.14116710746652755271 0.17247379874722304494 -0.17762173976986575519 0.24183679105638414275 0.25170212295669242009 0.22471559597555465504 -0.21520716839278264398 0.020114678295992855644 -0.2544417699324733606 0.29142090533624692705 0.2612014814080180769 -0.052797141462497344799 0.24564195528940618862 -0.25243100185808386993 -0.02877207369383289956 0.12073217854655891867 -0.29903554851541436221 0.19435804579840920692 -0.20356532070280675129 -0.11883632589513239142 0.17178589321740628248 0.0012978228302543265687 -0.17252532460612216014 -0.097247909113335792575 -0.072599094607503383836 0.019041345428414031132 0.18141342534829382749 -0.017497298015409334937 0.15572847388000538027 -0.15223197020385226264 -0.24387683521810540888 0.13337612020962974491 0.23308250952197240302 0.10132881163331154684 0.15872758281593499219 0.15484784693917927334 -0.038413541901913955678 -0.067398672183052274476 0.049854827623247562063 0.019002610218455652513 0.071742921422552036192 0.20243624317300937254 0.066809448539739080264 -0.21297741233055678123 -0.28266066510101017784 -0.010074181623931309157 0.23351733277878575223 0.12035102209765720371 -0.28471948876911229442 -0.1340764621505654286 0.080866135872244976346 -0.22149103078794424304 0.15550080817270256484 -0.042323649501290173947 0.2945727133049115265 0.0021203291496894849898 -0.10027210856310038445 -0.27589101345497257789 0.034688518405619477025 -0.27667417020119838833 0.075480629534424428795 0.14585632036063414518 -0.036818621309226889915;-0.048849760624698805589 -0.049640926838203668081 0.24973304982598681923 -0.15803558453420377128 -0.19472584155976807585 -0.30705038715413118799 0.10763967580301130045 0.28501831649544395741 -0.13036227775852354815 0.21676532855613583894 0.19200873700311685277 0.26129853698152427643 -0.10127908979702898717 0.022635436223841034348 0.0026106014402520827736 -0.2030235878925043258 0.20794800878891514517 -0.21617208442169832949 -0.091382728289735690175 -0.25561620830674181004 -0.16309924311913490125 -0.15318383439589305928 0.094047313839421914361 0.26083731284709932297 -0.23859454377938615899 0.29570591435828535998 -0.17605748876190865926 -0.03376118422012605591 -0.043914872857989645238 -0.096084131181851675785 -0.27381034063724496441 0.029272631476616860907 -0.17896190434372263867 -0.19613012834277254726 -0.20888326324199202322 -0.051302322385863192988 0.14720439123476555809 -0.20587393951512900081 -0.041167091274034402215 0.091573766363097858223 0.29297148163953967703 -0.13409696359347750283 0.099437110881607573831 0.080016475813223630897 -0.22856756220916810141 0.24865067088242634452 -0.024730603592157687776 -0.20151588622556443342 0.24456410227729413753 -0.13813731984175220413 0.17974861571943615002 0.1050130799908295387 -0.052825548740928013336 0.2029746714825101106 -0.032736750593190179492 0.040085805315851659458 -0.082545895731688939678 0.10634830907486259033 -0.20632697559710475033 0.29734284664608684468 0.32469282045022218597 0.07307149406068660924 0.20964314644726556036 0.0961178762827518407 0.034204656253826931644 0.052186904747720752606 0.066533089003937354033 0.20317899034125438962 -0.14415390014777346162 0.34974201056343989791 0.23577944914327556014 -0.091147849314954648703;-0.17469676891892105264 0.032656262755892277727 -0.25637884781202990858 0.12737253559351938148 0.32336019757014111686 0.17313993560495269386 -0.15514798300148399668 -0.27613149330764319433 0.25139826362994444064 -0.10332036654901000094 0.18836389701684200237 -0.25796569967362414921 0.15310311978234714125 -0.19968973926525485085 -0.27906429683415623355 -0.22466725627374561913 0.17904821701496911879 0.16205246699603229055 0.20073728463635717723 0.15175392614702251648 -0.23860768805367535417 0.33257111484804663393 -0.051392927162341082992 -0.248000065983775414 0.15184193196497192124 -0.064342016415266919949 -0.014835510024327067807 0.11960571911967302072 -0.23531008634155214931 0.29589733326579947814 0.18781229004799707138 0.031373649676224586724 -0.060818887681195130113 0.096403389252969998169 0.29929520732290304519 0.09998632390405047532 0.0088929331456866159838 -0.2934821992683094849 0.078871180717705907659 0.2680422981518774117 0.19606591424108232857 0.13725196672539333176 0.16731960691425379339 0.2834586634992455334 0.12902505733318225811 0.027333059740150739136 -0.11860157610197591405 -0.10330252349283872149 0.11804120029457464136 0.043519905996943782089 0.31130969449223550027 -0.29220770697429970797 0.26346482457765502128 0.031776193881038278244 -0.10912425787088443629 0.16568049729784997681 -0.013581811466280159506 0.12523446010099581471 0.19638154274806263189 -0.24209209484175897575 0.15905479931331673038 -0.097012603453017959287 0.040501278005796635673 -0.11676083112918124451 -0.045330733951362410517 0.072880132659292801156 -0.0038367958484138708908 0.26643577108254773433 0.27669603603074471865 0.089225730847873843676 0.031508235625350926312 -0.077193605367662329608;0.17446046419111838066 -0.16553898294210905862 0.18881449155346230473 -0.1468953181117261253 0.26976813117553000154 -0.15536800026140368258 0.033579411035423015197 -0.24125479524191903447 -0.20567064797212747385 0.13689293422745724138 0.24296533944038553599 0.15256760020837881187 0.068247574133682709085 -0.29142400119431188799 -0.2310067426045733785 -0.29206154706614473326 0.17273621290379087556 0.042730638213310398466 -0.26014708554539472951 0.22526731776107153382 -0.010258292576877233934 -0.14084927901189966959 -0.25515434425083050041 -0.24189731499399669268 0.066380264841741809523 0.19045757580647298957 -0.08337961367990545658 -0.24665346963617287845 -0.22867062982828903484 0.29716562373996191493 -0.034199225578932963832 0.0076304047592759488908 -0.089528654222209028135 -0.1035816746594103166 0.043519555428997484803 0.18479995299582008261 -0.15967836687669645368 -0.21271727221723343848 0.056779142085185564659 0.30800372203078740796 0.011514534448608868683 0.051335713110727147768 0.23045632892901449229 -0.038812297027218764511 0.26963788580760505997 -0.057669146171777485588 -0.28651471764853175817 0.058702523313614675404 -0.21309619458145659388 0.10652706794995842055 0.10814667815439621412 0.10841441141009142135 -0.16357110115963766073 -0.19534113189839494296 0.006072774328353342313 -0.0050165587235381078543 0.058431026485958652283 -0.1552710146995440188 0.17168674578153569898 0.024484245758305073215 -0.032498532843305651119 -0.1771357598634311914 0.2842279488595730319 -0.14192007256336164334 0.092639132559034748082 -0.16076791311538224383 0.074773630813779939919 -0.16832129664818221149 -0.15698152009357055348 0.056149863186045582963 0.044862003518813128866 0.27919676713059032869;-0.056446620565354432841 0.25119699072053613964 -0.049363848314992034294 0.12899049614098487271 0.19250448439151002233 -0.074642554286280665687 0.22240634197469158484 0.025170770867019187644 -0.1293890400846642863 -0.1251286350362997013 -0.014547670068646869831 0.23770530255450200707 -0.14444187865568894336 0.31023453563009983913 -0.26156381074609430515 -0.21467204783965762593 0.24360891558967420756 0.18536347659383309305 -0.076400057157625461679 -0.16636791899978822795 0.048459186827905370576 -0.036213371882442113581 0.22915136871603900004 -0.1014682089458010944 0.13835874111498880357 -0.035676955929422042579 0.23918470294539723175 -0.080753395077085080023 0.19828072519076339608 0.23713716927872671714 -0.18733048579183619875 -0.045288273385388357062 0.12143602990728742663 0.13703875202366072594 0.1784951893574351911 -0.0077781317531895842465 0.18109368236913492289 0.027464774186874763018 -0.26171339038788776765 0.21060615767670917697 -0.25795081296830363327 -0.22103803707564889658 0.23887642319924476397 0.046694161228988805001 -0.24289534477752081076 -0.21038852302580560161 0.074755136680450903763 0.025015124436433552185 -0.030159074630355282853 -0.22664502226113342198 0.21453925725784961376 -0.28208352016982879418 0.22311325801874148933 0.040731166130431935291 0.17733222938244450062 0.070350896879104715675 0.012776856350575464122 0.075355365397930432203 -0.087426736255968265366 0.11204631183431139341 -0.27804996134645476591 0.16612713712644283648 -0.35055871365257296191 0.23525141366660662356 -0.24204876255363819149 -0.0266113883952575625 -0.28423404602949614572 -0.29437570367001586469 -0.070855267752493594768 -0.29615431461831859261 -0.02903825734154381194 -0.22222780126518598687;-0.2684435303428613917 0.21988346494349289562 0.25507868628446622727 -0.29565588357960437271 -0.18038904667865879317 0.079405174622799737372 -0.25305781357312856494 0.19630295261184746436 -0.2575702101533768329 -0.075976445158858901818 -0.042918053986103772701 0.068120108465076711912 -0.46896377732011407247 -0.012529706782670867182 0.0098764842165796843526 -0.16538479969440242345 0.21572374169049191028 0.054136651945549722764 0.10265753295181027915 0.092944905809455385937 0.12596085264670481285 -0.26730122968052583143 0.099271135135277521755 0.039883301804365570153 0.010900763890535944411 0.28181672343101094036 0.23385581698651891625 -0.22039874897407202292 0.13003800671138784906 0.27124624279389014658 0.12413216983182195907 0.052472273242581059238 -0.17309103020656974037 -0.31682352981898181943 -0.20527320960004843964 0.13384156849979272907 0.41013742696305166557 -0.30932689133837681927 0.30396040134620977424 -0.17106480268399351652 0.15546869367501703341 0.3265445186628467833 0.046361972066586459862 0.10477470489044689306 -0.19677104731357178413 0.12070878644827495729 0.058559543098937322236 0.026299510569110597091 -0.20332562422866581886 -0.060526506440364634398 0.068342300705260192184 0.0063270431671654490946 0.34114594287750921175 -0.18639631350437249613 -0.13958564460896258352 -0.045861117120326130858 0.27656173003720546655 -0.090662856695258878248 0.30695955352287007667 -0.12671539294833597533 -0.014472232253891763321 0.2784416597378309155 0.27900067301672210052 0.18261431983486731134 0.21893263443070914986 0.026586401786495836297 -0.3162142937478008009 0.2158668401780975965 -0.034994674815613496799 0.30382722723267324705 -0.078522804295455495005 0.31296745697616951132;0.29176909208646728544 -0.35379970982652808598 0.0044546158251520927979 0.038286103464651992379 0.11408673863579674168 -0.10880365287458794443 0.29420389611208430658 -0.11601362465472173091 0.06270177282245346928 -0.11483702242942607497 -0.3808335709986063744 0.19845060578265596996 -0.18917852965651199559 0.28606779128036396997 -0.14882979061864770598 -0.063991652682267169405 -0.017873786015907510566 0.30534679524388042005 0.33173776052270514958 -0.080054912566532368534 0.25859712362275821818 0.23072360087844753784 0.12755434483633684706 -0.16741056338265217218 -0.20026160613063528904 0.1703961459892560093 0.14405752205358018925 -0.017761977380854436503 0.045678008575159349813 0.013845907188803394106 0.11302921645502543579 -0.13702096608800945488 -0.16387904980526118992 0.29803821488063003686 -0.21046074947793189103 0.094014719090109097333 -0.25321090875873247805 0.19577055033179152632 -0.026083714940286575196 -0.23930523259714880924 -0.023522696273065177297 -0.12849325730013119728 -0.22525352160904463239 0.10088153486495006483 -0.19434314669294519562 0.25303267999438555647 0.30446178316185762425 0.19121105042105834837 -0.33369030601521859625 -0.20790878175458268884 -0.2559661789416914357 -0.23782211822155044367 -0.15145742577980320087 0.049677386303441734006 -0.23386188320247025541 0.27898251138861801524 0.042183134966919832998 -0.0064872586859516107038 -0.13870824413369153838 -0.040507650955354822242 -0.19437531329807514191 0.19317032940891096238 -0.30636425972752862057 0.00041725710259322848841 0.33615319938238902298 0.25790383677909672899 0.1155487118635886018 -0.046351492983118976199 0.046048016685907619538 -0.08196324766302166831 0.26001781951751284927 0.16121413822124139315;0.24254978808120156164 0.24841785003544919475 0.12209795646640327071 0.19850754095791001141 0.14283641240855066146 0.05643655769074656936 0.2851582177200608359 -0.054511659803621964615 0.30787076304371152613 0.27169614716885448491 -0.27906945357583651246 -0.0044724170450343107147 -0.10441941063442528037 0.35257431835270036657 0.21260663781460389932 -0.20538735805248392596 -0.099629363419693223181 -0.19371562094676736399 -0.083858207215076127627 0.24026968048234609299 -0.27242299748674630999 0.26441986527787386674 -0.17178174276589874836 -0.12633239863931944313 0.2714182365126458496 -0.078448649308811152503 0.30082719130838908583 0.1311104918143700393 0.068644436189380833579 0.055981460132969562693 -0.084577384341190692263 0.032628936302759328769 0.24643760358507132979 0.22193861490278338211 -0.16320647192770212919 0.15742093436401502493 -0.36746052534933598688 -0.085771197571609433807 -0.39884336401017334017 -0.19852751183977576654 -0.052182807734928247922 -0.00067751126154530147416 -0.30811282260945704881 -0.16112798155481664053 -0.082632939516582043504 -0.11046281405209822102 0.33239930178333837452 0.052694090094057760565 -0.01817272311511795857 -0.26024340560673309142 -0.23066893146870140474 0.14969241835831639809 0.23429438987287318219 -0.34281320372541246311 -0.23122587104465402996 0.30518922038483681236 -0.14681281662270698196 -0.18963978967039096801 -0.028892342556780449547 -0.17908465621640559662 -0.12465748942655337228 -0.13006652979854191332 -0.23617756126694103291 -0.035154880455113050874 0.3479376748214011994 -0.20937168027330813058 0.031219099375099260835 -0.26378398313024453703 -0.16812509380689771854 0.047667532347729316133 -0.29802236840180040822 0.067718103933844753239;0.30473098309735152656 -0.061979182283038773693 -0.13251058197961915197 0.23168769668521835281 -0.088650596655103344745 -0.15677189961802787121 0.06788102875740760489 0.29130465466782601291 -0.21103050806056322664 -0.028490915299750840806 -0.22238478176321815893 -0.12711368256260713316 0.052860734110948472131 -0.21088280587050420301 -0.30017464615351613366 0.078007770732111902934 0.076864646385555013275 0.15746835599815928175 0.26938766936696684207 0.13423224193723362618 0.1568227500243941086 -0.03071434305675809287 0.063978086182047186337 -0.26403980104551316721 -0.011717395479250589108 0.25543276955179416987 -0.12308544607570810758 0.29736243215174323895 0.037155774438142476213 -0.25057946014143855917 0.084348567734048487954 0.0032760404022805712961 0.26034083596434448582 -0.07810742911389376153 0.29931333253663150451 -0.049424667196582380835 0.10282447457053764395 0.090983292423255479608 0.21094146953726827798 0.12248746360792631127 -0.13552974786576546529 0.08471035680112490307 0.28770183576277763571 0.029120836803273035531 0.12874425723031263091 -0.19336067471003989815 0.12754383265350663357 0.041206781527640561069 -0.098913903593470686726 0.0076876931157619250029 -0.055906669131987753174 0.056841262483442400733 0.17648348608684732985 0.028438248797621530628 0.25027441958067314642 -0.19382582743756840427 0.27873148287965293646 0.14320172184756688183 0.26061036830958939081 0.17100522617758401323 -0.20528172014001036527 -0.18427255112982807161 -0.26743623588766823884 0.24085887878784992266 0.18890618040680340339 -0.003996931584712770831 0.15779113296535102196 -0.24474221879485613673 -0.21957065815669540854 -0.20745484697667351814 -0.0458935296015383562 -0.065989628828651378245;0.20382619723597578121 -0.18838158204068672363 0.2520491209856194903 0.19085207248931296276 -0.21137701376793263663 0.096030663830024995398 0.11835524516560870512 -0.14119300876534993106 0.22836300784600455094 0.1344833537245440358 0.29084961234529965735 0.23027000246155049368 -0.17541405244440980149 -0.22068455892713326194 -0.11892501138830270657 -0.11353672785216026297 0.19476267358929857942 -0.27578896852813017393 -0.26625606595189704739 0.2730425723176679309 0.082723408348617230579 0.10493608881051161297 -0.10083596335238073638 0.020729506649683416414 -0.18894004015249543649 0.122198692726699365 -0.023338289093928658163 -0.16758430628984824495 0.061100210879885118176 0.098764112645981227967 -0.21198557840693435517 -0.30255089727804296285 0.1815042087265673898 0.1851592419819202695 0.12534784225424636106 0.22576519304531383892 0.23711908205340251343 -0.080664233787245062657 -0.31175487069340790391 -0.28569893816574265522 0.16009919956270080021 -0.27903521557200511305 -0.25304965359734421515 0.025720365244478925193 0.0022931312813790037664 -0.14427453133865439372 0.28838400693245469508 -0.0032778534760430026035 -0.15159562908392526515 -0.066646652578479098628 -0.23523498650100674312 0.1607603413267339465 -0.077755417783369001894 -0.0019664425887233180287 -0.002648040019936947001 -0.13843310305461370424 -0.14696476792929469291 -0.27032983064744692259 0.14919434465652700594 0.16552328792836246141 -0.154630348965220904 -0.25351951443882325687 -0.1665820051936061641 -0.20258989587015882594 -0.18305238267303358679 -0.18192530046220872775 0.15613294520909537511 0.082320406548065966357 0.013196435465211408741 -0.056058168789965986956 -0.16736060894493123841 -0.12553167133610654282;-0.0042151667854784490019 -0.23519784143829877698 0.13911251153434625594 -0.093002381905036915488 0.21854093295731830127 -0.071107753847396371061 0.077534377294881301479 -0.31676375939231760093 0.12200889647423947271 -0.11764868589506928542 0.005563766192850349776 -0.17860082573211080725 -0.22179948357330295239 -0.24720052409961904005 0.16822721498793780093 -0.093020793265735340904 -0.091966288689775840814 -0.22556322360696670626 -0.13507210935362373716 0.18150523318806632833 0.22591768763534814113 -0.20018644194852924789 0.24787150165658969336 -0.29807730598152770707 -0.31889898676510297637 0.1418293351307010064 -0.28200296540049796246 -0.24074606713735871577 0.056460104461620433391 -0.22136601407404465913 -0.051206803552389067169 -0.16746404720839369595 0.015630079642109488691 -0.10867748877516052175 -0.3361453282905292328 -0.056812184052561408298 0.18752395093284465744 0.26508362800707285789 0.005448459154230644863 -0.19538189984408929623 0.036021986329364846791 0.22092907654556157016 0.038297074937623187818 0.23278974496623774937 -0.11584472382653124289 0.26392040436276198445 0.026128644962036050997 0.040860711647740841079 -0.097409060686583642807 -0.31362522023642114277 -0.066410782073725777019 -0.02374561716762731492 -0.22594101444810313351 -0.29505639174293019078 -0.29680495119726302278 0.076516174490400490349 0.029804532027562780083 0.077135248240414136522 -0.3082902688128835722 -0.29145899162608490673 -0.0761835632640078253 0.0081018982100823505599 0.15797405025264016354 -0.21369718205765944607 0.10983965709637080743 -0.049758823443137818743 -0.14586584662880516805 0.10669011890764132366 -0.31199273563218637983 0.071408449979555768672 -0.15705325821726895397 0.018603016865205043023;-0.15132874376344729317 0.035230486695727182556 0.15178937127111677419 0.14920693939833634678 -0.1308892975479451215 0.01460762107623897639 0.17571657722201111662 -0.083951244382804837696 0.28741946606458390612 0.31142582688478326336 0.010076243122660574758 0.17915530645080163241 0.067933517023406359003 -0.16497652961184641751 -0.14507451351264100126 -0.13328806473213702932 0.10285345359522317377 0.16525989958045081418 -0.31747605700538189533 0.29799526449465280065 0.22053766988508749503 0.4241112512952279201 0.027958361326354593673 -0.036032036641779362218 -0.25372083067433759407 -0.061758472003988477972 0.23073490155101084031 0.08533097460484098673 0.14702729375322698413 0.22771919305081020357 -0.10403163042295676677 0.1312442269474425327 0.083525167232161662279 -0.28733840559581119711 0.29050897178391082987 -0.17110120912192469667 -0.18330655202558993055 0.4187331390688184829 -0.12452329639506651282 0.015200886428577187887 0.10462010633204220367 -0.12395577594916351583 0.19144126581068660053 0.32529128517694988476 -0.20880548552418096153 0.1596917552389021111 0.094790762018481272699 -0.16664206583421262153 0.10278460898185996786 0.10149029030547609964 0.053611927003173763528 0.058959593249742092702 0.23544930804268579538 0.081669588372647497487 -0.14908460773183201953 0.28744821292471617324 0.085466769267495620865 -0.032083365343126141189 -0.12134186407550487385 0.089605474801156326237 0.27170528156156786848 -0.00046237275613885677958 0.21206984385198171528 -0.10643697680266238359 0.01565943125963871474 0.36945587188969863934 -0.18360662981318021103 -0.24618632685717928288 -0.15671103971312722036 0.16914001267330547318 0.27601190855026341842 -0.12213223642990758688;0.032127637862096644628 -0.017012601280166073092 -0.089266001370757352973 -0.10902707313715503945 0.3181092496346840659 -0.12052525661847918181 0.11016848692586210523 -0.073827615820319297812 -0.25600230623283054543 -0.058114182013084235423 -0.027120988045572259895 -0.35867946778549519848 -0.20751333228917995255 -0.1672854928187565704 -0.1797100189217803734 -0.16381976000009182415 0.32344447571476991898 0.33386948989653908448 0.28650117196846031087 -0.21895568117322863899 -0.12962194615902403183 0.080715643017006177828 0.025105194524395545164 0.1306460181835765455 -0.23743107744820671212 -0.27005280060774305984 0.20084919831096431642 -0.093504234922876905411 -0.26271989788777538877 0.024616905534623253343 0.29536014494729073698 0.29872356367474534045 0.00451337701183515249 -0.11727332167473784874 0.11173572707933553116 -0.21329260195534333056 -0.14618638379968751373 0.0059104419509983414927 0.077046345822156997452 0.029341299360525725098 -0.22405557189808242291 -0.095512699200751477457 -0.31067172125629266555 -0.045315224761661235253 0.11529631645326902933 -0.057615470634605266131 -0.036846064186434067389 -0.050522241972133910548 0.20204681385888972889 -0.21673881231640637623 -0.14010179072138376211 -0.050819975589122323711 -0.31501786867867459518 0.055787428396629916427 0.15279561207619798968 -0.018123273716178632531 -0.36410048465018363117 0.038678701520326486119 0.16018218709712836456 -0.14164587982982906889 0.23547669078811445109 0.10066102130052352603 -0.031550850426770575552 -0.061421944280999861421 -0.029471866248645575692 0.28399404603086558785 0.34839816364822340233 -0.21976901290079087214 -0.032309683285296382504 -0.21195690678438039445 -0.041715641081261613243 0.10242642030091354821;-0.086909441438998841223 0.32370674358661671866 0.056005810405736475288 0.17676363388457930204 -0.22365126022929696092 -0.093844527246790765407 -0.25967262444266742127 0.00317886884683879576 -0.076747663155643019994 -0.31660973727989905058 0.20344565041987602849 0.24410116833051662133 -0.054450179791568784071 -0.24046120870331097463 0.22583634772587110606 0.18505634013225197299 0.061140985831167025955 -0.10028791513304535776 -0.21820966671310809692 0.18708504735435499411 0.2238403062340487415 -0.19002236182285392463 -0.036426839616751895135 0.23187952142741777295 0.044818683883337831486 -0.13823119191463351108 0.13691033113629513807 0.11609912000400152143 0.3122236374136109216 -0.26515722614241166166 -0.0025324650986627539849 -0.089866679828398604579 -0.31159929552872722702 0.20179638675191666208 0.14963998531258609903 0.044276739136423680365 -0.032143902496754389597 -0.20969096756393132419 0.045631937644311490465 0.04014883826002345335 -0.18567474337944334106 -0.16307876504577381582 -0.2115545953243579691 0.12613512866164530712 0.1720242370620500838 -0.24425813053151190779 -0.14264004306886277074 0.18777183460961255346 0.073524348863760927153 -0.30978510627347233264 -0.14916627688550926356 0.14910595014269098502 -0.31504140206543884695 -0.26826333572591742893 -0.05391110407962214357 0.013006903719880369072 -0.22547564152263599446 0.19382809412009013861 -0.28658517348597012386 0.20359567813949736026 0.12331049274208362443 -0.2513942179413945488 -0.10744268686427092818 0.17451296077719005706 -0.13220479630255743686 -0.058716318690535271307 -0.046193741403329109663 -0.18903528031363242556 0.23942820108287163339 -0.066348204451633946421 0.10278549056180584509 0.034608523920012193575;-0.20407435480702321162 0.22161831950209062714 0.27648298473088184224 -0.154249701337841022 -0.14694087437674829832 -0.2930960714024514191 0.12810923313306102345 -0.19913642984594778773 -0.16777600618064811289 0.0032321588427946688557 -0.28182805276904776548 0.049423612856403877081 -0.23636151122817228298 -0.14809529844766647355 0.14263176172433314481 -0.29028461006092898256 -0.2318742045866309387 0.077404054164703223195 -0.18790154800604078056 -0.28729156661584642762 -0.19837713429107167729 0.22577930102341237095 -0.29127271982225244606 -0.082477242340771847462 0.023136456704026010789 -0.30011375523534677967 -0.016969927048285652488 0.1003511898173960748 0.15956250151093287482 0.13858150662954918375 -0.23774038045975434685 0.14266788203038038851 -0.1653647670239568046 -0.051064707806821492408 -0.026081253645113884609 -0.049876983091490155464 -0.026128919456560872892 0.15936589435310469232 0.18812147838110096498 -0.25167861493928328498 0.25449173690481791121 0.093327091735386322191 0.05465980774068920911 0.020499832750080510674 -0.14696991339525594666 -0.096809809248409026128 0.14707554499633987422 -0.071796239786512588976 0.17168726114036408914 -0.29198326437614152695 -0.11921802499401937259 0.10896388146716826095 -0.095068741551201457751 0.1245784584528395883 0.13660679083291807356 0.056449258029333017339 0.14497706067050947221 0.22907268315833248518 -0.11493812494520044831 0.2027296223244775264 -0.18396168865561998707 -0.17419610258434120587 -0.15225428850114214319 -0.27682936203767732897 -0.21418409117647821405 0.10559875359615164547 -0.19865042639523908252 0.14729002201284613349 0.024245479050017185174 0.25521620095051972266 0.14321928483713414204 0.050889158714041385356;0.23633332107407012401 0.24682778713492331546 0.034183696086016387983 0.12114215556231408555 -0.13522754948617468629 0.20918484302506021311 -0.16472074377139184209 -0.23051097279771629034 -0.12746286597206493707 0.20012370286538572195 0.31880376441985236458 -0.042553213559237502983 -0.069968590429901458827 -0.011569885196232202601 0.0036492398223744795804 -0.18386203340524553962 -0.0088316071236822935725 0.20369153577793178145 -0.035871106505390951136 -0.043153580698755668321 0.16857226865973612417 -0.22570676237880862858 -0.10331429942424968926 0.27083821609349423287 0.029855153378098384792 0.24969487238788823369 0.15089858237825276577 -0.26618210621567350849 0.2008175644941883331 -0.20230248900926753319 0.088755858513716659464 0.0558735564406217175 -0.19765004623397292027 -0.19697699149325464951 0.23872195409118077136 -0.27792391717513870164 0.1500497328358512128 0.25807214058775651555 -0.021714589483760083494 -0.29969284584543420813 0.084942247463925257822 -0.22499955820140921103 0.17009312343622520758 -0.1118386844793732432 0.1275658948262154424 -0.014428369257541569584 -0.070740588621651542822 -0.095297889315515568742 -0.092882130604555232511 -0.230548366461897275 -0.11157929605193278588 0.11184537796569048174 0.2899275548361145427 -0.10215370573577671476 -0.21452551792753837834 0.10327128463676517323 -0.15998790218074546154 0.29477518948385067477 0.18239350071151630428 -0.16024493608586196092 0.16117517947339529694 0.10105751798669126984 -0.1486406490972912442 0.34844190139819070096 -0.027917568422339590628 -0.072108830424796196978 -0.2457234922317147463 -0.15449895963305659841 0.05425319320312217003 0.27866808853037905447 -0.15085666057094834769 -0.10619445291373995344;-0.11067150285366197937 -0.062873465627181657212 -0.116680869998970968 -0.17538237675486781364 -0.14852329119658275181 -0.093216990345351413705 0.13224271147395696979 -0.20506948814024511529 0.28483043203772778762 0.20048319714621665177 -0.3315935722536131891 -0.035981623085572539411 0.37913584372134306877 0.20286832084855316305 -0.093559859147509152888 -0.18432377286451742671 0.24193792454529555735 -0.12486915323959660307 0.33889542169251896109 -0.095707129724953488026 -0.29704156278487825471 -0.14018315651148638423 -0.088996543260139684972 0.29358297934892435554 -0.13045545027117180781 -0.072673409290036045105 -0.067873453541779843468 0.30969150846785609144 0.021533154948826713909 0.21462231079593929728 -0.07142769157301957772 -0.19546414016635244026 0.20650588122032534355 0.11885229843107127101 -0.082891041172512308632 0.10671068352882731589 0.13811876075541890119 -0.3637063676330430928 0.046742638185296753184 0.13034373870321572242 0.34493732501957519165 -0.2760705181789144258 0.15979506559784051323 0.067027247504022086089 0.070444601364388750864 -0.21990410799131837605 -0.044673364343245654251 -0.0015849737481259422098 -0.048043376026912998356 -0.11187148009945306615 -0.15668546525877508069 -0.14181488892161453474 0.020139989678941726259 0.1940611834420023496 -0.017821805625404623513 -0.13065190574233415122 -0.25194608257886674796 0.027923289223072064735 0.34770205646774993147 0.27601219206724691979 -0.16869020441164553348 -0.098131575490938288686 0.053069077936936333295 -0.030710546325394584566 0.09507363770065056785 -0.23089313364812802387 0.15548244210999889736 -0.22035092505960615639 -0.092273232283997363989 0.31302884858761248488 0.056821954146367453786 0.0099665411393292813874;0.062242598646810969043 0.021737134169092536817 0.069783881059434782479 0.1288686002561075794 -0.31726517060292819261 -0.14838632148647598608 0.17019124199321522539 0.089816624457782906488 -0.2985537546725112179 -0.21043112395203303344 -0.13095095468301973241 0.24368450731329110992 0.10129399547550202443 -0.19831186271456960335 0.17972746911572645701 -0.2380035530051145265 -0.29037748324521234222 0.01889715706627430325 0.15384888706986657447 0.17737700034544687244 -0.24662518907127928269 -0.13470776044971022323 0.14680704562775265254 -0.15487549450018292529 0.0020528275426872676437 -0.21250067302930816804 -0.18337129253487521874 -0.051490881975874779053 -0.1727562134586120568 -0.054072460303099541268 0.22831223782648060738 0.10952217345807895021 -0.16133352897838942885 -0.30470874113538165551 0.028583230914710940074 -0.26459432420527412289 -0.075550025476513973932 -0.40439352928353439198 -0.19625122968600036688 0.22205082412201457287 -0.0011655526819832522437 -0.16001278623901218912 0.033271545286136287867 -0.14636556141304185585 -0.1433792795105560125 -0.06775591872103983726 -0.40658689513621015799 -0.067622598570961645059 0.11881594696477343343 0.24162492528442600093 0.099131838134474389856 0.31028149486363804099 0.3312788748572088604 0.062276006955725202174 0.014014805364034089302 -0.16973347726586740514 -0.094669318926851458995 0.27210358446428517532 -0.042546148731284684497 -0.18784347304384071964 0.34113212546779309031 0.041028041460364629567 -0.098605842686942113406 0.28487115593749573472 0.10097153498323856169 -0.10804549067021448905 0.10289090275276867315 0.11449772249506838528 0.29401964438141930946 0.14192026355472048271 -0.094710460123154413536 -0.061742166022990860319;0.036077433325755754734 -0.25575824403379171512 0.30137601686177578619 0.22171625183018825456 0.21123590908181291703 0.046735949186442041214 -0.18817502005604178072 -0.041244517819398363034 -0.29566566256944371016 0.28786380420715040884 -0.18143071814273040165 0.28644670643204700466 0.013345841261184191243 -0.12330675685130920716 -0.0021555892246529055091 0.17441992450605112164 0.082553824109239268281 0.25769248123530180683 0.15115692225771404367 0.028443756231913371046 -0.062420537106931989202 0.15231767122978612239 0.19660442248619880434 0.072738028581586608445 0.3033952672868593381 -0.044692603234557030933 -0.15932171158687916113 -0.20333876834986544524 0.23463960928963528696 -0.26797784863720203186 0.1554025662194295776 -0.06577756824585367923 0.19407870059143489394 -0.16044378108524776083 0.13145644699592817783 0.097662262865719121074 0.046578809149209518536 0.14187886655106179967 -0.123648795176763443 0.024200998884978893594 -0.25918582646267612768 0.28516959745235748169 0.27258804989567636534 0.11851382529632058238 0.082481100215442679224 0.046630238274245422447 -0.0004894315137187209069 -0.067599360141417888515 0.25399564653629519428 0.19832357551029325404 -0.018268998703817460744 -0.062436359176577811703 -0.14099961047818646009 0.11252700540587390332 -0.091299727082966852798 0.29494295182062324479 -0.17835899538599572778 -0.041210002519232590001 -0.11817777866138548526 0.14918305272318455046 -0.19848336215902448454 0.35989472083497298094 -0.19129283112625275476 0.31391267623160024058 -0.11897716619676748651 0.13291466239603419441 -0.16913245416120040177 0.22171196892409444912 0.16593692886547750653 0.27596036717244537551 0.071703605245043627869 0.0055264290125280595561;0.25023418353550358484 -0.35786801920346972272 -0.29347049952706394382 0.13730540233715141096 -0.064121648332895034295 0.15259208184798839225 0.027664499101291692429 0.14437957663665196284 -0.12890915327936439128 0.22480625253640032502 0.088094121126384358766 0.091563683203305615277 -0.20843508093583798524 -0.043223264314172039902 0.24608900718137174946 -0.20864106289194930821 0.25294028074972518816 -0.12865259151461538867 -0.023861679630941594332 0.001208797680606202643 0.050059180133422823133 0.058306795832910374155 -0.22380972988201844331 0.059029606208840859627 -0.084650161497439979641 -0.19891057563682698617 -0.17057925407961768705 0.14752262914848091047 -0.061809230783136222265 -0.16159624365125027645 0.20317813585075386595 0.29459869700666790893 0.083447819971657913318 -0.23332458955629850617 0.16541123503522023319 -0.15723187494233065165 0.29050183391656070331 -0.37365321739290086045 -0.0040159136672966435841 0.36514875261095824932 -0.18225404855748192356 -0.2770142823685310951 -0.16958093644507160613 -0.30181918346241548567 0.059050965144010446328 0.15595391485639154006 -0.363515155535216683 -0.23504438650208692163 -0.19193072400662683497 -0.25653541343680030806 0.14425502447199095579 -0.071286090002452034975 -0.21001280055127577451 -0.05178216613321248718 0.16225889194519363401 -0.087910351871065356422 -0.29163132359740739918 -0.19346229241654949726 0.1784578733492629965 -0.019196847647333131065 0.029394941781101687622 -0.24291492633552175251 -0.01795901982892652432 -0.23855485434633785791 -0.25598672187844406789 0.11928670727963679166 0.11904775621972593647 0.075362953797933091016 -0.12987360702864503281 0.16341181218463143865 -0.022298005553560883846 0.2551342666982151508;-0.11136962779115038014 0.13124729055743072914 0.16767459991044150747 -0.26335039571759866206 -0.22315963667300409146 0.2238947983120436469 0.20894296561162536974 0.046093023441049631173 0.1026826761478872585 -0.14564001280879967926 -0.26408168388609509769 -0.26107246978829112827 -0.1175279308874027373 0.069146524370941667148 0.20081586872939941046 -0.11109485248123461554 -0.30936911752520768193 -0.20982341840728774285 -0.044228494999266100562 0.048201595587773995999 -0.049394055289433601297 0.12746447567825100466 -0.083011938111100705417 0.17297385005747403786 0.19153345223044787593 -0.32043262773971092905 -0.05616607099620690019 0.057448319856812070372 0.062282884672252687708 0.024088985397408248929 -0.15222170112711402856 -0.28887146348162223708 -0.14821530693943324453 -0.30115120796614608389 -0.05703411091680812145 0.12152467994121156358 0.11377867711076225521 0.23434492159174791226 0.2251033490145735172 0.23308132061421144021 -0.14167056119940799053 -0.41035558430743096503 0.058292765352899386655 0.0060770627102364818684 0.16157958023002216841 -0.10120511553142320926 0.20533044851169648948 -0.22015297564621355564 -0.16317034521368059541 -0.10781441046573782272 0.15700279572759040514 -0.23436814728299820709 -0.32285345348698069046 0.011185856714034460996 0.13760905107989274132 0.094037734312693160854 0.092513109265183982033 -0.34379591204905007862 0.08606756149135741385 -0.14932409323523698763 -0.0026229707890769718079 0.15813287562145916798 -0.14316354313482584915 -0.14476410888532248444 0.10030338049378124954 0.12518658780001426511 -0.015722242228015402554 -0.24573633209450365666 -0.30220759146509140747 0.05024701186837892547 -0.22945913484599081422 -0.048707297543084643321;-0.25062614793946574876 -0.24454361967004281664 0.060630184234255243836 -0.17544598852994389149 -0.25381268884725544099 0.18613083556683940323 -0.16205364844171618599 0.080509922500448569127 0.05958957473075600364 0.024605212165144541708 0.07827063854509898333 0.29280037595083147073 -0.32079265739860868267 -0.26754442257514271519 0.28181629455809686924 -0.15799557120853549574 -0.16506214666639479338 -0.21260902701362294209 0.13179965378184260727 -0.038072787634262292289 -0.25466246651359875086 -0.061342322726476841699 -0.012295839073124740018 -0.024632731509297216971 -0.19015491631415123996 -0.28215497452699977998 0.23607533635791330684 0.21759032674478986924 -0.2216254503434094969 -0.18311254433460202873 -0.11042244586318761268 0.22177574181923109808 0.26066182194823189766 0.13261225801327999885 0.21870134798974613655 0.046768289041894624269 -0.14815295578161033485 0.14563455909961497969 0.1499412916772261406 0.15910744291031544972 -0.112260305471396718 0.083036034579790501953 0.043172557692426373477 -0.078933652735519874155 -0.22320915756053538725 0.2763296732881891371 0.049066928907524454129 -0.17195832365640867367 -0.13115232605749832517 0.16424152620687040849 -0.08850732605138562914 -0.077906487071564597957 -0.057996679148885670052 0.0085320129833638246736 -0.064176805153514052127 0.19826264783006986026 0.30990639573314665567 -0.08651063751122853307 -0.26085558644476314338 -0.19336033196586846494 0.16729186590555700231 0.044024716879424288796 -0.12583604766621475646 -0.23256075968679637556 0.11634161771797289775 -0.20916138874158662908 -0.2353746278377774892 0.0089667338460395953209 0.19349357415298421015 -0.060068572708303222263 -0.035999824058658785875 -0.25132258050063105426;0.090228087973468013017 -0.18572826415505241937 -0.23375950258486635769 0.1050818967932401482 0.25086186763345175166 -0.31339243559149193574 0.22119744562131996024 -0.30027230483026051688 -0.050284237438362827666 0.0097046657649663206624 0.020856184193961103956 -0.15235518491697075394 0.11899224290273163751 0.10643674772614326873 0.1763027725400808654 0.13438228528585605126 0.14765695291040450976 -0.021003565907449450734 -0.20515792620269943103 -0.11779299086470999824 0.16342153593405356338 -0.012256484189737643781 0.26213517633762095649 0.19309316951645844052 -0.054212166248368560961 -0.010233944063130424526 -0.12046899770398164509 0.22580231786594420762 -0.2767486863238391992 -0.0070519339072895575321 0.26035482088409889201 0.15504621490164596787 0.13000691851031848101 -0.0042562361070519272657 0.12398739958618915091 -0.36401087336429638341 -0.28492740075792821752 -0.052138829710181522348 0.35920347431288768281 0.087812292863120144926 -0.14981943282868381839 0.041828236440697351417 -0.13387884636881511313 0.11551758194368794141 -0.074735039239957321011 -0.29653746586499191151 0.19670435832894384021 -0.22652340949035415507 -0.054505821288222955356 -0.13495686513186461175 -0.19949524448002620147 -0.24913481808328161171 -0.2798917132010270703 0.069672736705197982343 -0.12095225118329301639 -0.066909971584538277534 -0.063814204393378842761 -0.032477683633281843878 0.035297302211899847513 -0.079323827794435503025 0.13699520234097511961 -0.36554363945336393327 -0.022047680188068793233 0.1596596170425314265 -0.28848787667540720658 -0.25103735170060093029 0.0095908847380652712672 -0.010271898872234938582 0.1955364040803508896 0.18044304738427804913 -0.14964341567348371509 -0.11081453547034075813;-0.29813883140142183326 0.10212077042266698435 -0.026032103426133983148 -0.21166059485294733133 -0.26054342380232003995 0.0050595628198012269905 -0.10171698572320174436 -0.098274005238402725726 0.12640960244431084791 -0.17154771920824524178 0.24322918235658197439 -0.11826266085493979119 -0.007609949534360794729 0.0065542936640071922105 -0.2133514290042224093 -0.26911718709127130378 0.071736000769545948952 0.23813707428592301163 -0.0021887759985851095758 0.12964194323257111074 -0.013694841095815259505 0.15667147229041056278 -0.2419489701911110846 -0.18390812659392685724 0.066084194655397540674 -0.23115344084598116181 0.2029872456686143134 -0.20093579300422126366 0.25245926393014628264 0.14544547065512777873 -0.044155542620606620663 0.19401733877055976629 -0.0046257873099120778992 0.0065444480233199809477 0.21548651329815174393 -0.084444313727624994992 0.079918537983163825955 0.14950587966380649019 0.17742144511568866405 0.0080444710675312471743 -0.25774405339808109661 -0.26532014274368509454 -0.15545567093094606048 0.25931021412998050968 0.0036189161240414054188 0.2027175144092760728 0.28763983353080080363 -0.2473860844877299181 -0.021228466018053355341 0.14636562438738115466 0.07144253482969804836 0.14725317421232214654 0.25272592527771331472 0.17442215897224466747 -0.12981186858106477655 -0.004344106438509767916 0.040769336870254566096 -0.1066529396310467448 -0.07756473318634048153 -0.13281827723829880972 -0.28893085814797270228 0.19031592723598017569 -0.2961456320523853103 -0.29663782916529174427 0.028883830361528518155 -0.28463462503872438703 0.01910789477679951387 -0.15304252899360124007 0.27077044650131881776 -0.070378434023995711799 -0.18928623415305195765 0.24354448134848977192;-0.073427096090371957171 -0.11034511243398564817 -0.2161305189405396121 -0.025374701286888283469 0.28186671717877603838 0.27526503359862758424 -0.22656312724157995353 0.25413442263890939632 0.090669469800133017934 0.066187880342962884805 0.30674499739897859163 -0.032212385199199541908 -0.10222027043461190399 0.13953447117360448515 -0.038914318102678376043 0.23735896530415581673 -0.24728136565809644143 -0.18498671178599712661 -0.24246125546537170004 0.0093030761506213248413 -0.15924517998954473841 -0.17131180146174909695 0.25771368314817355571 0.028567497315027470112 -0.21545579998432023983 -0.23390989252815641564 0.19985828857799772806 -0.060277617373847902638 -0.0041418673921573365831 0.23914927461231177963 -0.15025019530726471673 -0.098636590978166432953 -0.098408178363458234661 -0.046276142493122000843 -0.14122222435917353156 0.1772240143218714592 0.13039541557569567232 0.34011682156727751636 -0.14319304960928630477 -0.12586959523853316623 0.26791529175609923863 -0.14423387475754345655 0.20874316477272872317 0.1773837070773181257 0.1050098377618506329 -0.17447818470729334339 0.11945101384312949155 -0.23403813673980106147 0.10614493748133832507 -0.048718512410714016891 -0.19265442580080333057 -0.23538353638977690951 0.051419392580318704078 0.13568817357312931704 0.12185631679493273694 -0.098497414884720413397 -0.14993554196038214044 0.017414166295924002337 0.167177076385378931 0.25624433627773707256 -0.19091577849916777088 -0.21220805354222127548 -0.10701506691380278935 0.098131403935262886962 0.15424318622434207704 -0.20330701243966139979 0.21003793301096845836 0.16560331988637438938 0.23294748656633884609 -0.20409786341233382423 -0.0079975101146952821268 0.27232212627902507851;-0.053984523780278861893 0.33993964609766180729 -0.26639247871492266473 0.087390330495628221197 -0.26050831308849803358 0.099623139528582593805 0.19870427640129886826 -0.25277067464131536267 0.12985051335696246033 0.19337195618061886471 0.40538554204330795594 -0.03751294932086035594 -0.062542322504382699688 -0.044899862014665711807 0.31619007193046649862 0.0087989495083344339277 -0.28221805193524496236 -0.22952797651979617299 -0.12107701144696943196 0.39832298027045909272 -0.030354025406977822726 -0.22160102191630132173 -0.16803606755101130332 -0.26307198358675054628 0.21421149219694454735 0.075131141769327516866 0.02762493031791532147 -0.28902262115430943368 -0.01191434777580742399 0.035197130339413747191 -0.20954218486558026657 0.23043918056603049371 0.031150551805103506714 -0.24075166627424215982 -0.24376163827736377354 -0.081940903645698101587 0.10441672884135831667 -0.10441831057306633079 0.070401269656380355277 -0.12766278941381714596 0.011244166149140215685 0.174257565532581149 0.14087413661685960209 0.013833227138113347171 0.071943250520579801743 -0.12495708810897487862 0.24579801109301957496 0.20284320319175078162 0.15447759878981401349 0.23126773585133988953 0.15594620748012827383 -0.071462408694613219207 0.041054627679925938255 0.14675635110547641249 -0.15754684297326818077 0.17136580824815292323 -0.027682697443638361323 -0.076261506331834233441 0.21507888369804606388 0.12619189984418596739 -0.2844923802435557203 0.20434505896996491003 -0.28687478357354262437 -0.0072291249953772571471 0.0015409609953452856491 0.28110218894048982774 -0.16101269709950979947 0.12937197446126691425 -0.14327165532137745019 0.26578437712667818404 0.24673407308290040696 -0.062603680215052220914;-0.16004139422203192411 0.19988947941667262187 0.18422700980746231636 0.067299624080131750792 -0.10752855684378601064 0.23558057106729760055 0.20474120796532763178 -0.097620122718838603371 0.16633632945548418314 0.0036940349664675723243 -0.22289654058655233859 0.21061813696202469348 0.24691022978836718593 0.33221678318940028873 0.3269243017462925005 -0.25593035655567808462 -0.17142685038734903347 0.26264022046649510012 -0.15713352152871640222 -0.24704334285705248364 0.26997962534891162267 0.25409671053461280188 -0.036254919918469012685 0.16901624029014625239 0.22637750469671499842 -0.0015563718486046691433 0.076628702490230390931 0.0089739057709641908284 -0.16293524095486636161 0.23012497514249746766 0.051484526900819727047 0.060455291098821271889 -0.073011397912982514691 0.026742453286716739991 0.052283426119611106642 0.0033936615470878052532 0.2487495600305315302 -0.1610372064336101916 0.26542299477726843948 0.11835957195207633119 -0.20129025094733843382 -0.079430800009430868602 -0.18173289025044539469 0.10566506733456143552 0.084489449423287926733 0.13199178451592830097 0.34292157879551599109 0.22763873820615862509 -0.020985708907400965617 0.15327914733632042044 -0.26597414652215195519 0.17088133161748550459 -0.066628893485747797687 0.07933749277969047442 -0.053271808285288678453 0.2706883936152927328 0.13868234446864649567 0.17049756517747616247 0.09407520346123986188 -0.19231290520197902305 0.27798830022250869964 -0.09913171792283950734 0.062514616021336830154 0.033209769857709764418 0.18929072418921727428 -0.22105732955341692025 -0.20938266704239533178 -0.047474559415423542297 0.10103271381180188582 -0.029971672592419167092 -0.25487292252696625017 -0.25895266770360753084;0.029707027963294826284 -0.16338139611928156891 0.16157765822047642779 0.049774528599857183198 0.13221871073811600206 -0.01980409798505404842 0.11227487215787322616 0.33151140268450635107 -0.19478934937912165126 0.094189208231569995777 0.082971556963884057767 -0.077416937030572161027 -0.086435511251472210703 0.33113765151668728137 -0.12281096175699141027 0.27440169798814589841 -0.25877010116108356552 -0.16734601356591105592 0.24292433297288537619 -0.28471708694067143774 0.21105599410513453673 0.10327100665446499461 0.15926019304011115874 0.21407951938742170173 -0.21432470095499225882 0.29034324692787794042 -0.027169965401156480345 -0.18631985248775803643 -0.33742518496362966518 -0.22973840556778701849 0.14613525654119260966 0.29336952106192826228 -0.21368808680281892176 0.21642534944335484193 0.15912370061991995551 -0.027446031261649763561 -0.36369442961507769674 -0.24223947957404884379 -0.39784512161094959248 -0.18820199727675518409 -0.2475940665490806436 -0.19486382029454604736 -0.077356667658432701207 0.098865066464914677646 0.12756942093497788959 -0.32612387586913699211 -0.021210385914159739229 -0.042641695936061714545 -0.010698390121372192141 -0.00071798094343623539149 0.00062534135558923835407 0.184788858311414117 -0.019445962592149788201 -0.36186638162836737287 0.0083832669245505926636 0.10393991922858730748 0.081211032500720953253 0.18656545097056978499 0.076551741561669481295 -0.053576796850173857845 -0.27842653736309175283 0.060524556467184117969 -0.34208959690277246368 -0.23706797228434431379 0.30215140293139280958 0.087365839353332322426 -0.19898577402489078803 -0.031219646869330583416 -0.24399837934953139129 -0.11646023938772151474 0.26491091474064099032 0.028846318201048770646;0.15953973142077451652 -0.23605778652203646129 0.15255860390392192438 -0.14382106312886916433 -0.15337097009950781401 -0.1056225700677288909 -0.22902798435817164902 5.3617253121312699604e-05 0.24300250495038044907 0.089944380361477838104 -0.27187583243803881139 -0.0067071498183962100989 0.20166862109619099197 -0.015802325435399618148 -0.18683099970658587075 -0.05224120644729999402 -0.22179329612743223232 -0.0067553104002468031958 0.20468139946410385255 0.10370024229669985716 -0.041696712413733287572 0.34811320738857692847 -0.2263926733574755934 -0.21151443143012987891 0.19609538355472663773 -0.10518112551648359232 0.21310604491658599602 0.14550457508344163959 0.20182158009365680496 -0.24604951507509598141 -0.065429677538966779515 -0.093169479294257534496 -0.3019841099776611193 0.17572868355969195608 -0.30547634085960811978 0.23667963460917651464 -0.068716177064883462999 -0.058856375958570253393 0.14239616763641460562 0.096766433263099332907 0.11389022894669909025 0.17114592942159298494 -0.28072491892643669509 -0.069370502920888851839 0.017166164491499439487 -0.2530988005757575654 -0.2446019090703027421 -0.13859006434940440711 -0.22821054764652537461 0.086872567452281751477 0.15901975929221359718 -0.01150705831822813538 -0.0010619346159454548517 0.24628110947666603803 -0.013814836521347649556 0.24368905849184011037 -0.21872713127076301443 -0.13627021716993117928 -0.044934848999044645079 0.042232550903548805865 -0.27630721746387765236 -0.22777143262696317172 -0.19372120786932855996 0.20972625674564526754 0.063786025332163043267 0.098726096561046333688 -0.073790296221631829221 -0.19031815466710882978 0.02679888420448481301 -0.23765817773218367304 0.034895499727868165007 -0.06277802593804678033;-0.26028262016698877623 0.33527883766301874724 0.13938865203890918321 -0.19247045076883989578 -0.13608530624121009667 -0.14623931783882743174 0.1381720470605370954 0.11101979279543741641 -0.19326812313377447761 -0.13006240879981606495 0.44904326688389328837 -0.15431432258174690442 0.22668985154510243318 -0.0076818188720544806902 0.12218316569101989044 0.0047502824594485345416 0.34990731134615921105 -0.067031287150533885866 0.25663696144541758848 -0.0045684902216497659533 -0.19628607255821015065 -0.1548259901193070609 -0.26497565870341721617 0.19064421076435811298 0.23120036542361949161 -0.25112442252159394851 -0.11229883166219402357 -0.29396721723600549581 0.37478408592827133772 -0.15708130368600395355 0.3215479152297809895 0.14911202760722896965 -0.21701929893208182776 -0.020751064825402117803 0.024330554517556307603 0.1299338844943297433 0.31981100448692517668 0.23605488422563744577 -0.00070232304636127671979 -0.13289087686137759925 0.11614023919329642676 0.18171089557636077583 -0.17321480050164875242 0.3257746263037260559 -0.21705186744436474888 -0.10442055289634229187 0.10168282569578496188 -0.16828488067449573484 -0.012264555550501092529 -0.0085185758770356875824 0.32444745193754098711 0.012645271293048043759 -0.21029868056042916313 0.021662009724303057934 -0.19371232103008095837 0.082035285146585368299 -0.012635606436452458123 0.18755793883205693073 0.15666149432080184178 0.27271797435973493817 0.042875539969342978119 0.087715243726578101535 -0.2241291859495473382 0.008108916039171003981 -0.080807102486373919015 -0.15505767109092705169 0.1396122446437362552 -0.038766736245044654263 -0.052335921998826639978 -0.13319017576764435873 0.090462237176653123583 0.14089158887326447278;-0.087519957613798327056 -0.15237868483069788583 -0.038139859843559151265 0.38938502487645981764 0.20195099800383353728 0.26977399158088616327 0.072935556714807253664 -0.11850678585281848587 0.13593099450164447539 0.28030738414060324404 0.13493685964472476591 0.17960350479819206515 0.087799392620548297184 0.17544222800822670272 -0.28002286253302871577 0.13946562101455312055 -0.05350935810051012792 -0.25517250446785577633 -0.18996794846553022307 -0.042652039616750819784 -0.21654423279602849628 0.28125872289660514003 0.29334866462699371592 -0.17701958766395159417 0.043529125395151746503 -0.18624532064564536249 -0.095748886481549708161 -0.21524252583419675733 -0.32760167420049984832 -0.049624515950165606903 0.073034100046425812214 0.0055397901267497905164 0.15459568801235853974 -0.3533984572304923466 -0.221613674309842551 0.049280410472741967287 0.19424163725607052067 -0.3874402931960240215 -0.33260453646157006613 0.34509058048319030121 0.34294586973603979896 -0.18494418062400405645 0.036865576651519203766 -0.36625168734214358368 0.29911464768598294839 -0.16410849426124110573 -0.063917305635526472374 -0.14822532447223640828 -0.014295996116352746932 -0.050888830706362388201 -0.24078180109145308485 0.081245012185025750062 -0.16588908650078881823 -0.11425221624141308763 0.10329026026752097245 -0.23048110806621988078 -0.13444645031436397442 -0.25253530429639869936 0.052149057045173710656 -0.1725119430415193722 -0.11699030574736198063 0.040269029958091479005 -0.04795573201339876912 0.038133872745711318297 -0.26657877924900819089 0.17652485489113689532 0.092867466630063816302 -0.019254322740851780027 0.10009881741321179083 -0.12395314844628033124 -0.24002827422934708279 -0.096602588515741535935;-0.0075146578248122628679 0.30410317171105727407 -0.071679646090146251214 0.14322428688739241576 0.022385668797444906175 0.1706095297575205838 0.11747228091573735931 -0.27907088689667586268 0.15717374614808773958 0.16667741574593089582 -0.14647872797746133711 0.093783135241151421857 -0.073347050682432773927 -0.20973673855820190726 -0.12442234166693001696 -0.3041838083038316265 -0.081860119216868768022 -0.13101438542335819282 0.22559249186705579437 0.35261469578222087717 0.063979709218906735679 0.30406462893455354912 0.112391836614278956 -0.15388717735218293559 -0.057090148787120133245 -0.11757375665492331152 0.014323351993956120326 -0.093569798109681953657 0.33220985573210126685 -0.10940680875231185987 -0.075867574975945289983 0.098090361128807854185 -0.32436392933022989427 -0.22291608577569474448 0.1779202984746219296 0.15832623180205868119 0.2234811234883324893 0.17261325249545114713 0.041261667907493991547 0.16032250495259320333 0.13959137069511010076 -0.079245842251360165687 -0.23662100933286184246 0.16567917633492562635 0.3393650406803681574 -0.22760500050156781682 -0.097840925418802890401 0.16946267688016145025 -0.071534038535108007695 0.066976250810633908284 0.14883490088373696469 -0.034326789501495515167 -0.030162375027669600935 -0.14158512518110671907 0.04981603978798403165 -0.23059663620761888803 -0.091984203080206522474 0.34834628957466334809 0.27056862924956576189 -0.21458477990319113626 0.28365032328271350126 0.051021565988608429121 0.10457623699882276358 -0.041134893385382176323 -0.079203941744914158063 0.12552803916572291554 -0.10112305197582630023 0.35026883637239059066 0.29034601685561239881 0.32804954086345355924 0.17622401704625967334 -0.16512886764480394497;0.28091853747017664356 7.9050229717947569086e-05 0.23446293556047786977 -0.0040407880144334318989 -0.15183390517524769647 -0.0040287604903176885141 0.12001794666199179507 0.097595673268720525839 -0.1444410296699736862 0.098809379819275400259 -0.089372807245685012556 0.19104979445075975786 -0.15504827986369557058 0.28609248337488957237 0.071751998489080384691 -0.2454397121050803654 0.11395561868221056046 -0.10602747471591637829 -0.18440834066520539469 -0.086979951574721284246 0.25119502915746910743 0.21559460202594613043 0.24416819585289503691 0.24797941160015407602 0.086924923685280333641 0.20388900479923227627 0.20881090648238445628 -0.17810541614166275348 -0.11628961600472884075 0.048252382367468982238 -0.27980982801025472417 -0.23619597441965825557 -0.15104812447395260522 0.29579727908568620443 -0.088122863857969455093 0.18141678152946044689 0.18451024814071564917 -0.020901119022897235444 -0.029851169525699952634 -0.23197673582818870153 -0.060168050795462071911 0.14364689299484623142 0.21595644081231810119 -0.19645320606889624115 0.0049456553358015499511 0.17656754736355467772 0.20602103969887922141 -0.26302540860598594419 0.34583079644749448178 0.28824526773845587924 -0.25326426019221592867 0.13670642713168007498 0.015001712436408550302 -0.22901417835288903624 -0.093488470054933603404 0.13049052854230858145 -0.089542947312427748074 -0.076905408453350032616 -0.21947579935668318218 0.31007203551931455943 -0.18797183406602652189 0.17211534980162324082 0.16026613834506314715 -0.12838226057227999921 0.067106168434008905965 0.15035547331017384831 0.0065017634086344498756 0.16065458915979405341 0.033164017872721683611 0.27005293896246806984 0.17498687665430148752 0.015375686595546219498;-0.27476092673390134502 0.11311889595486833426 0.21219441510023412389 -0.083423499800175188179 0.044402616360935315276 -0.17510817503719247612 0.18358590159097576411 -0.038660104847514940862 -0.10365079975055244144 -0.24153767478782783851 -0.23929029603890150657 0.27335782502135541616 0.051948385376488853682 -0.23152623855433063227 -0.16969034764322160624 -0.087302342456309786622 -0.0088562868745369182494 -0.13582255824503902675 -0.20384864910893343848 0.16876077889920568231 -0.17339180465166351142 0.081949778581138721378 -0.23648871856540756853 -0.16718001172166649382 -0.23398866700823323095 -0.21354453532915418368 -0.057963145688705156044 -0.12184711172135485879 -0.23104544499075879704 -0.2578316093016873034 0.14904899274210461901 -0.24758759773056743247 -0.19650163164096484669 -0.12379998121830883273 -0.24507796272991955178 -0.0013564937327924426764 -0.23967312760042347453 0.19181943678151203159 0.039853469578641817495 -0.019526931472549420576 0.23441212537830743989 -0.17686395252279960011 0.016174918273406561214 0.018822376176939440567 0.10117649950442265949 -0.21526856730337087797 -0.26842998069051343668 0.025323872759984895203 0.24583849728197104678 -0.24533279392902751503 0.27770738517757148633 0.246818607517505062 0.051315708666788903414 -0.060192187051007865761 0.11332333664245107518 -0.12512163702891393458 -0.20972886776886795479 -0.01243819583767847084 0.20005763016714131486 -0.042982295765522059161 -0.11808006667153397862 0.11624055317738338222 -0.25982536943178485833 -0.15587043134846714776 0.15762704246568745581 0.11415310952368551423 0.1531238370526243342 -0.11685002419926598938 -0.23762699639485981851 -0.27286473478482903277 -0.15912355955479701164 -0.023763084725128408997;0.20130801042040150084 -0.26069569628808586526 0.26982847666661535779 0.13628415607780541841 0.24526184125217276311 0.08919452040395502157 -0.19626085264440074063 0.18774764861015943995 -0.049825401438102184803 0.1273992752783902338 -0.33039845872768647261 -0.17347082888003936829 -0.14028302701972802935 0.092491670294537323138 0.21143969174794355337 0.33608964824743520206 -0.16011951000166005366 -0.11147501870154788439 0.037340570206344916859 -0.11820501359536945973 -0.25962399884856957044 -0.02426251570279705852 0.11044434761492755159 0.30582924907071973308 -0.037652322486129097268 -0.043005620716009350379 -0.1223083175923150856 0.052281638784417702737 -0.31231842940126258723 -0.047039075922348683179 0.26223727671408109119 -0.055145561268759586693 -0.11516538879692153619 0.16778969813944002998 -0.21020809102125725953 -0.010883379305500691034 0.16938966389767659559 0.30376534706806701536 0.086608185747146002043 -0.19592223646602416331 0.21012341175523094328 -0.010774289672253833591 0.25857319535175177228 0.059664816186913230411 0.17106327568063373068 0.16260367517081933397 -0.23561377110785869382 -0.18506826276881913063 -0.23035960888529616319 -0.24254580259240313134 -0.2655966894056340788 0.19664090186946406313 0.1995446512529878702 -0.27411522961702283752 -0.27066589626219361708 -0.05443678531292742151 0.071299125460092788176 0.06819015970826250439 -0.022179733488880561121 -0.29904315928253011325 0.022695101012571144289 -0.18789604931004647015 0.062396706267003221313 0.017034783840525785648 0.10897165286467587475 -0.10356942100735697099 0.11063948500721695889 -0.22427922882557504991 -0.02995263237672999429 -0.29697087297655938576 0.071764321988160573174 -0.27988227986582453477;0.063549960882002154428 0.17378578042017442384 0.32893358984171855441 0.054043924695355141652 -0.24365500890969740699 -0.01563060741711219323 0.15132333591089666691 -0.3043537853473857191 -0.31914283707038160198 -0.25624651925624586379 0.083903331649660115032 0.27009692688370862124 -0.34568125596189813731 -0.16521438097145893509 -0.15610613981907150993 0.23870865279005992754 0.008592297365015049912 -0.087500898781254526915 0.056260610433473724756 0.23473133411701518902 -0.036311222863196240818 0.19277050379973226235 -0.30875288466902844897 0.26359089294879733956 0.23244097671553712314 -0.19283664438113104489 0.28507683366107061662 0.06056979890278284262 -0.18802072404733113919 0.20281354654252545244 0.07795125818172617127 -0.023859624054758447192 -0.07792335316702540815 -0.074327762614438144806 -0.2005056596333247565 0.21153822804212649156 -0.14751444928337731355 -0.17287349307328586656 -0.24891170394124984 -0.097403330048738384628 0.1412100138184203546 0.19393710581237477708 0.035487842528479751625 -0.21336980332002034033 -0.11582888251721379369 0.15509729280383899308 0.105691289692070714 -0.09566042419547320097 -0.27620283351741931055 0.2004659646238436399 0.13400686702060865541 -0.065956418906205946384 -0.035104553345956641952 -0.050787146775912575536 -0.15975176430535720229 0.026185468496487583623 0.10297559790097544907 -0.023612018681575360629 -0.22590738154352482669 0.36573960031184205022 -0.17841452765893953125 0.070445613221439537521 0.18605317921891703636 0.15661346089062241904 0.10192635334696889537 0.34237864379090043876 0.0091195464719253972741 -0.17224957380202560175 0.15386798368258325365 0.045126641849718124311 0.068516182939484193692 -0.031003473947988993004;0.17105911170624699125 0.26153956263330918608 0.2381264434200356106 0.23447493279865980198 0.18244991344305058756 -0.032479038628575054859 0.21266778614437228945 0.30892190770373206821 0.22025548618877424656 -0.0054377609159143459189 0.10679862525172832688 0.20604146297794917464 -0.059535544134420637086 0.11197610451408381016 0.26599848810881476791 -0.22182945535249826152 -0.016895033774716673031 0.17238302813080200182 -0.057024028383209642012 -0.222833926760403922 -0.23929403152445152814 0.093924750024481570843 -0.0031458318645235065769 -0.16322545767665425087 -0.23273527451835462898 0.21357899141669658971 0.17994353940731783181 0.18004081527320270339 -0.25338977453849759192 -0.067166343012177526228 0.28873025541855101839 -0.23283532627669445425 0.29743414760966641053 -0.10119450499959711798 0.28452972641082524552 0.1688256086560751823 -0.16271107096262815706 0.19672645747922942738 -0.15007486928952293304 0.3068328950479977113 0.18190035477168159384 0.28090957063564098162 -0.20628601945215643831 -0.13801066648145324245 0.19973033547095253581 -0.0080382395130646766557 -0.12094130592911729594 -0.23705336728878398378 -0.14202012291325441518 0.23848918103088745379 -0.055307711330987448239 -0.0033861402638168348542 0.12072090497505430506 0.011813853371267902734 -0.12772879395403430314 -0.13444648722966667798 -0.17045680921900621674 -0.072222710836693695957 0.060053114244129547628 0.2884786047394601316 0.086198286477691204999 -0.1862994261914325822 -0.054716239245186232276 0.17675399837111019363 0.18784814866718313464 -0.11789292653877757322 0.060909809111821901217 0.11104194829463676086 -0.0078666203492743710934 -0.071146606197867237609 0.038281214747824518496 0.2607904429714250627;0.15703178648971555242 -0.3414722259831258766 -0.12188941122091970226 0.092118417920022940826 0.13847705384380692983 0.0062626484087118603622 -0.062885341470989605805 -0.12387775022032929129 -0.23001189674056024548 0.15233642516531811784 -0.24927345098669748125 -0.047163161351139862298 -0.17392215464745364173 -0.044777098339853840803 0.23704858819682983473 -0.15960860695785156205 0.28542584161535000664 0.1515143623654023608 0.29683143054241062364 -0.082563014813547941362 -0.16216869616690204881 -0.26014846397210328321 0.24450889524946606279 0.11582141540330845308 -0.12443087418378094566 0.21360397807225711686 0.045907841105555437233 -0.17031577837211059334 -0.17876102329337117958 0.2396422335726174635 0.16261267902405401875 -0.22048309986861047705 -0.072936582686870268799 -0.11377830454788986914 -0.0076948919811813207975 -0.093028316208692812816 -0.091715652241816172929 0.23526613933773013465 0.024121733064559953974 0.060575775037519312416 0.19436922784274812681 -0.32437532553245601585 0.18142574891591384256 -0.0056513055105815368159 0.29409602565502790394 0.085274315177893592055 0.24042049010573357526 -0.025940174136860703197 -0.3415778402164698635 -0.1772012307438590728 -0.32644517554797664038 -0.17922763190521850962 0.15400039769202855666 -0.18237766930496535078 0.24883968761137442716 -0.15218251882529620911 -0.067280170524329024895 0.084660724379952784213 0.2952233084315906142 0.23922547031065052869 -0.088282340436386233518 -0.17410388915339319871 0.26040690618631007203 -0.085862737555204085571 -0.10076815611631412262 -0.054753699514190304343 -0.24784773373759869108 0.21777225453156234813 0.12012100383771959211 -0.11295865415312086877 0.15479264125112873751 -0.17151918981051914037;0.16096223726734548709 -0.024825729419544820264 -0.084696616915843375706 0.088126655167302572758 -0.0050955108689199977295 0.099839606576760761558 -0.17017525463616270387 -0.18680419205608056465 -0.079476158001815996879 -0.16510058311455988456 -0.0091711304129853052358 0.097885687073521202017 -0.044506927299621169836 0.0099568039038070380725 0.24748809391801260271 -0.15177324563002156377 -0.15663194906773728055 -0.1270178151899039598 0.17253671210779666922 -0.17303092213037035707 0.026733107840426321294 0.12910778496707606133 -0.14086622579481619666 -0.10267288921287780201 0.16785135412811877376 0.27745296286146359233 -0.047614011985576354391 0.27178133434177059735 -0.062832249801389877808 -0.059081251395805459148 0.0056325623010111004058 0.3110902821477600777 0.050970889090662808985 0.32214051407132249238 0.2290243074336866802 0.15017442618412327193 -0.16712510481602632639 -0.16239298268129304104 -0.16577882820181399914 -0.35601219393644745193 -0.21373279943834980199 -0.13350316265752387723 -0.198788328619651955 0.063371748823836004938 0.05281019273041671902 0.090156839250409709363 0.096414302237264548623 -0.27127481974327494196 -0.34733317318657919159 0.22926381203277695908 0.11880647754431292173 -0.095587062645619932932 0.18210442449074723537 -0.19368778254234986225 -0.31266285849449843015 0.39239735328413050119 -0.0075222294394929013414 -0.070991341409800526319 -0.36890449610765291277 -0.19699637016329205053 -0.28166565107708668725 0.25433226171693090745 -0.013321697665518572942 0.10294734536548148796 0.29542912134819648839 0.24546083526282597154 0.084075104942480188841 0.12563856786835420065 0.014186161516155705933 -0.31960003522428964695 0.22326420477014277677 0.0419743374480752926;-0.051622949540929628787 -0.075410083381470996433 -0.18016056282331421867 -0.26943234052291464842 -0.066815700580379736029 0.067670051425943095191 -0.32366500051554364381 0.23908307487747834652 -0.32009362489016512932 0.13460563668459696318 0.27831198412579166712 -0.014048639485566855739 0.0056136478168179789611 -0.31333404888003069111 -0.13105887133493704377 0.19776049453239183396 0.18702530074249337777 -0.29182235784191817851 0.060433151788561685624 -0.092804181673410660047 0.26332151919248647509 -0.20040464391592568982 -0.31174923307422619523 0.25505350170769086615 -0.14952727426480261208 0.10962237350924895762 -0.027363144227001062747 -0.32134634379884635669 0.31734139124345617233 -0.1770384374816514339 -0.01555879689592921597 0.029906179554767851198 -0.27671709197672822445 -0.15948440721983198065 -0.040917573201295541485 -0.0050597443266161019199 0.18944105595822544053 -0.14327714916626677066 -0.12399163972859321425 -0.04561670436680112517 -0.018375520412249622682 -0.10952912378757855005 -0.18899076466190317669 0.27226288602406717443 0.12731653109792090417 0.082088835943090882052 0.40174529739895675773 0.11229687151870319795 0.093245768490257174843 0.087547531938200293111 -0.063065536446530248704 -0.13489843926620925796 -0.10664293250658984924 0.063617820301421129647 -0.021003109518970001363 0.288568930570540505 -0.19187177778796676852 -0.092491241416087013882 0.15927341934420422009 0.0058853676501807814653 0.071013392381954754118 0.26627739497737201724 -0.24953076590529424394 -0.28473456851769779474 0.1393523876582465626 0.050142320487603454782 -0.098832153815264917052 0.17090182888826799257 0.14117637674465396969 -0.27885800900904100796 -0.11437592875364707701 0.095803653825009688072;0.13046010313905676004 0.2825712412446157451 0.020862557672561548444 0.20138743571778217056 0.03228392164270153103 -0.093245894980720583911 -0.27359635273990584592 0.01155546420576782779 0.20370852431197383758 0.15959871698269664786 0.43755561008216381502 0.32739085679177065691 0.12416320073904935084 -0.010610692289165869762 -0.12471614127433570951 -0.24291671477112236621 0.15489192616700089844 -0.088671904637459289522 0.18637871668651218027 0.13836026442274071413 -0.1396612078434084081 -0.12063715290930350499 0.13175251662953849086 -0.16904989735396253048 0.040433178992143929686 0.062040573309400048885 -0.25480015223924773471 -0.29310764731502197966 0.26234414562954638805 0.057932685584565553338 -0.14356271137579343367 0.018487987744897477899 0.18309571353560047391 -0.274367886473381839 0.19803987906407791164 0.20339946071289713436 0.13009576568478106728 0.048166154981054407069 0.32854338717937242587 -0.20728419128464611876 0.20878785005485298032 0.27097992163584455616 -0.20602650497256136397 -0.17979649709325029594 0.15712622811141890855 -0.15881826998415618513 0.11085154148666673257 0.15692065298885654601 0.17628161859326277328 -0.27119243564027512017 -0.19282504741656919522 0.080606115839565367631 -0.16776350065734568773 0.13044438436739169695 0.035908264946020576613 0.074856175633713731288 0.088939075261369432424 -0.071029568673452850303 0.21453785656318244413 0.33210360764184693183 -0.12639936398278545093 -0.19998909358326411034 -0.027953643838552914846 0.052653184607752326341 0.23359597346570581955 0.1571625449907829708 0.2520268753483039248 0.25665457353965115406 -0.17450885158228390814 0.26203801134918591753 0.18277019953774398253 0.19392117312196005541;0.15301014029715764853 -0.070294096936641764506 -0.25791371437506926956 -0.21749273468408639176 0.21701054298727673331 -0.0051300942222910405829 -0.12283546823752307386 0.2732466140494762552 -0.1861450831958813279 0.064348549317185199659 0.24276434342174599279 -0.29100955883958523618 -0.045726217458810211602 0.12299239627003026587 -0.28177943698801100059 -0.24901768015899208852 0.037847165629053151903 0.20336977993722968328 -0.14544122904682826869 -0.13149843615941583796 0.26516320612374916221 -0.28730252761340391299 -0.1211714025292782021 -0.072734907605332729807 0.1587825279946398771 -0.065948051146054093019 0.14745235552265309464 -0.23795685300726179823 -0.012776675196722830224 -0.2507137316076056277 -0.060286681841128939019 -0.20253864092661857943 -0.18792250770219884326 -0.23981468049637647 -0.17481072265307112668 0.14213574284449406737 0.23572376924584328983 -0.07960749602328125174 -0.14364376903027462062 -0.026732708829184721744 0.20015927610729314368 -0.21870967529762899706 -0.041193955440941412705 0.27408042003145260956 0.24247045393389107804 -0.23253471729078895036 0.021961909259564569435 0.16179796863034362486 0.056028274202267094872 -0.26764856946876297572 -0.22053963668066842163 0.12923778093892765439 -0.13885210070266729154 0.13777381310694220007 0.19996101819269990196 -0.032672147056566368251 -0.18177379270575036441 -0.091851779776742609185 -0.094955864121898381214 -0.085795667089246893666 0.12599060071699560992 0.033315144378161722083 -0.0077449794623598335053 -0.23257392894330136679 0.007835134747020924828 0.051653326519124909133 0.19752790959194552189 0.19375658204072443436 -0.01337253073887541624 0.17040085982302871637 -0.23621318607796312761 0.27097835377530715695;-0.16063593940245046721 0.080626616835666367611 0.14003353231764170683 0.14807801322982686032 0.027681347795744114942 0.26403062337371435708 0.28697193499492701374 0.2142727968231598612 0.26004338951810818115 0.25749637850165801867 0.085492100306521712216 0.21365073502267342698 0.2873795480732344032 0.034584209310357751088 0.029300546822889638604 -0.23494317568260608686 0.17625709393622951415 -0.25028594198178832908 -0.17334562531782260475 -0.27514944194592100279 0.11490352617915634836 -0.024544814765561976527 0.1465391090828596643 0.19372550720350267817 0.2141195980784341979 0.064113962467245363963 -0.09136963246959570184 0.1484113423904395157 0.051359432080301720136 -0.044402561988391396619 0.092389605129385016236 0.05664213480791175509 0.11319410629011857072 -0.096428063403348557303 -0.20276150155920730223 -0.11093624438065878557 0.099273405807896009101 0.0029990739901648356437 0.24757037211163351875 0.23598887137956944815 -0.26995782990387173772 -0.1985565760419414072 -0.067679761910027363969 0.17290697509859140335 -0.14446246505744456123 0.19013448070022895275 0.13422172079956642965 -0.098465193137249870659 -0.040831933312502989575 0.23469127640141071445 -0.24720270037857050571 0.2482805124823836973 -0.20975263005885202983 0.052528282776669286969 0.024231542712182804061 -0.27451370226569199451 -0.16322905846434099253 -0.19454272423248170076 0.15715921321963810531 -0.18858305631944446978 -0.060261841872491297978 0.27376214903279422197 0.27637879459577008312 -0.18531403086579875672 0.22543137841408916744 0.11955969590478324194 0.042147051334737339889 0.087001541835510995404 0.1928109697196474237 -0.077476334043916489369 -0.19045604863828685671 0.19790801859311402122;0.063303572877409702846 -0.12586359245650985406 -0.1843182080731282646 -0.10135435174967004357 -0.21486612400397286926 -0.22284080303190179073 0.21503010043188144906 0.27473446816267788062 0.24433470333320270185 0.23291083394772069126 0.14504142423197127765 -0.28740484456224496546 -0.10368759119020912185 -0.21155502360194031186 -0.22675042322171778952 -0.035643150151333374831 0.17846463975171289462 -0.2215552508365404849 -0.21346080041713003106 -0.24303098090439809176 -0.13562270730547135167 0.25481773060275358933 -0.21908940680871433204 -0.11533360466405091771 -0.10938365967928170841 -0.11993531409714060232 -0.013538565577570974355 0.13091718130781751506 0.22842843446380498018 0.22035443010652350226 -0.26469234471607300252 -0.2453743317908784749 -0.015329581737738115499 -0.019176559925077312635 -0.10438403037662531692 -0.024222937418141812782 -0.16798591584814256961 0.10464093895260707934 0.26645951743290113845 0.078628888262433582756 0.12277656546570703266 0.15493035736337598673 -0.018660876902021499013 -0.019251902280526898142 -0.10001622009702723637 -0.028889282049646046457 0.030559863371968167683 0.20456271958234470421 0.13519050084366004971 0.23227808746826142383 0.1278744235225657 -0.20079695941718722629 0.20382313625576972682 -0.002317873263325524822 -0.20751200943578257396 -0.12782650511496257417 0.096119846056437766024 0.22384349491237015561 0.16029773169359085028 -0.10320458928864835457 -0.16432573809065909032 0.0091773507748898960901 -0.24498579810359630282 0.050846910861933214409 -0.11444857396352653423 -0.31723509796474402833 0.080308147647878511122 0.12120729449586124804 -0.1343453712885869511 -0.31091295612428127004 0.12048993630174238689 -0.12526746523404722056;0.1880690436189018655 -0.29303855711885151702 0.047485690837020561039 -0.23665799419085867261 -0.29799560710564243493 0.18594775920528355817 -0.2653714897975009146 0.11244610060751519809 0.32164428598492117439 0.24548144259252552279 -0.067028749395151659973 0.016919951981459978307 -0.089478160476072293728 0.29093155930505554263 0.28256055237715071993 -0.16560571149358876974 0.1010627763602684609 -0.036284220990166503318 0.015012534384029843637 0.072741463366079686659 -0.25885633401344387838 -0.22225531284893099149 -0.19869673100341755934 -0.065051087843567098612 0.27966871764549111612 -0.019315617275177717621 0.093487436620901295803 0.18058126402217791751 -0.33394260140705050999 -0.044449642141625680947 -0.075496277648246873371 -0.1297955658738328133 0.19089462987691130369 0.032849277548694454099 0.090510215073132713193 -0.14186187584034537501 0.0024185162701402911078 -0.11388960044256418724 -0.12092408251464147051 -0.16382012355146979843 -0.26789460124542718855 0.11691354978011733734 -0.16818459879068678453 0.07778294582173386762 -0.0078035286787785616835 -0.17357768868324816025 -0.14446708481934666946 -0.27830386743806245775 0.19030765260065213296 -0.098422038586543567074 -0.099571999123014051647 0.058772911285521214908 0.10900414544100243963 0.11525243819416199076 -0.26704612227039958849 -0.41801448753344577769 0.24626858064120527025 0.14440797273329047945 0.077974669547530697788 -0.15332151466968346742 -0.13509563221323953042 0.16894469969408343335 0.0077130119836103967768 0.26429559469145352812 -0.4373379193239870788 -0.20326335115891175365 0.30719630049810670025 0.15831398485837505641 0.00064610796887324827183 -0.053548647824828717046 -0.21277389591465753482 0.16584367300131999667;-0.011754434777461884171 -0.13781230834261773421 -0.012614764246164953537 -0.065412645333038393902 -0.033284200867556568149 0.058660924886426810132 -0.084166981502794974146 -0.030911507847294562162 0.21888245224062302663 -0.28335863132098537687 -0.086538683283333847629 -0.22899335134438225658 0.24261155347615354083 0.15392866246363220983 -0.10769405281096164351 0.024746815664870341206 0.013869857070136899085 -0.20344622470765658107 -0.30592559390691093091 0.031785400960703015516 0.13924146898324010757 -0.12650302885051920021 -0.29590970640880592812 -0.0099513488000128220989 0.054566119419249818623 -0.10976385499592090922 -0.069004425838813818195 0.13440263471362215442 -0.17549612136067721524 -0.31587050257096838113 0.14530121836627055143 -0.13412918513425869937 -0.045736170114710095191 -0.033554515591845981981 0.14839631295326591309 0.31001896073783963281 -0.030355828983421560829 0.18808292431953019253 -0.38201874359172272033 -0.21574709095190586217 -0.05462278275822095297 -0.13012428460728520108 -0.25362419196193924931 -0.23237811943201594489 -0.27283795378690817168 -0.22837238793252781499 0.36871097169384126069 -0.22776011854443503624 -0.098705315099155685465 0.042303195800662295178 0.096993806369154847435 -0.11523412707191607596 0.10473233225059301599 -0.21683475301296395443 -0.047057880333094111169 0.2607333177467771046 -0.15564072985279819861 -0.030221287263110099136 0.013455460046184534312 0.25637349543246512606 -0.1491416648549950541 -0.29234909916059625967 -0.22366301307181593594 0.066351735301392072985 -0.081539992144952166964 -0.31793416808769681126 -0.13309088760722437295 0.20449776117806967024 0.26795554067982474411 -0.26653848586781786478 0.23484843369204339014 0.11534874679376455608;0.24157017418842710588 0.30171753840981685446 -0.065965409979326608547 0.05883293177682740599 0.20080494258952774622 -0.089861556176287618602 -0.19878045865603760634 -0.16652693587737021907 0.10200568590745651143 0.24952321025937335142 -0.12590901865740114496 -0.10276287777841756899 -0.23866000910970286419 -0.13381043593190558583 -0.26040805773495701025 -0.034748775081794337771 0.043887959326415877659 0.048336400852766740754 -0.17211926275234853967 0.22729157074344971678 0.27851459439155668019 -0.040040429709302369221 0.26662810290883520725 -0.29084453953629796352 0.0031159340051362702066 0.25725985333588541337 -0.24434264808009345527 -0.28067527852068524519 0.21196138502300687634 0.098528703375778986517 0.10797320736471088809 -0.23878095864998025166 0.14065135453381155672 0.20859602560328979748 -0.26761987333738168626 -0.24266746238239816913 0.23433818870262823619 -0.058896286925237559262 0.14153331456266024513 0.198888819340359152 -0.096511026665727486784 0.1840984735402716177 0.24044593933554769816 -0.041066257805593649188 -0.2157793229083706521 0.19782205452770820764 0.10462969756803430776 -0.050225813595006912893 -0.067402783409098679379 -0.082348518619311472655 -0.068026288315878438717 0.28107985081122044413 -0.14387419319517560923 0.079203559526747818742 0.085890257181259657693 -0.087679061302913308129 -0.16370484044195920958 -0.19690053099982851581 -0.18405473743863393077 -0.077902477674371514715 -0.019566861618229194897 0.19209022343430737223 -0.17959155388970676759 -0.22857585032036203954 -0.042314924749282570304 0.20054980573502764751 0.11640117719936435292 -0.274847726087026345 -0.12544936749465621095 0.10916117378162387697 -0.063686210648130042733 0.14579459021155938281;0.0058912397467846171553 0.21111777209096385666 -0.011093557258944728924 -0.17622410331602708644 0.19350428525697077609 -0.037291648846482998436 0.12207549533717199086 -0.18995040090344131323 -0.10851730208077303708 -0.049516408437780080887 0.26069335613284172481 -0.011483770596463657027 -0.12690802736602546652 -0.19406732746862240258 0.27092448447426281666 -0.31128404967197592645 -0.13315610676083541875 -0.2608060477632831442 -0.34311145010960641955 -0.034110935574304307449 0.16221776083699523952 0.20131725374359868419 0.21005632548079822275 0.067084623563630457754 -0.21585637141009200723 0.30083564562385844976 0.093780362381191084697 0.11151930735020856855 0.21940026441992099837 0.067901150527689774217 0.21424133856226526551 -0.24389021872677177361 -0.24244989103574696165 0.25095710622511202548 0.2726872567000363512 -0.10825194128367179869 -0.18036264899031229092 0.1443139969808852896 -0.001786454667854504158 0.033978670337200762852 -0.089190234886788899438 -0.1306651167035636496 0.21433103401581005132 -0.19949317771707930635 0.25625857354855502424 -0.18407412951732829431 -0.18788239042305418525 