function [y1] = subject_64_2(x1)
%MYNEURALNETWORKFUNCTION neural network simulation function.
%
% Auto-generated by MATLAB, 29-Nov-2022 00:11:58.
%
% [y1] = myNeuralNetworkFunction(x1) takes these arguments:
%   x = Qx64 matrix, input #1
% and returns:
%   y = Qx6 matrix, output #1
% where Q is the number of samples.

%#ok<*RPMT0>

% ===== NEURAL NETWORK CONSTANTS =====

% Input 1
x1_step1.keep = [1 6 7 8 9 10 11 12 13 14 19 20 21 22 23 24 25 26 27 32 33 34 35 36 37 38 39 40 45 46 47 48 49 50 51 52 53 58 59 60 61 62 63 64];
x1_step2.xoffset = [42.273699;0.0208853203093687;0.000458356807986939;0.383525744203327;0.15113985524058;6.852976752643;0.0594470234113712;1.669410139188;0.0747215598224569;11.5194988184854;0.0113148608387171;0.0962283844032163;0.314506510297272;0.0447120745297914;0.599750882627286;0.0591603595398381;1.51317316627083;0.071139158136035;5.12618085704467;0.00785256847470791;0.0386564763114373;0.376130164895067;0.0217425516057411;0.141821565098494;0.0135035368960157;0.0865635610116481;0.0170150003672392;2.62768917384526;0.12932891864682;0.00336578946505888;0.31107323033681;0.0109159967573585;0.0357476955619983;0.00285284258755504;0.00393233455568656;0.00362651631563688;43.202277;0.00298880448280159;0.00635510877569728;0.461958129512468;0.159794333874317;7.660268741501;0.0737080301003344;2.724902864681];
x1_step2.gain = [0.00471325438184485;0.786356557403086;0.783583056163754;1.36520627051624;0.976680603259507;0.00138534365822303;0.914530580919276;0.000734558861439454;0.679386086599596;0.00453156331326771;0.744459415969741;0.580009130426018;2.14537203531388;1.08677238979674;0.00187723855469661;0.913657928326839;0.000812985867545313;0.71476283690941;0.00741043454626489;0.603108891902869;0.503251379037132;2.77723037959347;1.71875444583157;0.00474616343845457;2.91203477965173;0.00859815875554532;2.31169635210411;0.00995264314895492;0.527230308850985;0.60534525205221;2.81564989857973;2.35486403499128;0.00901068192571114;9.49729934746439;0.0892510688933993;7.40304224959802;0.00470020069504453;0.87555689629267;0.79070833732286;1.21595190673175;1.01880842842909;0.00148774621563199;0.934241588841361;0.000754287075932991];
x1_step2.ymin = -1;

% Layer 1
b1 = [1.5205641406659859971;-1.7014278132623321671;1.1752198248039840145;1.141045609013377371;-1.0631204996739820334;0.63540165012989424653;-1.0151378605063385852;0.96680545136592099809;0.63794535129796836603;0.51667224194423977401;0.70688082686186615167;-0.16305979127194908385;0.27535561541914693739;0.058322229660791383155;-0.4079494467929350443;-0.096969396903015273037;-0.018660802452411598407;-0.19852633337849609485;-0.13907207283481459736;0.2607632845623201745;0.65662674630607387183;0.39567338846989047463;-0.87984636656035719593;-0.90299382131876593238;0.40044374679223587732;-1.0316852572895969242;0.97894523665425958736;-0.9890745023471585462;1.2074396166757543902;-1.5294195535702730382;1.4743813241187542218;1.3703953923057061726];
IW1_1 = [-0.047425877595135397524 0.36673476057078696622 0.12129963847170141533 0.10005170240423072459 -0.31011926031115305546 -0.24982359473453283338 0.20586242562676801415 0.139665555129487029 -0.22651155422617674784 0.13488180177322459108 0.35369146207489526867 -0.13443433549715699815 -0.34283487033596277138 0.27032655376647440892 0.018703356613071323716 -0.43183590692271561773 -0.12715487192569996378 -0.12644102597255055254 0.20231158222133760471 0.033361056242911565906 -0.12685140639441808141 0.021009690104429757512 0.016554904940161548066 -0.309067436691867925 0.36930097363589442505 -0.29466031605292297701 -0.33698104922873767242 0.026046349241322094142 -0.31587260953536888675 -0.075190843343669266918 0.12501582754720733104 -0.0819316172370812279 -0.35912399525093868791 -0.15730227695147727673 -0.29337064636605381107 -0.022442611620525250438 0.29073480906283510894 -0.2737298527671509496 0.18846874236684893478 -0.3954348441877381104 -0.29765469331119120966 -0.01686011587031568254 0.047576019066905811394 0.14653885431882462953;0.2360943276254962031 1.3939687056700507117 1.2453962715318562804 0.19167090000873249211 -0.077861383888542481935 -0.3365733639094442009 0.18234078937686293287 0.12722842328025721348 -0.14295812763460669093 -0.34152558889803041886 0.79667046367220195613 -0.16536944114623691737 -0.11713292614682638271 -0.23376278667467653705 0.2731332873400836303 -0.0016728986266346737577 0.028016351410969312502 0.14284620465178937687 -0.47819570645572745393 1.2603888271011243205 0.30414649242121860606 -0.41308320932584308149 -0.16565354914413835119 0.21993171506763600775 0.12046111573468484823 0.37227166179783977018 -0.011271594275048705397 -0.32103255382316925326 0.73768798880965313902 -0.084569496518400705254 0.51682169468722305439 -0.36273472762430192251 0.27083638752665234462 -0.37438418321028665847 0.39054770344726869036 -0.35424715485654717506 0.0066110440259292777704 -0.57001196929158259863 -0.027786705202226237577 0.55887404841688537172 0.46045792658598255764 0.043302421358735514179 0.19347388546817514965 0.1971188283592479884;-0.28149841235080846902 0.55057701820505811074 0.20509151850962159536 -0.17792466373674939439 -0.11020616398585410256 -0.063586651266351351675 -0.01853834787900869932 -0.32632423067012333862 0.27495876181752004763 -0.10171547642491754471 0.081835529480547203329 0.36293341075646196048 -0.17110082833264431135 -0.36364813777781163084 0.41627047655936966208 0.14338947714867958383 0.066227678692863001242 0.19827774959402735822 -0.01870365239101922164 0.25620218410897249717 -0.23399634172321576164 0.045469514204534100532 -0.2840579585574765642 -0.43986595506094955388 0.2156042098139588914 -0.23902807983972482186 0.030014641205452434469 0.26940329707632471035 0.37608466666422207814 -0.16501437613153230322 0.066882748327439331404 -0.30328008837586017954 -0.26243283494958397073 -0.17894206039021862131 0.0004000682820053422066 0.22241589297077668519 -0.4996863808419207964 0.2770832273193285511 -0.35318219709364201409 0.29711549437085149616 -0.21919410917419426821 -0.41101858233787696983 -0.18740589280716551945 -0.68218832413477781262;0.019742595941120266723 -0.11495768620737918664 -1.0493581081925902332 0.82523942167355901489 0.41360542518953369306 0.01986856604103734783 -0.036721633989823566913 0.053512802271114545682 -0.11414238066968158958 0.230026825003913582 -0.22553863934401124913 0.40472979343370640848 0.82727861096033672439 0.28388808043568830586 -0.12575443171030092904 0.41703220664903090098 0.30272303626568919377 -0.10604287979889656657 0.40791619297947867562 0.0076565462252542078325 -0.15236207866032031033 0.12465615950076244789 -0.28116906540984432095 0.10057800072055816942 -0.081744977269692473132 -0.054019857802824464144 0.1701492602629165185 0.37006631459530558992 0.13781145682641365857 0.62765828753843755372 0.16368174282496533722 -0.057660992624058021727 -0.0057302588873140696685 0.3144353294684701372 -0.34005256712095133231 0.44909405085653891776 0.018636039955014633424 0.16611463373127219323 0.1730424991312217442 0.26867337017592546333 -0.17892718657288142481 -0.34908262885819929533 0.060909694097445815641 -0.43421498196446528528;0.21952577004548379236 0.94640663583290174365 -0.060924672862477970148 -0.8255358752706007941 -0.12933912234205763303 0.21284485122023016901 -0.23274703808052696341 0.039828913344841385125 -0.25975744616905638296 0.16456540098789668169 0.71019672031293012981 0.17652607486969495998 -0.71116956974732936647 -0.27687088578054608323 0.37148807324946042652 0.13645780368914800507 -0.29773625432078582032 -0.098134013536749872819 -0.019359146469826286202 0.85435600907702768936 0.25511383645836011036 -0.4286276477862800971 -0.31370559626209670867 -0.24400770355982434601 0.1220252331523813405 -0.29039714557049434163 -0.29089521448155403194 -0.30364235650127602284 0.85089519556385440069 0.40004610305398341508 -0.20492940235253570558 0.040962391404572751075 -0.18664156550081159591 0.075207206758991784756 0.35689126752065819526 -0.46238649718950874945 0.54742448807655619269 -0.78204226084184591539 -0.38015635186816326696 -0.43486862122949992981 0.29782792251016704244 0.30565168994459224194 0.65972410898133593271 0.12157197209677099436;-0.16960729596072426917 0.84529647718321432315 0.38553058449356431003 -0.080383270062423683999 -0.3551299944883382631 0.14795977515438835104 -0.27352999315730291974 -0.0072027297134286197289 0.22545835963585203476 -0.33517727614100178979 0.75085851034984352204 0.21038648617548483255 -0.051726936835881337506 -0.005671657505251775401 0.51379260709685037334 -0.09971684112431745961 -0.083900894566892411652 -0.011979072352611103841 -0.39261348214173175108 0.71614193668934822412 -0.12412916899463252718 -0.043036735109647658581 0.20429233890714171284 -0.065686831520034918985 0.21257137661899158654 0.31261484512801596125 0.055863830134305750286 -0.3661063033811950973 0.51949720792916886936 -0.047710429931556865013 0.21769331250512424791 -0.26238941559224193689 -0.039013388782817917666 -0.43521273696131751452 -0.064523076222309905248 0.10557736603718043122 -0.30065832564595701415 0.74789992232227386904 -0.024378756110822710074 0.46329199622826872096 -0.20192348744072691202 0.0595686235546182552 -0.19109553876922039106 -0.031629963001812359813;0.049886308801951266545 0.31511452832040737215 0.35816273521424024651 0.44256157549072455692 -0.01321040002532340718 0.13119493166421825059 0.10727774192549938137 -0.018568333955070469993 0.22984974299002594589 -0.27865253792448479997 0.82365650293736236698 -0.13985362105326376581 0.48425806518713804261 -0.0087953701189233419316 -0.29472649908244186179 -0.033645538069939556758 -0.3232512466611350832 0.11641169917501296982 0.25976089752581144054 0.45097089531188949696 -0.057655552913944391191 0.27794353493363210816 -0.12798472321516823902 -0.27551056242021215725 -0.33738764869662962731 -0.19594307562359705721 -0.47912125615468653672 0.16579458151161152735 0.23610059916834968963 -0.17125642530704471289 0.35768451024281039397 -0.39688307376248127545 -0.030279838465681250398 0.25127621849054632142 0.33654731309691626739 -0.17269607943397458083 -0.14983061510563891461 -0.6953779599861458216 -0.026872695424538912967 0.75237460075288009609 0.47502849269490726725 -0.0039905898583707374513 -0.016053291215921212248 0.36338963794622025638;-0.31225782154846248861 -0.50932625088315153228 0.037260698744590224629 -0.94824289396286731701 -0.019196398301507652112 0.1740536004317760066 0.31922819383674988503 0.12585269289295816786 -0.02512864644213814308 -0.080276214647956423143 -0.2441936515987602474 0.011508674268630713147 -0.029149724413734156431 0.37502378330301683329 -0.20722064724063246621 -0.038872632922183771031 -0.09767918140538364713 0.35594559829103727955 0.41221399423774152115 -0.65475708186498449148 0.84454250609564218699 0.25467471386074502782 0.25966353754645782326 0.24161725399206926412 0.17806421251630411007 -0.34173808635152630453 -0.30123949777949993178 -0.095609975785502732126 -0.67579463903155223559 0.317288028118538179 0.38527308342683580511 0.37636371546226693452 -0.30874023531774813511 0.21438245880823597611 0.24937885124795841629 0.52709726923968203138 -0.54071834225652815054 0.30430016814470212116 -0.23573920869738926309 0.15545427790173171889 -0.55066540383142592585 -0.56661860085790050068 -0.1921442387182116518 -0.38524346565074357729;-0.24633284446914813226 -0.27532806864949543879 0.043870806070366315244 -0.4669627755741165287 -0.1546787871101131806 0.49300895383907050729 -0.11160828403571133871 0.32728327739544310626 0.30057122529639968 -0.083281299747190576377 -0.042975592897048213448 0.27538534095053746054 -0.12556648439150663865 0.43282847032284610389 -0.16403476885104939509 0.13172394770521556051 -0.12212301424456320498 -0.16356705015288500182 0.24989159282968242959 0.25821431516005161066 -0.18691986343012184646 0.48282003661393985139 -0.17715176615187722131 0.37306273172967868712 -0.24897002052806016525 0.43197868671819400488 -0.064544708546585130571 -0.060223421852891215189 0.41390667443500833711 0.35585715152253477589 -0.10461531153974482078 0.20209170790832470255 0.46300702126331033659 0.14612389682460125151 -0.024951336275434027323 0.45431676452146729783 0.015093057155089975585 0.79217320874151220256 -0.16571315630569821709 -0.12989477882183253499 -0.2404310067967179998 -0.10701010208920387623 -0.1353192273195044093 0.25863011004168889873;-0.012921997364938497127 -0.1290595362913121158 0.27661068616271550225 0.38393145155437036209 0.11246444508490936742 -0.028812348572463807039 0.05178143636915773923 -0.24056594280982548928 0.24682086269570707726 0.32812945680609034715 0.17081292306692108518 -0.37465416386472405463 0.33973209486115729661 -0.30537641351493310937 -0.20020975130127965924 -0.13730176743654975979 -0.11658063629037261622 0.23622183268922497534 -0.3267545281266761581 -0.15709167989562691781 -0.20152862786021119579 -0.16649458643081932463 0.16816816913107246467 -0.18633511549452649869 -0.17610365943581871018 -0.16140229922121610007 -0.36365615452555338782 0.2367434405652856233 0.1723727123076839729 -0.29623148555550654626 -0.46669439063298973069 -0.32662148015574660187 0.19665788827895491764 -0.01215883131214404167 0.13783301531043998245 0.21570913705565561425 -0.18007717580948937042 -0.10267129906561908714 -0.18549280317023511544 -0.054769582489851274809 0.096251564503499961734 -0.12929277933934321676 0.071810680888698324997 -0.26305605095653022962;-0.53013875565390033984 -0.45646816146709379147 0.0064462334288551952771 0.047431097502760616313 -0.44828202119055121644 0.23762642902848163384 0.086938513428013855511 0.10376433325328524027 -0.21785500863799373006 0.057542458982878609552 -0.42926103186695607761 0.40573646546093955489 0.13047042825344828954 0.10074072979284073859 -0.33708208568360842339 -0.22911906831688946817 -0.40759635755785017519 -0.26437063526842369265 -0.22331911335815926578 -0.06526182269296641747 -0.4417578081019800651 0.16666878020062847465 0.35022524493914430899 -0.37159304114943375597 0.0032217086624952949447 0.1571678892428018115 0.31167200286293084144 0.033810172153471512724 0.1766361109867238266 -0.18383890309928641038 0.10394263931250234678 -0.041323827270989266225 -0.016472450380074468018 -0.38071306227975132419 -0.18565068667932435598 -0.29157331907473021948 0.049512705275523483106 -0.058815823747503798158 -0.1070958522528372564 0.2320475194225513349 0.038114142892501187698 0.12924840228283726584 0.17607844335484118536 0.56955229328751255657;0.11024067288436183165 0.22617017942167108591 1.0128470579201080959 -0.59184424726936923911 -0.20399555333238370003 0.3471415894356857379 0.41869198196009088653 0.18696927539224367232 0.23243535897412151425 0.2507605966457331359 -0.091742516661496451014 -0.26226647428226018688 -0.59742524652025730258 0.2431448473314633818 -0.084119491793480355435 0.010228798674908895147 -0.06431450992571521863 0.096497577300712011894 -0.30679383724873093842 -0.19742535596592661329 -0.0016027218258550315899 -0.48383415026688686433 0.45325464196312859055 0.047608668119273667152 -0.10858523798771330116 0.065475093886564667001 0.29697347002972790397 0.16145978166864582981 0.2711489106801802107 -0.098194377466682483679 -0.25969649439501574228 0.154114538914192023 -0.099524596818530680631 -0.091948645777428866799 -0.21686443074535657893 0.26043059904587234632 -0.4058249813455541144 1.1826152196948058748 -0.49250132148181713365 1.1503201542235428345 -0.41355192343051955239 -0.80724958398591628583 -0.32415743016793341358 -0.72366535740792126141;-0.23741273409627716706 0.41192602590670762686 -0.024898371047374363851 0.41682155915717078454 -0.50580142131422245466 0.11379090281777685945 0.062025545306944686319 0.33559611706733749603 -0.24532707088258115524 -0.24140564616945670018 0.70711195480540611769 -0.085405832700932479695 0.46544927159489546398 -0.63021310430842680805 -0.078074580669758725238 -0.39726603883549010954 -0.092913856984062015432 -0.39139638402389403948 -0.37042688214382568646 0.33557810879239208246 -0.056614438369026152953 0.29619412478757078944 0.035990676830455523016 -0.21141294194298301812 0.031241289468290564524 0.28705327259011131913 -0.097053695311303728177 -0.1498442218429041628 -0.075430747560570957089 -0.044672924586764653498 -0.33318089881454637791 -0.42694860088218566929 0.055215865235214940665 -0.23104132723262016391 0.16112752789811235488 -0.51957191149796244645 0.92988128921022761286 -1.3557361216573591278 -0.15983089832004379605 0.015207896138738836653 0.95848428589879852701 0.58928933291417218143 0.72083017706296848015 0.53183054439256427504;-0.017414671454168979825 0.37494615859748858799 0.015513170431339026734 -0.49373849520074758468 0.20135526325440364359 0.060744691007341214406 0.54026355727268404738 0.30406657935342934485 -0.16349751845845311715 0.47908228374625921875 -0.23252651150807082669 -0.2413846014664318973 -0.13115882961032562792 0.074299219873758218236 -0.030797839503615549034 0.2524983639792587331 0.21691383311126777311 0.095579035960847893993 0.29946592188209886221 -0.29189716014781252884 0.08693726811719948433 -0.35317025005572133534 -0.09596781511350330196 0.45454407572761645895 0.44265384055445294864 0.086605512128188080756 0.084829943773173821508 0.30218327816679657616 -0.36372048137169349369 0.56838897490886430841 0.01505091407007471023 0.15980963658601324284 0.21102970350891303575 0.2130795599986552713 0.58243282682911645676 0.30786381866521617123 -0.0043441487711287987694 -0.074162180130566218716 -0.11735147593603562077 -0.24573823571336192439 -0.35531237012248761964 -0.53038552099048819066 -0.022587851314661188534 -0.44468259401788567953;0.05305373211836605235 -0.1376730244381317303 -0.59578463213196874992 -0.82922292627247562447 0.12952024378582768782 0.21667479313649243289 -0.1243201257300741297 -0.20294504844348548733 -0.31747880055608773686 0.14677133367969286137 0.19508316822422719361 0.28182149983203497179 0.32267835204852973741 0.3199303574919544757 -0.33359362373298290239 0.17569922274520580197 0.071638784618125658787 -0.049637657495833348298 0.081735993950893606752 0.094995137419209910168 0.19302130741518119805 0.19074230931937957711 0.013558589575425175622 -0.10604481138580131028 0.36548024792126526661 -0.24709278749086410754 0.28876034831424557403 -0.14798957891032046841 0.31310391718249058757 -0.021668191753707460867 0.37062097482187889019 -0.10670896185429513958 0.073766684429328877037 0.54022586507956660284 -0.071253487506985069277 0.49924811142501968053 -0.6281435819515805985 1.3332483626875972771 -0.077499419611026298949 -0.43537975448519916633 -0.8039003856766574474 -0.099783894180126050943 -0.92905875952126371065 -0.1089293445133317495;-0.14634501309831063343 0.32080710385537097862 0.26751018856786035194 0.32224980306710482303 -0.41137254900786457412 -0.15410334440432543746 -0.15556314754257580257 0.23984260234494456099 -0.45372483736282809286 0.020515466339031659948 0.45753456029830691376 -0.32526556031320713602 -0.18071412649710869025 -0.016483352067315111544 -0.079577671573325570176 -0.22518793346427076751 -0.10337420650099138353 -0.50046275457754374472 -0.12226052634545120368 0.16415496160254577918 0.050395634599215088922 0.47709163659046438521 0.21079744396894198322 0.056657464228533543915 -0.4009455925569532786 0.1565134811676471005 -0.26118889565582054102 -0.26399782644098784834 0.42835159343814449562 -0.19181109746435395791 0.078851947674732275617 0.2176897022015614469 0.42313893657073625709 -0.45080812253474655815 -0.14220731556109927896 -0.17733420095815086159 -0.30302023355598456389 0.44190799684348808229 -0.29859672983003709978 -0.17609901471984848453 -0.24005868684678949299 -0.26863809228500440396 0.073316260159706395094 0.11337777535259116468;0.17463648629510961086 0.60872534125789101722 -0.2579344157416368355 -0.28987182100397612672 -0.023122806999264625127 -0.23796080791324322745 -0.12819910502497811056 -0.085264206452601964958 -0.25385155934734587868 0.1200630798906729968 0.38691869429926956103 -0.17925819754617183799 0.16601080862200526256 -0.36332671654708165176 -0.15195072397233669315 -0.36894584777812322596 -0.17164287494636135123 -0.14589192097093803269 -0.35775877956749485564 0.58836757549068530171 0.040653395548541852722 0.0034050711397461633917 -0.32775914292992142096 -0.064485361188000897559 -0.44517445296553370682 -0.27076683382892885454 -0.0064459355555227092899 0.17003977270025388835 0.60326324381639218064 0.27287032025353485931 -0.065704561765164176679 0.22430996135142811099 0.17981176435473336661 0.043381389573935079385 0.095631999609975246179 -0.13018511608359437104 0.92742866514587907201 -0.4846946777361126335 0.23019909944941799318 -0.2720894472817484977 0.56592881466726241424 0.72695116916251156791 0.1999684457604169463 -0.013957979431203493617;-0.12390066158185715495 0.14106307169000437129 0.2877107773897790155 0.37614599919910685077 -0.38536668222372860715 0.22302321443767869624 -0.11386163497916117204 -0.3382136190366294981 0.26164547629565765297 -0.016915098100252275171 0.34411185993090603885 -0.17271590347524012898 0.17923138392852103196 0.1055635627765344059 0.21711484517522960935 -0.38213925874997412002 0.32359937347036948907 -0.34667434516315392967 -0.27834570742913056218 0.42995789503793285791 0.32766797530659952375 0.4602428096505652988 -0.050784754094219133891 0.32590779852339130107 -0.40803588640355592521 0.34662936928238263778 -0.37753236830406555757 0.24026547755735511158 -0.079498991669030738549 -0.087791383025865837864 0.50508162773067533102 0.21787940847791731347 -0.20230760770349495714 0.040593176123414759227 0.15760191926774222426 0.046148299980078709426 0.21833797662247259042 0.3231530496249984119 -0.21426339795377141728 0.11355132630656462889 0.10493542456538280938 0.25871496593347581561 -0.14111638524535419226 0.014591043041089456211;0.12624407499754397577 -0.13906239796605704417 0.14698145476406310195 0.91336149219655249354 0.028927138002312446918 -0.082232029979513732165 0.16406472258945761777 0.33351708434889054677 0.12538105923493730876 0.47129106303965906388 -0.22811067900458739666 0.19427480519492948408 0.5866803119728204452 0.23653859743730443199 -0.20840286703644503308 0.1240931171747307743 0.12852801418702983205 0.42238820414558564398 0.36198084353794690582 0.24222313932262254377 -0.4513496000579514944 -0.33180063793247549508 -0.090430287214257942807 -0.40645148854861795629 0.40179091419903745219 -0.47289842540029491946 -0.21183904473489789666 0.28294827983165737884 0.36168867615988387065 -0.37872092196850087875 -0.026537549765942504421 -0.04912935805068198436 0.20178925648987330876 -0.23098676897768161131 0.14622029238722464295 -0.28331828330514585712 -0.065326107437142982848 0.056775541260120243603 0.43990118278598105972 -0.68131987570441121527 -0.47972282773905833286 -0.19751435799884567435 0.013188486106702031891 -0.36393319644521959777;0.061554090792987681269 0.20727975784308572127 0.082631948873272895173 0.40351266006931185704 -0.26894765778332252459 -0.22773331956048398217 -0.15522150412043467238 -0.28988166190800429556 0.027086531778662686909 -0.35561266258524287798 -0.10995848595537251191 -0.27204698769264545888 -0.25438804575554962994 -0.26008539431254745766 -0.17398858523531024467 -0.17186056445241384982 -0.19586780122880070865 0.13057784233749597513 -0.37398533210205159305 -0.29546222025871576866 0.00052590510670990514054 -0.04924783949822981316 -0.36852485539723539576 -0.073446846270736748652 -0.27226808828129023254 0.01968459584657141978 0.00058456371844777584718 0.078297195555278864543 -0.13876832904690164505 -0.082783984007616440159 -0.21890475055051883402 -0.18957707943508603221 -0.12653532720197244177 -0.32278653504747101266 -0.31133790039028130803 0.174143394488640052 -0.4884524819095246162 -0.30359510634598085854 0.21265982645717299016 0.13973065494426459288 -0.22379167341765970889 -0.43534277393194720229 -0.29289161109339068023 -0.22663191157500206518;-0.15879332228674974958 -0.28444992975755700737 0.58864653861113258593 -0.34637044522040855155 0.21093654349192458852 -0.27348856029086071606 0.20368608991786307794 -0.030591460640613271638 -0.27856744381196379967 -0.18444431426794472006 0.091139171698085802431 -0.097644390097092470526 -0.27721184013632738097 0.17755229817004611337 -0.44093937491847312593 0.11448315672449183023 -0.24886150100040588251 0.18995989545039412838 -0.28616411241692507605 0.039377338891661992082 -0.26154554120980255671 -0.082573232081641509406 0.10019927300299261153 -0.17566663489498629547 -0.061830555900138223224 -0.4240837881839557566 -0.25122976851889633476 -0.36091222242596354697 -0.06863669412557958649 -0.28137283221044667725 0.37559520288977060742 0.1641708854022462527 -0.40757215315633338326 0.24725272390171082471 0.16226151805236679881 -0.05213359970380467695 0.63975508438850414716 -1.100028514635590593 -0.71537779741656071231 0.62630225294351071774 0.6189309439794477008 -0.14187127569162072405 0.34409746395813067821 0.31124033448131716018;0.14732801253621161108 0.59649604949166734613 0.34929970000668136842 0.13879781033930541079 -0.26690950289322190603 -0.049662715164667095569 0.2825935151695719294 -0.097604767804003372822 0.14729664780764054055 0.11106007946574976419 0.79993569631893801652 0.12088554915636670617 0.4313496917684167542 0.10887833467712454416 0.27413201385346969152 0.030008121736171899929 0.35706287929036573114 -0.20536148225267841783 -0.37943044029577788212 0.66634280471721496486 0.37723923899028155571 0.36609305051328633329 -0.093833873193120712064 0.18741851167692530344 0.044788575813224838773 0.21901864659578229588 -0.26784997365356272292 0.33826449215621362532 0.80141426322386621894 -0.26158158875855735959 0.62544033921693864553 0.10145836027345662977 0.36327313778009173717 0.14437737316288576372 0.29585867548096062007 -0.23302065907790356358 -0.19420889364617627271 0.089443570631057914277 -0.043492891263137725688 0.33969614808883930035 -0.31115959972884538187 0.27128989922061041984 0.1990983332781398607 -0.3157574037168955905;-0.24811782877057395047 0.21692752144074967102 0.28522245571813670262 -0.026926152833580230955 -0.048728776251286368137 0.10032547476552496069 0.40304708621241880362 -0.12129413010198106249 0.18423898673753058564 -0.2403944343400017114 -0.26158607196457300814 0.22213245824747696044 0.21217870163724156241 -0.0095217434526780851678 0.085757695819028270656 0.22685694771186654117 0.44053207486150502969 0.010289225676646723828 -0.16318508874871326397 0.059798395561182174363 -0.17035451970989148873 -0.21260317279070989338 -0.013643390439590553226 0.31942701385477206832 0.28951426758172432718 0.34930629237563282086 0.23760074606133782527 -0.22419042953860945921 0.27400807185562042756 0.29641607626520416474 0.39696583187146777805 0.22987376806295992115 0.095635053510989762038 0.027195417349456716544 -0.22418840013725224725 0.011295072471425793986 -0.45099405514709273168 -0.13817429892192767404 0.17994112726725883245 -0.17518936071369023422 -0.077046630912996405538 0.1703949144353315015 -0.34996647671382896672 0.024351716599436513261;0.091723704622549112608 -0.40500998632243412345 -0.39956781259030277331 -0.88632562352666954819 0.58874165194312577665 0.13941890475738627497 -0.24647651119492505756 -0.026895878991601011171 -0.12626222681070004006 0.03994807397835851287 -0.68145762130590070704 0.58609287316706892845 -0.081332670428046607847 -0.17862786052177720419 -0.33372096444813964533 0.20203234980193335302 0.42578011451613856364 0.19056121091856792482 0.24484981836382477272 -0.18600329823777417282 0.12781923670311184926 -0.65109332188671831254 0.073775686729937992037 0.014920346981907582282 -0.22816952250464586638 -0.044925468789545328074 0.033750485642327181235 0.11659411994358870324 -0.014293511467869305862 0.31924312802866661176 0.26956422000851382181 0.46026071506288546153 0.18396347149092368012 0.66324128916369229358 -0.20110197288115624903 0.45410803377096004008 -0.47070602436932801327 0.87332128556728805258 -0.54302592550046646647 -0.71943623388884592185 -0.81282284196640963714 -0.054406180487718169836 -0.63174870663808613269 -0.28620839775024953244;0.29719671323863788848 0.13273662569772168296 -0.5502317271223465811 -0.23441888244352301895 -0.022962680235226920478 0.095650576372070278408 0.40595485318309826317 0.024003426875076679103 0.2781471740323266939 0.13349528453887957169 0.16936413591548299395 0.18167831938053197183 -0.19712252215684245016 0.13368158644929431511 0.54527160514326999952 -0.2359475939713619741 0.41238451253659774709 -0.30609190172257638718 -0.16460536748509163596 0.42569697624209429376 0.36749326226261075368 -0.10993118906721910388 -0.35074817779385897287 0.32856207807117132624 -0.40582658909854624207 0.32296217280852856923 -0.18490206771925776774 -0.26483593811583805433 0.66596305887020268433 0.43244235005583470111 -0.44687001159242156767 -0.095532344398919638584 0.44000753345879406453 0.14143219087193539818 0.22183255998324191705 0.18348935426268975224 -0.40635542476595770678 0.64636436804049857141 0.51473242002040398013 -0.39405283243233629742 -0.82144598029850302012 -0.65922526302642237006 -0.58751120864684569511 -0.65770719072034300456;-0.16536081496091725729 0.47228355653535458725 -0.74477850828385216975 -0.38612582093577829667 -0.24371209736270768587 0.12912167329775064983 0.089013873207311786095 -0.37278744661135665428 -0.14839765603860693988 -0.32305704534199813915 -0.12164448161901118828 0.060054713600445834565 0.29498670858885500667 -0.36012402900673973205 0.0093923231661243635621 -0.27337565562612936576 -0.33149791768671721393 0.18516129154880306418 -0.29890229304072529759 0.3591474371888967454 -0.20948495062069796835 0.2637494947409793622 0.0084756163130672614037 0.027361686939968703214 0.095279209645151713426 -0.24121892920559928619 -0.45173532400278393339 -0.12402889077532132378 0.44882007170711729627 0.01078665361888824295 0.033762494391029081175 -0.39169426069463231244 0.26299768927306338417 0.099414761557752528986 -0.32680882501055685818 -0.45274855615815801091 0.29571082200875270507 0.24291134202020489563 0.11231428319101019464 -0.16169423123978216017 -0.34519973808441273277 -0.27866323901656525619 -0.34086431695727698044 -0.27917241278583193598;0.21084869023703653457 -0.0066043850750606408057 0.50788971849850550466 -0.21210105415184302147 0.34640923595232575583 -0.21480682232757283834 -0.27228037882711075834 0.23591363460986891631 0.1035751389902766495 -0.052270168524575978675 -0.11724522633644648972 -0.050346297231257650107 -0.41800804732180624201 -0.32086463692368033529 -0.22214479431111963659 -0.119538263373197437 0.079774265058988547139 -0.085558745092676538602 0.37217874763453401288 -0.68269999160312844211 0.50992268959194819722 0.38878561283686285943 -0.026869969146080814604 -0.12260812852750539725 0.04505170862906322099 0.31291064573085536349 -0.12674082520663909612 -0.22184950974740627605 0.0128921141791267721 -0.50083923790575601842 0.23887936217918956383 0.14235020003140588796 0.036490731540631551888 -0.20234813455599984233 0.48842518528549688783 0.37599122565924986139 0.1798119213521234272 0.182851712825431445 -0.26798820738425194188 0.52281468703969680156 0.20960083842887658467 0.27019257081348252436 -0.30750162708489420238 0.32258325135770166137;-0.2153437200836917087 0.36940412539436939809 0.43699320455171175581 -0.39057832427872829495 0.17486645120098570638 0.089812560675292432699 0.20429143649021672124 -0.15132848807550300374 -0.25192208075996325167 -0.36428038606434270941 0.07571149358545856134 0.52715023049536791078 0.15528773053239902646 -0.37403731376354160121 0.19404428591526523551 0.31545333375019818378 0.34137436984243374472 0.11082101986846244757 -0.11840162366390240278 0.24335583900374288535 -0.12202174254010382526 -0.18462718924388010766 -0.28994307071430019951 0.26548594397214247964 -0.087275962001449561289 -0.21266576178495288918 -0.00440979223161348452 -0.050960412805234833744 -0.36839707851792780069 0.77335213572145700134 -0.30407120523942093859 -0.047229238342592946842 0.29913837301040052674 0.090375530288323721595 0.12483610979914963601 -0.032507654955669394725 -0.03414685132850900362 0.31138957940297096183 0.036438233892270896486 -0.17319079584158703078 0.29488133987597037189 -0.13767033104254738918 0.28995171734113395212 -0.19073686085278690472;0.047509447871539781105 0.63914091482553447854 0.50296470490738243164 0.15780317776866298329 -0.024254372971041771034 0.030728456646827568416 -0.0964781878606731369 0.0665886112562901894 -0.068140922066155226733 0.24256469697548196929 0.46783403440044113442 0.030565513720139495663 -0.19428885904212461755 -0.22655657735924755736 0.40213389550652345328 -0.26168059518864233981 0.14686787073427795547 -0.33398247698683425355 -0.35450746308759484293 0.59935041079003292808 0.25043623698293637769 -0.40280075414003491119 -0.2679896203485667705 0.48423147693851009699 -0.41324058986150724593 0.1031027541117092855 -0.1417216841875015565 0.33024295810245291038 0.31571180052948316641 -0.25042794581466648607 0.42451107533999754562 -0.33987309299606649482 0.34827999784967916819 0.21790041592435308027 -0.05027420958038145149 0.016456216074591474563 0.15589269957749288253 0.11937993855655827657 -0.23924258119339528172 0.42525003769298258538 0.37071365677323314669 0.44883134750303099736 -0.27524646511644801361 -0.15727630765637479193;-0.35853546491001708763 0.59225167108255616366 -0.40692604146894073569 -0.3580790597669816222 -0.13652336532243483647 0.37270868200762019562 -0.15174747555466569504 -0.038865180160324981629 -0.40195529811779434626 0.15081880433376779194 0.79389636076431646661 0.41043283161734900322 0.10800714465107581763 -0.28693084562278675653 0.24980838912420641473 -0.031909400175961943891 -0.01824107767944184097 -0.26008196520161219745 -0.031424529533384280844 -0.097459217527199965003 -0.22930459921711005 0.026443646040195036007 -0.40939515848865282166 0.44551675284446812242 -0.24173442869762865048 -0.29202026647173073837 -0.14582036289666974738 -0.51646425832272058187 0.50795456041967124161 0.016111472777778287901 0.33965268099641526822 -0.52707014714503996888 -0.11729955700184220568 -0.47051589051405778852 0.12921147969212978812 0.039131610253612676698 -0.13510294721410465169 0.40895108114982409164 0.092605499328327428588 -0.75747439136946581595 -0.092895233593299028629 0.090727863882027401377 -0.1101480623927906799 0.1446145111027791752;0.33296172910134291811 -0.19815372923879304157 0.13793423827484668776 0.52486926709043890682 0.0025800906772246749374 0.03700259400199781834 0.18366420841750644155 -0.1340415666362208269 0.18221909403964473007 -0.34583276726144990265 0.32170097178667717008 0.11625971574036089717 -0.19853533136506928969 0.33638823160011183111 -0.23956297074456023299 0.11910924770378693294 0.30872930304744261587 -0.014422657485768430874 0.1405712044368143121 0.32288840549114983247 -0.020922245211205836579 0.073749326480260071759 0.42057463187677557315 -0.17098864527174206795 -0.22728487811490633019 0.10926098853255017396 0.30886240919236529479 0.42745968206778467424 -0.19320983403873520645 -0.072044074580153397158 -0.25101424249196979677 0.069640398580772894244 -0.19154961873162293373 -0.12485120408342337273 -0.25830124916249486144 0.36662102602387564021 0.53532047889054701351 -0.30833547318896675771 0.032253523666039722595 0.13909769240043548533 0.19465630091926316991 0.1244756525219499893 0.72801530778071998906 0.61544425320864848405;0.032630204235465989915 0.52124772375538375169 -0.20083076866864679744 0.3081702829616382866 0.219102872905560353 0.21187468096342432222 -0.26576439245063970818 -0.17645960247258468678 -0.032781625147432220946 -0.41470302722267043949 -0.12305508370290436926 0.095832404994825287625 -0.14032337916421086521 -0.19359678991765688627 -0.27118631726770214829 0.19413925706483067812 -0.33161814938170014466 -0.36932705766895024269 -0.0083687275239104387536 -0.035271684070653862297 -0.025934065052094640302 0.49553962630985898263 -0.21948876736728456516 -0.24507581406094566812 0.27693247056193787126 -0.11753342813443370951 0.12373529569276171813 0.1365059554981354617 0.48504182886697072563 0.19149422732257770363 0.10587276650660067123 0.013375187790059252582 -0.20073709360416550074 0.33435681541181083709 -0.22507480063068813214 -0.28223946606583361074 0.3746254247186797115 -0.060463533547868396345 -0.34083638547256911444 0.43834699995722442578 0.39545866711141719474 0.26692471910655485301 0.26902089812100482558 0.17300235542492337082];

% Layer 2
b2 = [0.50599288567390932059;-0.41147235778149859886;-0.127515359994561428;-0.13674240595454309477;-0.34273565295213681559;-0.60871050010932370444];
LW2_1 = [-0.014448791500640274788 0.19103634391697238426 -0.22138977220130490187 -0.56628181720644987784 1.0996215602260641653 -1.1944265563727269885 -0.074035121641347109711 -1.6310034316688906131 0.48843058092189955977 0.050614266721602810262 -0.83529364487494084379 -1.6912076084527793984 2.3071813509948255749 -1.1643720427964034947 -1.2243582281074554263 -0.53432371127536548716 0.89067564506829455251 -0.7672106859722864769 0.47998526517448308892 0.23587012611262006545 -0.82737350786861030283 -0.025864961748560347937 -0.63228692526646002037 -1.1647777059024702062 -1.1399230719168711445 0.10627858014543266341 -0.75887431740186239715 -0.012502765641328832807 1.2892334743147455534 0.18287594756611996738 0.82246182706449666444 0.066013259267956050924;0.23751962391665237817 -1.4634901915951783469 0.7939767106831531196 -0.75578791493993924266 -0.61352387765775595607 0.45199435154279798965 -0.91805118710798427895 -0.10900368993113687677 0.91717443710922130773 0.44294720183262442648 -0.59544489169216963109 1.5219689089695167539 -1.3099026495159942218 1.2759339159480795889 -0.3750650721099315632 0.0013831467670732677799 -0.99543919879734876766 -0.40635352402369517844 0.98679375046285633388 0.31497169947999348327 -1.0960174889515896801 -0.59607065117735136273 0.88592001951104515367 -0.12780669628988838848 1.0504924418073355863 -0.89636121660098466712 0.0029691887143062185503 0.26364173985873806672 0.78019127169557400681 0.16448369209432892046 -0.5061000027476657559 -0.8981939648703314294;-0.22681900396748636006 1.0817074722963002653 -0.77618542272195556464 -0.14279895824132463056 -1.6324251265761888785 0.16083417408459002584 -1.0866286947512235894 0.61183697441130147077 1.1987510818932110013 0.043636759054748799902 -0.56456222392603017113 -0.71392346582658916532 -1.1640725921648993335 -0.99832676920249174835 1.6711883291676370433 0.51944079839633250373 -0.57911205133337939621 0.049160305095877002146 -0.36832418940554206843 0.60959859317130415945 -0.83790010369620449016 0.5816307069335157065 -0.52891627241010774618 1.9580828776470511343 0.22782108832551653532 -0.45345171911210763183 -0.34537936580787970131 1.1831201929273840179 0.4064870328969886204 1.0502553569371215758 -0.74264863505371525587 -0.61896724183294660193;0.61593569803514836014 1.4395564569489394113 -0.2883924741322236307 1.1601154357822778262 0.047847367586624500735 -0.67986775563229684405 0.93229071378377681434 -0.22650083508450730152 -0.07879495076505398099 -0.42093439637406682152 1.006191111976445951 0.5193987456193224217 0.24852228632336806347 0.4803862495286935208 1.1178778678635958865 -0.61944807765568543623 -0.58483191370006915033 0.33110107118681036953 0.7052652750861104769 0.60115796352656269974 1.0188026323336856205 0.55232362874055251911 0.32825012086733401651 0.51007192849385196709 1.1834492305305490678 1.1661013232112551474 -0.79568342300219663255 -1.0349725631434323336 0.13123182157767349088 -0.86980965089144390845 -0.79861023749696136154 -0.53061020218946508553;0.019268142233301588373 -1.5543140153120742486 -0.94420387666080141109 -1.0463999833505299719 0.71783622857144235851 -1.0145948042538246447 -1.2095491439149335111 1.1076261771305877524 1.0430281129094638448 -0.63901485426012527569 0.73414898828056973645 0.97830312873248270744 -0.28395156450098735235 -0.36057116798923138923 -0.11777285276322520258 -0.35252782059339821119 -0.33085995976649007488 -0.73016097142162494915 -1.3236067523646801725 -0.8516064891958643468 0.3914715030052027811 -1.1618459014320552392 -0.80176998217616690656 -0.64164991392732140252 -1.0277925115394905831 -0.62068526097587795043 0.80035844962964708404 0.46049327516038163211 1.3525112770948317653 0.99701498835607638149 -0.14154322886042886021 0.53745706697549455733;-0.45522415889502948483 0.84992045560021500794 0.40423318495980065101 -0.60067045784205119752 1.2850653011661388181 -0.54334682961419356051 -0.21227275412358925788 1.0625169886678302866 -0.77641002577046236421 0.070548887045410998975 0.031487086128104226079 -0.83029010030315331115 0.9893639431785298255 0.71487848141057641627 -1.2791889432949066219 0.36526430629532641303 1.096502123851582855 -0.023582987990369907311 -0.72621200662979412677 0.1409426072060626367 1.1344656539344102342 0.11715715769015502823 0.064169595657747727224 -0.92368295448033754802 0.2350512937221256593 0.7780719792646217936 0.32661579377515043143 0.69484425362237045576 -0.1550215323838900483 1.0215197628516612394 -0.74284844068156996588 -0.78472249311079422807];

% ===== SIMULATION ========

% Dimensions
Q = size(x1,1); % samples

% Input 1
x1 = x1';
xp1 = removeconstantrows_apply(x1,x1_step1);
xp1 = mapminmax_apply(xp1,x1_step2);

% Layer 1
a1 = tansig_apply(repmat(b1,1,Q) + IW1_1*xp1);

% Layer 2
a2 = softmax_apply(repmat(b2,1,Q) + LW2_1*a1);

% Output 1
y1 = a2;
y1 = y1';
end

% ===== MODULE FUNCTIONS ========

% Map Minimum and Maximum Input Processing Function
function y = mapminmax_apply(x,settings)
y = bsxfun(@minus,x,settings.xoffset);
y = bsxfun(@times,y,settings.gain);
y = bsxfun(@plus,y,settings.ymin);
end

% Remove Constants Input Processing Function
function y = removeconstantrows_apply(x,settings)
y = x(settings.keep,:);
end

% Competitive Soft Transfer Function
function a = softmax_apply(n,~)
if isa(n,'gpuArray')
    a = iSoftmaxApplyGPU(n);
else
    a = iSoftmaxApplyCPU(n);
end
end
function a = iSoftmaxApplyCPU(n)
nmax = max(n,[],1);
n = bsxfun(@minus,n,nmax);
numerator = exp(n);
denominator = sum(numerator,1);
denominator(denominator == 0) = 1;
a = bsxfun(@rdivide,numerator,denominator);
end
function a = iSoftmaxApplyGPU(n)
nmax = max(n,[],1);
numerator = arrayfun(@iSoftmaxApplyGPUHelper1,n,nmax);
denominator = sum(numerator,1);
a = arrayfun(@iSoftmaxApplyGPUHelper2,numerator,denominator);
end
function numerator = iSoftmaxApplyGPUHelper1(n,nmax)
numerator = exp(n - nmax);
end
function a = iSoftmaxApplyGPUHelper2(numerator,denominator)
if (denominator == 0)
    a = numerator;
else
    a = numerator ./ denominator;
end
end

% Sigmoid Symmetric Transfer Function
function a = tansig_apply(n,~)
a = 2 ./ (1 + exp(-2*n)) - 1;
end
